%YAML:1.0
my_svm: !!opencv-ml-svm
   svm_type: C_SVC
   kernel: { type:LINEAR }
   C: 1.0000000000000001e-01
   term_criteria: { epsilon:2.2204460492503131e-16, iterations:100 }
   var_all: 256
   var_count: 256
   class_count: 2
   class_labels: !!opencv-matrix
      rows: 1
      cols: 2
      dt: i
      data: [ -1, 1 ]
   sv_total: 4
   support_vectors:
      - [ -1.38495350e-02, 1.45180076e-02, -6.32162765e-03,
          6.71717757e-03, 8.38088163e-05, 4.71892039e-04, 5.17064193e-03,
          8.37551150e-03, 2.94204541e-02, 3.92060429e-02,
          -1.54365655e-02, 3.50887850e-02, 1.42591465e-02,
          2.56712083e-02, -2.64942218e-02, 4.13417071e-02,
          1.51387183e-03, 2.98578907e-02, -4.13669180e-03,
          1.48548055e-02, 4.12643664e-02, 5.68025745e-02, 1.98817383e-02,
          5.31094745e-02, -3.27982067e-04, 2.15468020e-03,
          2.73349648e-03, 4.12945868e-03, -4.57375078e-03,
          6.97856629e-03, -1.67109249e-06, 4.58506169e-03,
          -3.72745213e-03, 3.71093862e-02, -1.24301873e-02,
          1.48135768e-02, 9.77334846e-03, 1.35395285e-02, 4.87458240e-03,
          1.97653845e-02, 2.88099885e-01, 3.92677814e-01,
          -1.01312146e-01, 1.79918244e-01, 1.93231329e-01,
          2.17786714e-01, -3.76525298e-02, 7.80045614e-02,
          -1.57249317e-01, 2.23675802e-01, 5.91574609e-02,
          2.17458099e-01, -1.01531751e-01, 2.36546814e-01,
          1.63560715e-02, 2.25483194e-01, -1.83472820e-02,
          2.98095793e-02, -1.21779358e-02, 2.56197266e-02,
          4.60791914e-03, 1.42377522e-02, 5.04480721e-03, 2.29328871e-02,
          1.94158871e-03, 7.46632693e-03, -2.01799418e-03,
          1.36705032e-02, 2.97830650e-03, 1.66788306e-02,
          -7.02455733e-03, 1.14056543e-02, -1.20677903e-01,
          2.77238131e-01, 9.87264067e-02, 1.95811406e-01,
          -2.79127359e-02, 8.28665718e-02, 1.17089879e-03,
          2.04312101e-01, -6.86198324e-02, 2.00900778e-01,
          2.90655941e-02, 9.26810130e-02, 1.02792564e-03, 2.47578248e-01,
          1.87551547e-02, 2.01208502e-01, 4.17420361e-03, 2.19840053e-02,
          -3.26677933e-02, 4.06772010e-02, 2.37477012e-03,
          1.89201906e-02, -1.08799096e-02, 2.76928078e-02,
          -2.06707767e-03, 2.45401007e-03, 3.92921688e-03,
          5.61798364e-03, -1.61865039e-03, 2.64669186e-03,
          9.45380947e-04, 3.34444596e-03, -2.69836839e-02,
          4.53559011e-02, -6.87964214e-03, 8.58841557e-03,
          6.47147745e-03, 8.79396405e-03, 3.43413651e-02, 4.20210436e-02,
          1.97988236e-04, 1.71489920e-02, 7.12080393e-03, 2.68995110e-02,
          2.31908597e-02, 5.62500805e-02, 3.71832703e-03, 2.85032950e-02,
          1.72222313e-03, 3.34961107e-03, -2.54617678e-03,
          2.83859135e-03, 8.63560475e-03, 8.93615559e-03,
          -2.83001503e-03, 4.44027269e-03, -2.97764491e-04,
          4.38706251e-04, -1.78699571e-04, 2.02297975e-04,
          4.44866600e-04, 4.63698525e-04, 4.18114032e-05, 4.93745843e-04,
          -3.03787626e-02, 6.35866448e-02, 1.25656761e-02,
          1.47849843e-02, 2.02816352e-03, 6.69273594e-03, 1.50379271e-03,
          3.26874922e-03, 2.29392778e-02, 2.78695188e-02, 2.52665486e-02,
          2.65229866e-02, 3.83424317e-03, 7.35215982e-03, 2.66741007e-03,
          2.74041994e-03, -1.56908145e-03, 2.32126843e-03,
          -8.00731126e-04, 1.62469049e-03, -2.22969524e-04,
          1.02011708e-03, -4.93879488e-04, 1.78487587e-03,
          -2.58855475e-03, 3.84639809e-03, -2.55241478e-03,
          2.77717714e-03, 2.14034948e-03, 2.44003278e-03, 2.41068518e-03,
          2.89894850e-03, -2.81477749e-01, 4.33197796e-01,
          1.47204623e-01, 2.88527519e-01, -1.24685420e-02,
          3.03823650e-02, 3.46584395e-02, 4.57409807e-02, 1.41743720e-01,
          1.78162098e-01, 1.87570423e-01, 2.29394689e-01, 2.94731604e-03,
          6.72896951e-02, 1.85620307e-03, 1.70567743e-02,
          -5.26527688e-03, 1.80776063e-02, -6.10615639e-03,
          1.00731896e-02, 2.29815324e-03, 9.09392629e-03, 6.11233350e-04,
          5.11423917e-03, -5.11283195e-03, 6.38910290e-03,
          3.26769405e-05, 3.26769405e-05, 2.63841078e-03, 2.68198038e-03,
          1.20486170e-02, 1.20486170e-02, -1.90699995e-01,
          4.40522879e-01, 5.76465251e-03, 1.33969262e-01, 2.10633390e-02,
          2.97040604e-02, 5.18593863e-02, 5.79717159e-02, 3.71797495e-02,
          8.28900412e-02, 2.76322782e-01, 3.35995704e-01,
          -3.79803441e-02, 5.65474182e-02, -1.26393382e-02,
          3.51100340e-02, 2.17009685e-03, 2.05264632e-02,
          -9.76087246e-03, 2.06098240e-02, 5.51757449e-03,
          6.73087453e-03, -1.86146132e-03, 4.56884317e-03,
          5.12303122e-05, 3.76669457e-04, -1.44420017e-04,
          3.85562191e-04, 7.42105825e-04, 1.04997051e-03, 2.72280769e-04,
          4.28157888e-04, -3.69199179e-02, 6.65952936e-02,
          7.10481405e-03, 1.87271293e-02, 9.81306424e-04, 5.88167924e-03,
          5.56143513e-03, 6.27035880e-03, -8.25956580e-04,
          7.40088709e-03, 3.97808738e-02, 4.21255417e-02,
          -2.67619779e-03, 6.69570966e-03, 2.13854318e-03,
          3.50722903e-03, -8.72576202e-04, 1.95759838e-03,
          -9.11450828e-04, 1.07572007e-03, 1.13821581e-04,
          4.03460494e-04, 1.21505263e-05, 2.10585725e-03 ]
      - [ 1.06881371e-05, 6.64556428e-05, 3.00906505e-03, 7.24626146e-03,
          -9.89208557e-03, 9.96682327e-03, -1.02558993e-02,
          1.03075299e-02, 7.36070611e-03, 1.50185348e-02,
          -4.13472131e-02, 4.22206298e-02, 9.74826794e-03,
          1.26309739e-02, -6.11346550e-02, 1.15102626e-01,
          -4.96824784e-03, 2.01996882e-02, 5.92219736e-03,
          1.60350557e-02, -4.31914022e-03, 6.76192790e-02,
          3.27804568e-03, 7.04289600e-02, -7.05041923e-04,
          1.70911429e-03, 6.41750824e-03, 9.12908744e-03,
          -1.01457471e-02, 1.11206332e-02, 1.28676789e-03,
          4.41509346e-03, 1.44038796e-02, 4.62011360e-02,
          -6.47502989e-02, 1.08765714e-01, 9.47523396e-03,
          2.56557614e-02, -2.30391677e-02, 3.64828929e-02,
          1.69655591e-01, 4.39551532e-01, 9.13463980e-02, 2.33755797e-01,
          9.35128033e-02, 1.44494906e-01, -3.74405133e-03,
          9.49591771e-02, -1.14085913e-01, 1.70756564e-01,
          -1.76011231e-02, 8.05926248e-02, -9.16706212e-03,
          6.38247207e-02, 6.78848401e-02, 3.67608517e-01,
          -6.79617822e-02, 7.05336258e-02, 6.86657429e-02,
          7.14482293e-02, -3.00765820e-02, 3.13625038e-02,
          3.55146639e-02, 3.72347347e-02, -6.97269440e-02,
          1.12780049e-01, -1.00269308e-02, 5.72183579e-02,
          -1.59748551e-03, 8.66973586e-03, 2.51704603e-02,
          4.00048457e-02, 2.10948847e-02, 2.26256207e-01, 1.68718800e-01,
          3.41998935e-01, -8.75950158e-02, 2.01644421e-01,
          8.40952562e-05, 9.15101990e-02, -5.03581800e-02,
          8.44897777e-02, 1.95072517e-02, 1.89027444e-01,
          -4.72754352e-02, 1.55632004e-01, -9.60308872e-03,
          1.48419306e-01, 1.96501147e-02, 6.71729967e-02,
          -1.11771170e-02, 7.72566125e-02, 3.07929958e-03,
          2.87928749e-02, -2.16374900e-02, 2.54374761e-02,
          -3.63246794e-03, 5.55682927e-03, 6.72609312e-03,
          8.65756162e-03, -8.45021009e-03, 1.25330938e-02,
          2.87659699e-03, 4.66331840e-03, -3.10613811e-02,
          4.19590585e-02, 9.07765608e-03, 3.30328643e-02,
          -2.48658117e-02, 5.46648167e-02, 2.49143764e-02,
          6.77881092e-02, 9.23363958e-03, 1.39145106e-02, 7.13793188e-03,
          5.13062850e-02, -6.66386914e-05, 6.73818663e-02,
          -1.02477723e-04, 3.25982012e-02, 5.04537486e-03,
          6.15234580e-03, -4.39140829e-04, 1.84201577e-03,
          9.69777163e-03, 1.38295898e-02, -1.43625226e-03,
          2.78345845e-03, 1.55265070e-02, 1.72881149e-02,
          -8.28581862e-03, 8.28581862e-03, 2.41839269e-04,
          2.41839269e-04, -4.37637529e-04, 7.31372100e-04,
          4.75754291e-02, 6.49169534e-02, -1.64619423e-02,
          2.99241599e-02, 5.70897013e-03, 7.83066358e-03,
          -7.80331320e-04, 3.97242233e-03, -1.25203766e-02,
          1.91970952e-02, -2.20565614e-03, 2.28430517e-02,
          -6.26389682e-03, 1.55480467e-02, 8.34187493e-03,
          2.10699588e-02, 4.63961856e-03, 7.16771791e-03,
          -1.51172921e-03, 2.46538478e-03, 8.68782308e-03,
          1.28237028e-02, -4.19935212e-03, 8.39359034e-03,
          1.09132141e-01, 1.09551989e-01, -9.23082381e-02,
          9.23256427e-02, 5.29552251e-03, 5.31292893e-03,
          -4.29451279e-03, 5.20920800e-03, 2.99621135e-01,
          5.82601011e-01, -1.36564553e-01, 1.72732085e-01,
          3.44949141e-02, 9.30444971e-02, 2.59362683e-02, 6.88516498e-02,
          -8.59681591e-02, 1.10002846e-01, -2.26868503e-02,
          2.33927906e-01, -6.07253872e-02, 6.75924346e-02,
          7.85080623e-03, 8.36837664e-02, 2.38932054e-02, 2.42900345e-02,
          4.99747752e-04, 2.72626095e-02, 2.89637968e-02, 5.55723980e-02,
          -1.83524266e-02, 2.14062762e-02, -5.91895077e-03,
          1.42074063e-01, -5.59927598e-02, 1.04726136e-01,
          5.99616487e-03, 6.53878646e-03, -2.84209871e-03,
          4.23625670e-03, 8.20908621e-02, 1.76142737e-01, 1.44307554e-01,
          2.24233270e-01, -1.44073647e-02, 8.09056461e-02,
          -2.01311037e-02, 7.67851099e-02, -1.47494674e-01,
          2.69395024e-01, 1.28919203e-02, 2.70522565e-01,
          -1.83847062e-02, 8.85742158e-02, -6.12421334e-03,
          1.01860456e-01, 2.18822937e-02, 2.51001194e-02, 1.78933535e-02,
          1.98991075e-02, -4.86314902e-03, 3.97556238e-02,
          1.85553101e-04, 2.06652889e-03, -5.32433949e-03,
          2.79747043e-02, -8.10360652e-04, 2.45142449e-03,
          4.64413402e-04, 5.58365369e-04, 9.25387139e-04, 1.15178840e-03,
          -7.62022333e-03, 1.33526018e-02, 3.68789770e-02,
          8.08455124e-02, -1.96878030e-03, 1.12969270e-02,
          1.27358991e-03, 4.03929129e-03, -2.33758558e-02,
          3.80022824e-02, 8.65739956e-03, 1.65183898e-02,
          -1.03003276e-03, 1.13124326e-02, 1.34046003e-02,
          2.18413547e-02, -3.08633945e-03, 3.64999659e-03,
          7.27027329e-03, 7.28002330e-03, -7.74352858e-03,
          8.96862149e-03, 6.20505726e-03, 6.41767681e-03 ]
      - [ 2.85452744e-03, 3.29990662e-03, 3.01069487e-03, 5.16315782e-03,
          -1.27487502e-03, 5.67468163e-03, -1.19814300e-03,
          2.11333856e-03, -1.20322639e-02, 3.59268785e-02,
          2.14799028e-02, 4.75011319e-02, -2.45172624e-03,
          4.04335484e-02, -2.63151038e-03, 3.00218351e-02,
          -1.50711481e-02, 4.68955524e-02, 2.12692237e-03,
          3.67234983e-02, 7.83522963e-04, 2.36951709e-02, 7.04492023e-03,
          1.47657050e-02, -2.85144569e-03, 1.14575960e-02,
          -1.93416839e-04, 2.51887506e-03, 6.99457945e-03,
          7.97160808e-03, 5.63942827e-03, 1.46112675e-02, 4.02448792e-03,
          4.94646803e-02, 3.98034370e-03, 3.67077328e-02, 3.05646798e-03,
          3.48652489e-02, 4.49413387e-03, 1.93647407e-02,
          -8.20175707e-02, 1.57748520e-01, -6.92679808e-02,
          2.42375657e-01, -5.65407313e-02, 1.79635212e-01,
          -9.65594500e-02, 2.91862249e-01, -2.72283331e-02,
          2.40761116e-01, 1.10650599e-01, 3.50959301e-01,
          -1.24764614e-01, 1.69228837e-01, 4.76064906e-02,
          1.48692235e-01, 5.81779070e-02, 6.04801178e-02,
          -3.42530431e-03, 4.42758463e-02, 9.76743102e-02,
          1.15745500e-01, -6.57969639e-02, 6.68797269e-02,
          -2.25363672e-02, 4.37425599e-02, -3.21158976e-03,
          4.04952131e-02, -4.56544338e-03, 5.01858490e-03,
          -1.41704537e-03, 2.06086989e-02, 1.07560148e-02,
          2.00125009e-01, -7.19805956e-02, 1.62818581e-01,
          1.31735563e-01, 2.30338290e-01, 3.14240567e-02, 1.82398662e-01,
          5.00429794e-02, 3.33515555e-01, 1.72905270e-02, 1.91461563e-01,
          6.32534772e-02, 8.81002545e-02, -1.04083130e-02,
          1.62314817e-01, 2.34371200e-02, 4.69094887e-02, 9.14504111e-04,
          4.40525077e-02, 4.27607410e-02, 1.01098992e-01,
          -9.71916988e-02, 2.21531153e-01, -3.58974421e-03,
          3.58974421e-03, 7.00472062e-03, 7.24083465e-03,
          -2.11438350e-03, 2.11438350e-03, 1.31992961e-03,
          1.79404893e-03, -2.24374924e-02, 2.88662165e-02,
          3.75984528e-04, 1.17980437e-02, -1.31962625e-02,
          3.88834737e-02, 1.56674422e-02, 3.18426713e-02, 3.12384758e-02,
          4.31827120e-02, 6.38643105e-04, 1.20017063e-02, 3.96310957e-03,
          2.37149876e-02, -1.76734268e-03, 1.20836589e-02,
          -3.41319991e-03, 9.85971745e-03, -3.23161110e-03,
          8.74300674e-03, 3.99581995e-03, 1.25855450e-02,
          -2.63236440e-03, 1.28317224e-02, 1.66809958e-04,
          3.45089217e-03, 2.59284425e-04, 3.24050459e-04, 4.60718619e-03,
          4.68623824e-03, 1.29166443e-03, 1.38276571e-03, 8.76357406e-03,
          9.92283784e-03, -2.77031620e-04, 2.00992264e-03,
          1.64002869e-02, 1.76130086e-02, -8.35430459e-04,
          1.01941510e-03, 1.10623601e-03, 1.48178427e-03,
          -9.59139504e-03, 1.92757193e-02, -3.79934348e-03,
          9.62770917e-03, -3.56712267e-02, 3.57964076e-02,
          -6.49355492e-03, 7.06928503e-03, -1.43308332e-03,
          6.44176872e-03, -2.44860508e-04, 1.06295268e-03,
          -9.55915370e-04, 8.09474196e-03, 8.98913480e-04,
          2.86554615e-03, -1.68280005e-02, 2.39794347e-02,
          -3.02432640e-03, 5.85647253e-03, -3.16089503e-02,
          3.22505683e-02, 3.34410742e-02, 2.51761019e-01, 9.32073295e-02,
          2.62189627e-01, -6.13981001e-02, 2.06209272e-01,
          -1.23562150e-01, 1.68330580e-01, -2.38240004e-01,
          3.26271445e-01, 3.81465182e-02, 2.05194697e-01, 3.77147309e-02,
          1.52926102e-01, 1.65733814e-01, 2.93884039e-01, 2.03571189e-02,
          5.22183999e-02, 2.26668622e-02, 2.66936012e-02, 1.49275502e-02,
          2.66351178e-02, 1.03528816e-02, 1.48488311e-02,
          -2.09182445e-02, 4.95992936e-02, 1.74977034e-02,
          3.66364159e-02, -4.03004372e-03, 3.36209498e-02,
          1.90928988e-02, 3.60263810e-02, -1.09094307e-02,
          3.42038989e-01, 1.31760329e-01, 2.11888611e-01, 1.05163962e-01,
          2.93454558e-01, 2.54343413e-02, 1.49700791e-01,
          -4.19651456e-02, 7.30921179e-02, 4.22469452e-02,
          1.98061258e-01, -6.66088238e-02, 1.04180321e-01,
          -8.02246109e-02, 1.27929255e-01, -2.20298581e-02,
          3.78851183e-02, -8.86567496e-03, 2.90162694e-02,
          -5.70766302e-03, 1.10224485e-02, -7.97958765e-03,
          4.13443372e-02, -3.98989394e-03, 7.72180688e-03,
          -4.50404920e-03, 4.67749033e-03, 1.18587026e-03,
          1.24974223e-03, -3.31576914e-03, 9.99067631e-03,
          -1.18964259e-02, 4.37720828e-02, 1.18678156e-02,
          2.64756288e-02, -3.85932019e-03, 1.36551596e-02,
          2.74967421e-02, 4.36170548e-02, -4.79028327e-03,
          2.48362832e-02, 2.08237004e-02, 2.38692965e-02,
          -2.04376457e-03, 5.53739890e-02, 2.46151574e-02,
          2.74805482e-02, 2.28415825e-03, 2.49797804e-03,
          -3.17879458e-04, 3.33755073e-04, 2.98767723e-03,
          3.05805611e-03, -7.97155139e-04, 1.09097164e-03 ]
      - [ -1.59412797e-03, 7.44032394e-03, -1.33606745e-03,
          4.51055076e-03, 2.87012335e-05, 1.69606821e-03, 1.89214351e-03,
          4.86033410e-03, -3.54879200e-02, 3.54996957e-02,
          1.45731941e-02, 5.10911681e-02, -5.80380065e-03,
          5.81557490e-03, 2.94421124e-03, 2.21031923e-02, 3.52823548e-02,
          4.73955348e-02, -1.46196561e-03, 8.52920488e-03,
          5.77999167e-02, 6.16139881e-02, -1.45691996e-02,
          2.29184683e-02, -7.52955815e-03, 9.93138831e-03,
          -1.67749042e-03, 2.21471349e-03, 7.46292667e-03,
          1.24929566e-02, 4.35038004e-03, 1.16905402e-02, 2.01555062e-03,
          2.74984092e-02, -1.60528217e-02, 1.96389128e-02,
          2.53753061e-03, 8.46044812e-03, 4.00523050e-03, 6.12003729e-02,
          -1.46001242e-02, 2.25869179e-01, 3.88702117e-02,
          3.15275520e-01, 3.33043921e-04, 7.95747191e-02, 2.43241917e-02,
          1.60453677e-01, 8.91081840e-02, 2.60673523e-01, 1.13939971e-03,
          1.54976875e-01, -3.70466225e-02, 2.93626636e-01,
          4.31828499e-02, 4.30370510e-01, -4.77590859e-02,
          6.59566671e-02, -3.77704985e-02, 6.60464391e-02,
          1.23900566e-02, 2.97892503e-02, -2.73017138e-02,
          8.53757486e-02, -4.00155131e-03, 2.51061041e-02,
          -3.20727308e-03, 1.84454042e-02, 1.00653814e-02,
          1.85594503e-02, 4.83702635e-03, 2.96850838e-02, 2.40725018e-02,
          3.25955659e-01, -7.58041143e-02, 7.89900869e-02,
          6.10623993e-02, 6.52788952e-02, 1.59817934e-02, 8.46467465e-02,
          1.26621425e-01, 1.99769199e-01, -2.65485570e-02,
          2.23427117e-01, 3.78809832e-02, 3.05077612e-01, 1.24975666e-02,
          1.70230418e-01, -5.18062226e-02, 5.55657521e-02,
          -3.53173874e-02, 3.54879797e-02, 2.48644892e-02,
          2.57174335e-02, -1.78326480e-02, 1.32616594e-01,
          8.51471486e-05, 6.22963998e-04, -5.88906836e-03,
          6.58225175e-03, 3.86224070e-04, 7.69115111e-04,
          -8.68208800e-03, 9.19015147e-03, 7.84974080e-03,
          7.84974080e-03, 1.09906811e-02, 1.17554022e-02,
          -1.59004405e-02, 2.11894251e-02, -1.78123673e-03,
          1.78123673e-03, 0., 0., -1.12553569e-03, 1.93463976e-03,
          -2.02754093e-03, 2.02754093e-03, -5.93208103e-03,
          5.93208103e-03, -5.86811081e-03, 6.46949606e-03,
          -4.05996293e-03, 4.20145225e-03, 2.48170528e-03,
          3.19912215e-03, 2.05812859e-03, 9.88654327e-03,
          -1.85390923e-03, 4.62613162e-03, -3.35677550e-03,
          3.62614240e-03, 1.30606303e-03, 1.64536072e-03, 2.39313114e-03,
          4.62449621e-03, 1.46209570e-02, 5.23711108e-02, 1.57098509e-02,
          3.16918194e-02, -1.69557391e-03, 1.94559526e-02,
          5.62400334e-02, 9.25295129e-02, 8.37197155e-03, 8.41937773e-03,
          -1.40482169e-02, 1.62715595e-02, 1.42581889e-03,
          3.31566017e-03, -1.07266346e-03, 1.12006965e-03,
          -4.34409641e-03, 4.63029137e-03, -5.75821707e-03,
          5.79862203e-03, 1.36143262e-05, 6.84335246e-04,
          -5.64935151e-04, 1.34655437e-03, -2.71921512e-02,
          4.04867120e-02, -5.59943654e-02, 6.20695278e-02,
          1.35085010e-03, 6.76571438e-03, -1.26956217e-02,
          2.59174500e-02, 1.19150914e-01, 2.84298509e-01, 1.90730259e-01,
          2.28612706e-01, -1.15392737e-01, 2.94580817e-01,
          -9.20306072e-02, 2.69261777e-01, -3.05452142e-02,
          5.15409671e-02, -1.17034204e-01, 1.25875264e-01,
          4.29082103e-03, 8.04804452e-03, -1.26524605e-02,
          1.63595770e-02, -7.24106934e-03, 8.33690446e-03,
          -2.17367485e-02, 2.22362690e-02, 8.00504407e-04,
          1.18453533e-03, -3.10378731e-03, 1.75582450e-02,
          -2.76735201e-02, 3.49651799e-02, -4.00987789e-02,
          4.43924926e-02, 1.78161601e-04, 3.54911759e-03, 3.36098194e-04,
          5.89433685e-02, 1.43169910e-01, 1.70688719e-01, 1.80386588e-01,
          2.18419060e-01, 5.97209670e-02, 4.35192466e-01, 1.61666458e-03,
          4.19991612e-01, -1.18848011e-01, 1.19952038e-01,
          -1.00894004e-01, 1.03696845e-01, -2.96557159e-03,
          2.96557159e-03, -5.03767189e-03, 2.59173810e-02,
          1.89714937e-03, 4.77633625e-03, -3.48252972e-04,
          4.84055514e-03, 1.34074027e-02, 2.32204385e-02,
          -2.75499281e-03, 1.32534504e-02, -7.28398468e-03,
          7.31202448e-03, -5.04495110e-03, 5.08696446e-03,
          -1.51195214e-04, 1.51195214e-04, 3.44008976e-03,
          6.92869630e-03, 2.89143939e-02, 3.12422514e-02, 2.02849638e-02,
          2.59662904e-02, 3.26492153e-02, 7.92623237e-02, 2.19217651e-02,
          4.59236316e-02, -1.12369116e-02, 1.25921676e-02,
          -2.98560248e-03, 8.38917121e-03, -2.85987766e-03,
          3.35830031e-03, 3.83620791e-04, 3.08508961e-03, 7.56345762e-05,
          5.23068709e-04, 6.46587432e-06, 3.50746588e-04, 3.34927259e-04,
          1.52439182e-03, -1.45148733e-04, 6.23683736e-04 ]
   decision_functions:
      -
         sv_count: 4
         rho: -6.7312121391295832e-03
         alpha: [ 1.0000000000000001e-01, 1.0000000000000001e-01,
             -1.0000000000000001e-01, -1.0000000000000001e-01 ]
         index: [ 0, 1, 2, 3 ]
