%YAML:1.0
my_svm: !!opencv-ml-svm
   svm_type: C_SVC
   kernel: { type:LINEAR }
   C: 1.0000000000000001e-01
   term_criteria: { epsilon:2.2204460492503131e-16, iterations:6000 }
   var_all: 1024
   var_count: 1024
   class_count: 10
   class_labels: !!opencv-matrix
      rows: 1
      cols: 10
      dt: i
      data: [ 0, 1, 2, 3, 4, 5, 6, 7, 8, 9 ]
   sv_total: 50
   support_vectors:
      - [ 8., 5., 4., 10., 78., 6., 5., 8., 19., 13., 36., 27., 54., 12.,
          49., 34., 54., 6., 26., 21., 15., 14., 35., 16., 74., 4., 2.,
          3., 4., 3., 2., 5., 25., 12., 11., 20., 108., 10., 8., 23.,
          78., 48., 108., 104., 108., 41., 108., 108., 108., 24., 108.,
          108., 66., 35., 108., 91., 101., 2., 7., 15., 9., 4., 13., 6.,
          17., 7., 4., 7., 108., 3., 2., 4., 47., 30., 41., 26., 88.,
          16., 22., 21., 105., 17., 29., 33., 36., 24., 18., 23., 100.,
          1., 1., 3., 5., 3., 1., 3., 7., 5., 3., 8., 96., 4., 4., 5.,
          19., 16., 19., 10., 55., 7., 22., 15., 83., 13., 22., 17., 28.,
          16., 12., 21., 75., 3., 1., 3., 7., 3., 1., 2., 51., 16., 52.,
          45., 46., 10., 47., 79., 30., 16., 75., 70., 42., 33., 106.,
          71., 30., 11., 56., 59., 42., 27., 78., 94., 57., 8., 33., 47.,
          33., 23., 80., 26., 70., 46., 73., 63., 72., 30., 41., 87.,
          45., 30., 106., 91., 43., 25., 100., 75., 54., 31., 106., 106.,
          52., 28., 70., 96., 89., 15., 54., 106., 48., 9., 61., 41.,
          32., 43., 27., 7., 39., 10., 13., 5., 11., 20., 53., 27., 16.,
          23., 18., 6., 13., 17., 38., 24., 12., 8., 12., 13., 67., 4.,
          11., 18., 19., 5., 3., 4., 33., 2., 1., 1., 28., 1., 1., 3.,
          10., 3., 3., 5., 17., 4., 1., 3., 17., 10., 4., 2., 10., 9.,
          5., 11., 59., 6., 1., 2., 22., 23., 3., 5., 4., 2., 0., 24.,
          60., 2., 1., 6., 6., 5., 6., 31., 40., 5., 25., 17., 43., 28.,
          7., 5., 3., 14., 26., 4., 55., 21., 1., 2., 2., 4., 1., 3.,
          16., 8., 9., 16., 105., 9., 9., 17., 44., 25., 87., 65., 86.,
          26., 105., 85., 89., 11., 62., 59., 38., 27., 82., 48., 97.,
          2., 4., 7., 6., 3., 6., 7., 25., 14., 11., 17., 105., 9., 6.,
          18., 73., 54., 105., 89., 105., 37., 84., 93., 105., 26., 94.,
          105., 60., 28., 84., 72., 100., 2., 5., 12., 7., 2., 9., 5.,
          12., 3., 1., 5., 102., 1., 2., 2., 31., 15., 12., 9., 63., 8.,
          11., 9., 86., 12., 10., 10., 30., 22., 7., 16., 76., 1., 0.,
          1., 5., 3., 0., 2., 0., 0., 0., 0., 0., 0., 0., 0., 43., 18.,
          72., 47., 132., 13., 18., 27., 132., 41., 81., 19., 45., 19.,
          19., 18., 0., 0., 0., 0., 0., 0., 0., 0., 0., 0., 0., 3., 7.,
          0., 0., 0., 75., 42., 42., 116., 132., 17., 23., 53., 132.,
          86., 36., 50., 89., 37., 26., 27., 5., 1., 0., 0., 0., 0., 0.,
          0., 0., 0., 0., 64., 41., 0., 2., 5., 10., 14., 13., 132.,
          132., 4., 48., 25., 132., 128., 14., 12., 8., 21., 44., 3.,
          33., 40., 0., 0., 0., 3., 1., 0., 9., 5., 2., 32., 111., 6.,
          4., 11., 12., 10., 20., 33., 55., 9., 45., 27., 75., 31., 18.,
          12., 8., 21., 35., 8., 89., 22., 1., 3., 4., 5., 1., 5., 3.,
          3., 1., 4., 75., 9., 2., 1., 18., 21., 17., 11., 76., 15., 21.,
          18., 6., 6., 26., 15., 3., 3., 34., 14., 1., 3., 25., 8., 2.,
          4., 23., 6., 8., 3., 2., 9., 104., 5., 1., 5., 53., 20., 49.,
          61., 107., 11., 44., 84., 28., 14., 87., 64., 26., 26., 107.,
          69., 21., 8., 40., 38., 27., 19., 54., 54., 15., 4., 3., 10.,
          107., 5., 1., 10., 90., 36., 54., 68., 107., 34., 38., 103.,
          51., 32., 107., 85., 43., 26., 107., 92., 37., 17., 92., 78.,
          43., 27., 73., 92., 7., 4., 2., 5., 98., 1., 0., 1., 35., 47.,
          30., 19., 89., 16., 13., 14., 17., 26., 59., 26., 14., 19.,
          27., 14., 15., 13., 37., 31., 10., 6., 10., 15., 8., 1., 1.,
          8., 87., 3., 1., 5., 60., 16., 38., 55., 107., 12., 33., 77.,
          34., 18., 81., 61., 31., 25., 108., 73., 23., 8., 42., 45.,
          33., 23., 57., 69., 14., 6., 4., 8., 108., 5., 1., 9., 87.,
          53., 61., 67., 108., 41., 36., 90., 51., 36., 108., 84., 42.,
          25., 93., 82., 40., 22., 97., 84., 37., 21., 57., 77., 7., 3.,
          1., 5., 108., 0., 0., 0., 43., 46., 23., 10., 108., 10., 9.,
          4., 16., 32., 55., 20., 12., 23., 23., 6., 10., 12., 32., 21.,
          8., 8., 9., 9., 6., 0., 0., 3., 108., 1., 0., 0., 40., 2., 0.,
          3., 96., 0., 1., 3., 18., 3., 3., 5., 13., 4., 1., 3., 10., 5.,
          3., 2., 6., 3., 2., 6., 2., 3., 31., 15., 2., 4., 32., 7., 1.,
          4., 28., 15., 7., 9., 22., 6., 101., 3., 13., 14., 12., 3., 1.,
          12., 73., 0., 0., 0., 1., 0., 0., 7., 22., 9., 55., 54., 34.,
          28., 85., 58., 25., 12., 52., 57., 42., 28., 91., 67., 112.,
          8., 17., 33., 34., 24., 56., 14., 90., 1., 0., 0., 0., 0., 0.,
          2., 38., 21., 112., 85., 45., 28., 98., 83., 57., 28., 112.,
          112., 63., 31., 110., 112., 112., 12., 52., 107., 51., 16.,
          92., 35., 86., 1., 0., 1., 1., 1., 1., 2., 12., 13., 44., 31.,
          12., 12., 13., 12., 20., 17., 43., 46., 22., 7., 13., 17.,
          112., 4., 10., 26., 17., 2., 2., 7., 67., 0., 0., 0., 0., 0.,
          0., 1., 26., 11., 57., 57., 40., 29., 82., 69., 31., 13., 63.,
          69., 45., 29., 99., 90., 114., 9., 28., 51., 39., 26., 78.,
          20., 79., 0., 0., 0., 0., 0., 0., 1., 38., 23., 114., 87., 38.,
          23., 76., 66., 62., 34., 114., 114., 59., 24., 78., 96., 114.,
          12., 47., 110., 51., 9., 61., 33., 97., 1., 1., 1., 1., 0., 1.,
          2., 7., 13., 38., 23., 11., 15., 12., 6., 12., 15., 35., 27.,
          21., 10., 12., 12., 114., 3., 6., 14., 16., 4., 2., 5., 95.,
          0., 0., 0., 0., 0., 0., 2., 7., 3., 2., 4., 12., 3., 1., 4.,
          22., 14., 4., 2., 20., 22., 7., 14., 114., 4., 1., 2., 20.,
          20., 2., 5., 73., 0., 0., 0., 0., 0., 0., 1. ]
      - [ 1., 0., 0., 16., 81., 2., 1., 1., 11., 8., 8., 26., 68., 5.,
          16., 16., 58., 23., 10., 7., 7., 7., 14., 9., 77., 16., 0., 0.,
          0., 0., 0., 4., 13., 4., 4., 9., 108., 3., 4., 14., 50., 26.,
          90., 80., 108., 24., 108., 103., 108., 16., 76., 83., 42., 29.,
          108., 68., 108., 2., 3., 8., 6., 3., 8., 5., 12., 10., 4., 7.,
          108., 6., 2., 3., 43., 61., 77., 42., 108., 43., 39., 42.,
          108., 28., 62., 69., 43., 25., 42., 42., 108., 3., 2., 7., 8.,
          3., 3., 3., 4., 1., 2., 11., 104., 2., 0., 0., 20., 19., 20.,
          11., 69., 9., 9., 8., 88., 16., 29., 22., 30., 12., 16., 26.,
          98., 5., 1., 3., 8., 1., 0., 2., 8., 3., 12., 17., 51., 3.,
          36., 44., 5., 3., 45., 30., 3., 7., 105., 37., 2., 2., 41.,
          21., 5., 12., 87., 17., 44., 2., 12., 7., 7., 9., 31., 7., 66.,
          19., 46., 67., 89., 18., 40., 86., 46., 27., 105., 89., 39.,
          23., 105., 90., 38., 17., 85., 97., 54., 38., 96., 105., 78.,
          12., 41., 83., 48., 20., 79., 46., 41., 55., 48., 26., 84.,
          38., 15., 29., 29., 41., 105., 47., 18., 23., 50., 46., 30.,
          28., 83., 91., 30., 19., 38., 44., 78., 14., 27., 65., 29., 7.,
          20., 19., 11., 29., 6., 3., 51., 13., 4., 3., 5., 29., 32., 3.,
          2., 28., 17., 4., 7., 9., 29., 9., 6., 11., 13., 3., 67., 11.,
          4., 5., 26., 14., 4., 7., 0., 0., 0., 24., 57., 1., 0., 0.,
          13., 6., 3., 49., 81., 4., 5., 13., 75., 43., 3., 3., 9., 6.,
          5., 7., 56., 21., 0., 0., 0., 0., 0., 1., 2., 1., 1., 12.,
          108., 3., 2., 5., 17., 11., 27., 32., 92., 8., 56., 39., 83.,
          15., 25., 20., 12., 12., 48., 20., 108., 10., 1., 1., 1., 1.,
          2., 6., 19., 8., 5., 10., 108., 5., 5., 14., 67., 47., 108.,
          91., 108., 37., 108., 108., 108., 24., 94., 108., 55., 33.,
          108., 82., 108., 2., 3., 11., 8., 3., 8., 4., 6., 5., 2., 7.,
          104., 5., 0., 1., 23., 37., 37., 16., 78., 27., 18., 15., 98.,
          20., 30., 28., 32., 18., 19., 22., 98., 3., 1., 3., 8., 2., 0.,
          2., 0., 0., 10., 4., 47., 2., 4., 1., 34., 17., 107., 44.,
          136., 23., 21., 19., 136., 42., 105., 10., 21., 9., 24., 24.,
          42., 3., 12., 0., 0., 0., 5., 3., 0., 1., 7., 6., 71., 4., 10.,
          1., 47., 25., 50., 53., 136., 25., 66., 53., 136., 38., 50.,
          24., 35., 28., 67., 34., 58., 3., 8., 0., 0., 0., 12., 6., 0.,
          1., 1., 14., 93., 0., 0., 0., 36., 24., 31., 64., 136., 6., 9.,
          19., 136., 57., 29., 17., 22., 10., 10., 10., 70., 8., 1., 0.,
          0., 0., 0., 1., 1., 0., 1., 42., 103., 2., 1., 1., 19., 9., 6.,
          64., 101., 6., 9., 23., 111., 65., 5., 5., 11., 10., 9., 11.,
          84., 29., 0., 0., 0., 0., 0., 2., 0., 0., 0., 8., 93., 3., 0.,
          0., 5., 2., 1., 18., 116., 5., 1., 3., 15., 12., 6., 2., 1.,
          1., 2., 11., 4., 7., 11., 8., 6., 4., 3., 5., 0., 0., 0., 3.,
          116., 1., 0., 0., 4., 3., 4., 7., 116., 4., 19., 27., 6., 7.,
          28., 17., 0., 3., 82., 34., 1., 4., 33., 15., 1., 4., 68., 9.,
          5., 0., 0., 2., 116., 1., 0., 3., 65., 10., 27., 61., 116.,
          12., 35., 105., 41., 20., 100., 91., 27., 18., 116., 100., 20.,
          7., 61., 59., 34., 31., 103., 71., 6., 2., 0., 2., 101., 1.,
          0., 0., 68., 42., 37., 33., 116., 27., 17., 35., 40., 39.,
          104., 56., 32., 24., 54., 68., 25., 19., 74., 68., 25., 17.,
          44., 52., 0., 0., 0., 2., 90., 1., 0., 0., 9., 3., 7., 13.,
          113., 3., 21., 41., 7., 3., 37., 28., 2., 5., 101., 45., 2.,
          1., 34., 18., 4., 9., 77., 14., 5., 1., 0., 2., 111., 1., 0.,
          2., 83., 17., 28., 59., 113., 17., 26., 83., 52., 29., 103.,
          89., 37., 21., 113., 100., 28., 12., 66., 71., 40., 29., 79.,
          81., 3., 2., 0., 2., 113., 1., 0., 0., 56., 60., 38., 24.,
          113., 33., 13., 23., 33., 51., 111., 43., 24., 34., 42., 50.,
          21., 21., 77., 62., 19., 14., 35., 35., 0., 0., 0., 5., 91.,
          3., 0., 0., 16., 25., 3., 7., 113., 12., 2., 3., 6., 38., 24.,
          2., 2., 28., 14., 5., 1., 8., 27., 6., 4., 12., 11., 1., 8.,
          10., 13., 7., 4., 3., 3., 9., 1., 3., 6., 9., 9., 5., 2., 1.,
          116., 21., 1., 1., 2., 2., 1., 8., 92., 11., 0., 0., 0., 0.,
          0., 6., 2., 5., 38., 18., 1., 4., 88., 18., 1., 3., 36., 16.,
          3., 9., 70., 6., 116., 3., 7., 3., 4., 6., 15., 11., 116., 0.,
          0., 0., 0., 0., 0., 6., 25., 12., 76., 71., 33., 28., 116.,
          71., 30., 12., 77., 85., 52., 40., 116., 108., 116., 9., 25.,
          56., 47., 25., 70., 28., 116., 1., 0., 0., 0., 0., 0., 1., 25.,
          23., 90., 57., 22., 15., 53., 46., 42., 30., 80., 116., 44.,
          19., 50., 67., 116., 10., 21., 70., 31., 6., 27., 18., 97., 0.,
          0., 0., 0., 0., 0., 1., 3., 2., 40., 24., 4., 8., 97., 24., 3.,
          2., 37., 19., 7., 14., 79., 17., 113., 3., 8., 6., 9., 9., 23.,
          8., 95., 0., 0., 0., 0., 0., 0., 2., 32., 19., 82., 75., 37.,
          25., 98., 73., 43., 20., 89., 112., 60., 36., 109., 113., 113.,
          10., 30., 82., 51., 21., 69., 32., 113., 1., 0., 0., 0., 0.,
          0., 1., 20., 26., 92., 46., 15., 15., 40., 32., 34., 30., 71.,
          101., 36., 18., 35., 44., 113., 11., 17., 55., 26., 7., 16.,
          13., 113., 1., 0., 0., 0., 0., 0., 1., 2., 15., 30., 4., 3.,
          20., 14., 2., 15., 13., 22., 9., 14., 12., 12., 7., 113., 11.,
          1., 4., 30., 14., 3., 7., 93., 0., 0., 0., 0., 0., 0., 1. ]
      - [ 6., 1., 0., 16., 66., 1., 1., 5., 41., 9., 14., 36., 67., 5.,
          20., 41., 65., 26., 17., 17., 36., 30., 21., 13., 64., 15., 0.,
          2., 9., 4., 1., 3., 25., 5., 4., 13., 106., 5., 4., 15., 84.,
          33., 106., 106., 106., 32., 94., 106., 106., 22., 106., 106.,
          75., 37., 105., 94., 99., 2., 4., 10., 17., 5., 7., 7., 16.,
          9., 4., 7., 104., 6., 2., 3., 44., 46., 58., 29., 96., 32.,
          42., 34., 106., 20., 44., 44., 39., 31., 43., 31., 88., 2., 1.,
          4., 11., 3., 2., 5., 7., 3., 3., 7., 80., 5., 3., 2., 26., 19.,
          29., 10., 62., 9., 22., 17., 80., 14., 23., 27., 30., 12., 16.,
          28., 62., 2., 0., 3., 7., 1., 1., 4., 37., 6., 23., 48., 60.,
          4., 29., 73., 21., 12., 79., 57., 19., 12., 81., 59., 13., 5.,
          69., 45., 25., 18., 50., 54., 60., 6., 26., 26., 37., 17., 39.,
          20., 76., 21., 54., 67., 105., 27., 32., 80., 49., 29., 105.,
          88., 44., 24., 105., 103., 49., 29., 105., 105., 55., 37., 97.,
          105., 99., 14., 53., 88., 55., 19., 70., 47., 36., 47., 28.,
          15., 68., 39., 15., 12., 16., 19., 53., 20., 9., 21., 32., 22.,
          20., 15., 46., 45., 16., 21., 34., 18., 93., 7., 17., 26., 26.,
          13., 10., 12., 19., 20., 11., 3., 45., 4., 11., 10., 6., 17.,
          21., 3., 2., 9., 25., 9., 6., 9., 10., 5., 5., 15., 19., 5.,
          63., 7., 2., 6., 28., 15., 7., 7., 2., 0., 0., 24., 34., 0.,
          0., 2., 38., 5., 3., 64., 78., 6., 8., 36., 84., 52., 6., 12.,
          34., 36., 17., 10., 36., 22., 0., 0., 3., 3., 0., 0., 13., 2.,
          1., 14., 99., 2., 2., 10., 59., 17., 46., 52., 96., 11., 52.,
          76., 93., 18., 48., 41., 56., 33., 50., 37., 91., 9., 1., 4.,
          14., 5., 3., 6., 26., 8., 6., 13., 106., 8., 4., 13., 81., 42.,
          106., 97., 106., 41., 85., 106., 106., 25., 104., 106., 67.,
          37., 96., 86., 94., 2., 4., 10., 15., 4., 6., 6., 10., 5., 2.,
          5., 83., 4., 2., 2., 26., 29., 29., 9., 64., 16., 25., 14.,
          82., 14., 18., 17., 29., 19., 19., 17., 64., 1., 0., 2., 8.,
          2., 0., 3., 0., 0., 2., 1., 10., 0., 0., 0., 19., 18., 67.,
          47., 142., 23., 14., 20., 142., 50., 81., 21., 37., 18., 15.,
          34., 11., 1., 2., 0., 0., 0., 0., 0., 0., 0., 0., 1., 18., 0.,
          0., 0., 56., 23., 38., 69., 142., 25., 31., 49., 142., 43.,
          30., 36., 78., 40., 27., 39., 20., 1., 0., 0., 0., 0., 0., 1.,
          0., 0., 0., 13., 37., 0., 0., 0., 89., 11., 5., 78., 142., 10.,
          6., 28., 142., 52., 5., 14., 81., 24., 8., 8., 33., 7., 0., 0.,
          0., 0., 0., 0., 7., 1., 0., 42., 71., 1., 0., 5., 59., 11., 6.,
          82., 99., 11., 15., 56., 120., 80., 10., 19., 52., 57., 25.,
          14., 57., 30., 0., 1., 5., 3., 0., 1., 1., 0., 0., 7., 62., 1.,
          0., 0., 36., 5., 0., 20., 113., 2., 1., 15., 37., 9., 2., 1.,
          1., 2., 4., 20., 4., 3., 3., 3., 5., 7., 8., 6., 2., 0., 0.,
          2., 90., 1., 0., 1., 49., 8., 8., 30., 113., 4., 19., 71., 27.,
          14., 64., 54., 8., 6., 86., 80., 6., 3., 59., 28., 13., 12.,
          42., 26., 9., 1., 0., 4., 86., 2., 0., 2., 108., 15., 33., 77.,
          113., 19., 27., 91., 57., 30., 113., 102., 49., 24., 105.,
          113., 34., 18., 94., 83., 47., 29., 78., 98., 6., 2., 0., 3.,
          71., 2., 0., 0., 62., 39., 30., 24., 113., 35., 13., 21., 25.,
          23., 69., 34., 19., 25., 36., 42., 18., 12., 50., 44., 15.,
          13., 33., 28., 2., 0., 0., 2., 68., 1., 0., 1., 52., 6., 12.,
          42., 113., 4., 18., 73., 27., 13., 76., 68., 15., 9., 82., 80.,
          11., 5., 58., 37., 21., 15., 43., 40., 8., 1., 0., 3., 83., 2.,
          0., 1., 113., 22., 39., 66., 113., 28., 25., 75., 57., 33.,
          113., 93., 54., 28., 95., 113., 37., 21., 100., 87., 43., 29.,
          84., 92., 5., 1., 0., 4., 89., 3., 0., 0., 62., 57., 25., 18.,
          113., 39., 12., 11., 21., 33., 56., 21., 11., 35., 33., 25.,
          13., 11., 40., 33., 12., 15., 27., 16., 2., 0., 0., 4., 73.,
          2., 0., 0., 30., 19., 8., 7., 113., 5., 8., 9., 9., 25., 22.,
          2., 1., 8., 26., 13., 3., 7., 11., 4., 2., 10., 16., 3., 11.,
          5., 4., 2., 2., 4., 9., 11., 3., 3., 5., 12., 28., 17., 10.,
          4., 118., 16., 1., 9., 48., 17., 2., 7., 66., 6., 0., 0., 0.,
          0., 0., 3., 11., 7., 69., 39., 14., 12., 65., 39., 9., 4., 70.,
          42., 30., 22., 54., 36., 118., 4., 14., 21., 61., 22., 23.,
          19., 82., 0., 0., 0., 1., 0., 0., 5., 38., 23., 113., 86., 47.,
          28., 99., 91., 53., 30., 118., 118., 65., 39., 118., 118.,
          118., 10., 40., 75., 83., 27., 66., 37., 75., 0., 0., 0., 1.,
          0., 0., 3., 16., 12., 54., 34., 13., 12., 33., 26., 36., 20.,
          58., 71., 24., 18., 42., 35., 118., 6., 13., 32., 38., 10.,
          11., 15., 52., 0., 0., 0., 0., 0., 0., 2., 15., 8., 68., 47.,
          22., 15., 64., 47., 16., 8., 75., 51., 31., 22., 67., 59.,
          118., 5., 19., 25., 57., 21., 35., 21., 68., 0., 0., 0., 1.,
          0., 0., 3., 39., 24., 117., 84., 42., 25., 97., 86., 62., 35.,
          118., 118., 63., 38., 116., 118., 118., 10., 40., 89., 78.,
          24., 61., 37., 79., 0., 0., 0., 1., 0., 0., 3., 12., 12., 43.,
          23., 10., 16., 27., 16., 31., 17., 49., 51., 19., 25., 37.,
          19., 118., 6., 10., 20., 41., 13., 5., 16., 69., 1., 0., 0.,
          1., 0., 0., 3., 3., 10., 17., 3., 2., 10., 20., 5., 11., 13.,
          9., 8., 14., 21., 20., 8., 118., 6., 1., 8., 39., 14., 4., 11.,
          48., 1., 0., 0., 0., 0., 0., 2. ]
      - [ 78., 4., 10., 22., 77., 2., 5., 19., 41., 9., 9., 19., 37.,
          12., 17., 27., 35., 17., 11., 12., 45., 25., 19., 10., 87.,
          22., 8., 7., 80., 16., 4., 3., 73., 4., 2., 31., 92., 5., 17.,
          37., 76., 22., 78., 80., 56., 31., 76., 83., 77., 21., 80.,
          72., 65., 34., 85., 71., 96., 18., 4., 8., 87., 41., 20., 9.,
          75., 9., 3., 27., 103., 6., 8., 27., 67., 45., 75., 45., 75.,
          59., 37., 42., 99., 34., 60., 57., 50., 26., 40., 47., 93.,
          21., 11., 17., 87., 27., 7., 4., 64., 2., 3., 17., 90., 2., 3.,
          16., 33., 11., 27., 15., 63., 15., 18., 14., 49., 18., 25.,
          24., 38., 10., 15., 29., 42., 14., 14., 17., 42., 9., 3., 15.,
          38., 6., 9., 17., 13., 3., 22., 37., 10., 8., 44., 43., 13.,
          17., 59., 26., 8., 10., 58., 16., 12., 16., 41., 22., 35., 5.,
          21., 13., 27., 13., 33., 11., 84., 11., 34., 63., 51., 22.,
          28., 71., 45., 24., 106., 106., 53., 41., 106., 91., 46., 25.,
          100., 93., 52., 35., 92., 106., 74., 13., 42., 71., 63., 17.,
          70., 51., 65., 52., 37., 27., 59., 55., 13., 26., 23., 26.,
          106., 59., 39., 48., 52., 46., 43., 41., 92., 83., 21., 17.,
          44., 64., 87., 16., 30., 58., 44., 11., 23., 23., 32., 30.,
          14., 5., 45., 19., 6., 7., 1., 16., 45., 15., 14., 47., 21.,
          2., 19., 16., 30., 4., 4., 16., 14., 10., 62., 16., 4., 8.,
          37., 14., 4., 9., 98., 4., 10., 16., 98., 0., 1., 9., 54., 9.,
          10., 32., 60., 12., 16., 25., 52., 27., 10., 11., 46., 19.,
          15., 8., 102., 17., 8., 8., 97., 3., 1., 1., 79., 4., 7., 27.,
          84., 3., 11., 30., 52., 12., 22., 30., 39., 14., 32., 38., 45.,
          14., 28., 23., 56., 31., 34., 20., 95., 23., 6., 6., 84., 30.,
          10., 6., 71., 6., 3., 30., 94., 7., 15., 33., 79., 33., 94.,
          82., 64., 46., 74., 85., 91., 27., 88., 86., 64., 32., 85.,
          79., 94., 17., 3., 9., 87., 37., 19., 7., 58., 5., 2., 17.,
          88., 3., 4., 18., 39., 25., 42., 20., 56., 34., 18., 17., 68.,
          23., 29., 25., 34., 16., 15., 24., 59., 17., 14., 18., 58.,
          14., 2., 3., 93., 0., 0., 2., 85., 0., 1., 2., 70., 5., 26.,
          23., 92., 12., 17., 5., 78., 9., 30., 11., 49., 9., 13., 6.,
          94., 0., 0., 2., 85., 0., 1., 2., 108., 2., 1., 4., 108., 0.,
          0., 0., 89., 10., 16., 29., 108., 17., 22., 20., 101., 11.,
          14., 14., 61., 18., 19., 11., 108., 2., 1., 4., 107., 0., 0.,
          1., 108., 3., 5., 10., 108., 0., 0., 1., 93., 15., 21., 37.,
          108., 9., 13., 12., 102., 16., 18., 18., 67., 13., 12., 8.,
          108., 4., 5., 6., 108., 0., 0., 0., 76., 4., 9., 16., 80., 1.,
          2., 11., 38., 7., 8., 23., 39., 12., 15., 23., 41., 24., 7.,
          9., 43., 19., 14., 7., 90., 16., 7., 7., 79., 5., 1., 1., 57.,
          3., 14., 23., 75., 2., 5., 12., 79., 9., 5., 17., 47., 4., 7.,
          22., 19., 9., 6., 8., 11., 8., 10., 17., 5., 2., 3., 5., 13.,
          11., 7., 6., 45., 1., 0., 32., 107., 4., 12., 12., 103., 12.,
          4., 8., 40., 5., 14., 31., 18., 13., 29., 31., 16., 12., 44.,
          30., 8., 11., 46., 17., 15., 14., 22., 11., 35., 0., 0., 31.,
          107., 3., 13., 6., 107., 9., 17., 53., 52., 11., 26., 97., 38.,
          16., 104., 107., 43., 41., 107., 92., 28., 15., 82., 62., 39.,
          36., 88., 87., 31., 2., 0., 20., 72., 3., 8., 8., 107., 40.,
          28., 29., 70., 36., 15., 34., 33., 26., 107., 74., 53., 44.,
          56., 69., 33., 28., 92., 74., 28., 19., 53., 70., 27., 0., 0.,
          23., 83., 2., 9., 7., 75., 6., 5., 11., 27., 3., 14., 38., 12.,
          7., 33., 43., 12., 13., 59., 34., 6., 8., 46., 16., 10., 14.,
          31., 16., 29., 1., 0., 27., 94., 3., 11., 5., 106., 12., 18.,
          49., 57., 17., 20., 75., 46., 21., 106., 106., 54., 39., 104.,
          95., 35., 20., 83., 77., 45., 33., 84., 98., 37., 2., 0., 21.,
          83., 3., 8., 12., 106., 63., 27., 21., 89., 45., 12., 30., 23.,
          33., 106., 58., 49., 67., 42., 48., 29., 30., 91., 61., 19.,
          16., 42., 49., 55., 0., 0., 10., 69., 1., 4., 17., 80., 29.,
          9., 4., 101., 12., 5., 18., 2., 27., 40., 15., 16., 50., 18.,
          2., 8., 9., 31., 5., 4., 20., 15., 5., 8., 3., 3., 5., 9., 7.,
          6., 8., 4., 4., 6., 10., 23., 18., 10., 5., 70., 16., 6., 14.,
          71., 25., 8., 9., 66., 17., 5., 4., 65., 15., 2., 2., 8., 10.,
          41., 23., 14., 13., 27., 14., 7., 11., 54., 19., 20., 21., 42.,
          10., 104., 5., 14., 15., 72., 25., 22., 16., 62., 9., 0., 0.,
          90., 43., 8., 6., 29., 15., 84., 79., 40., 39., 104., 72., 33.,
          19., 89., 69., 43., 30., 106., 107., 107., 10., 26., 48., 88.,
          25., 65., 37., 53., 3., 0., 0., 104., 50., 15., 6., 27., 22.,
          99., 62., 28., 19., 54., 53., 46., 36., 81., 99., 34., 17.,
          50., 77., 107., 9., 22., 61., 60., 9., 27., 22., 46., 1., 0.,
          0., 76., 32., 9., 3., 7., 7., 43., 29., 12., 16., 41., 18., 7.,
          9., 56., 17., 13., 16., 51., 22., 82., 5., 14., 13., 51., 18.,
          28., 15., 44., 5., 0., 0., 73., 35., 8., 5., 36., 21., 96.,
          87., 46., 35., 100., 83., 46., 27., 96., 99., 51., 30., 97.,
          109., 109., 10., 31., 70., 88., 20., 64., 41., 54., 1., 0., 0.,
          97., 46., 15., 5., 21., 22., 100., 50., 23., 25., 44., 39.,
          46., 42., 76., 85., 25., 16., 41., 59., 109., 13., 21., 52.,
          63., 11., 19., 17., 61., 3., 0., 0., 83., 33., 6., 2., 3., 9.,
          39., 9., 8., 31., 18., 3., 27., 19., 20., 5., 10., 13., 9.,
          14., 109., 23., 3., 11., 54., 14., 3., 8., 51., 10., 11., 15.,
          43., 11., 0., 0. ]
      - [ 6., 1., 0., 14., 77., 2., 2., 6., 41., 9., 13., 31., 55., 5.,
          20., 41., 53., 22., 18., 17., 35., 30., 22., 13., 76., 14., 0.,
          2., 10., 5., 2., 5., 24., 4., 4., 12., 105., 7., 6., 16., 84.,
          32., 105., 104., 105., 32., 94., 105., 105., 23., 105., 105.,
          74., 37., 105., 96., 105., 2., 5., 11., 19., 6., 10., 11., 16.,
          8., 4., 7., 103., 9., 7., 5., 44., 47., 59., 29., 90., 34.,
          44., 34., 101., 21., 48., 45., 38., 31., 46., 31., 93., 2., 2.,
          5., 12., 3., 3., 7., 7., 3., 4., 8., 78., 6., 4., 2., 27., 19.,
          29., 10., 63., 10., 22., 17., 73., 15., 24., 26., 29., 12.,
          18., 28., 65., 3., 1., 4., 8., 1., 2., 6., 38., 6., 21., 47.,
          55., 3., 28., 73., 22., 12., 81., 57., 18., 12., 83., 60., 13.,
          5., 71., 44., 25., 18., 50., 54., 47., 6., 29., 27., 36., 17.,
          42., 21., 77., 20., 53., 67., 101., 27., 31., 80., 50., 30.,
          106., 88., 44., 25., 106., 103., 49., 28., 106., 106., 53.,
          39., 102., 106., 84., 16., 59., 92., 56., 20., 78., 51., 38.,
          48., 29., 15., 67., 40., 15., 12., 18., 21., 57., 21., 9., 22.,
          35., 21., 19., 16., 51., 47., 16., 21., 36., 19., 81., 8., 20.,
          29., 26., 13., 12., 13., 19., 21., 10., 3., 46., 5., 11., 9.,
          6., 18., 21., 2., 1., 9., 26., 8., 6., 9., 10., 5., 5., 15.,
          20., 5., 53., 7., 2., 6., 27., 16., 9., 8., 3., 0., 0., 20.,
          54., 1., 2., 5., 38., 5., 3., 55., 63., 6., 8., 37., 69., 44.,
          6., 12., 34., 37., 18., 11., 55., 20., 0., 0., 3., 3., 1., 2.,
          13., 1., 1., 12., 105., 3., 4., 12., 60., 17., 45., 50., 83.,
          11., 52., 76., 78., 16., 50., 41., 55., 33., 51., 38., 104.,
          8., 2., 4., 15., 6., 4., 8., 26., 7., 6., 12., 105., 9., 7.,
          14., 82., 42., 105., 97., 105., 42., 88., 105., 105., 27.,
          105., 105., 68., 38., 103., 90., 102., 2., 5., 11., 16., 5.,
          9., 10., 10., 5., 3., 6., 81., 6., 6., 3., 27., 29., 29., 10.,
          63., 17., 26., 13., 75., 15., 20., 18., 28., 19., 21., 17.,
          69., 2., 1., 2., 9., 2., 1., 5., 0., 0., 9., 2., 71., 1., 4.,
          3., 19., 15., 72., 36., 106., 21., 25., 27., 119., 43., 92.,
          19., 40., 24., 28., 35., 67., 2., 8., 0., 0., 0., 2., 3., 1.,
          0., 0., 1., 82., 1., 3., 4., 56., 23., 38., 58., 126., 24.,
          34., 52., 126., 36., 33., 39., 80., 43., 33., 41., 83., 1., 0.,
          0., 0., 1., 4., 4., 1., 0., 0., 10., 84., 1., 3., 6., 90., 10.,
          4., 66., 126., 10., 7., 32., 126., 44., 5., 15., 85., 26., 12.,
          10., 83., 7., 0., 0., 0., 1., 4., 4., 7., 1., 0., 35., 94., 2.,
          2., 9., 61., 10., 6., 71., 82., 10., 15., 58., 102., 69., 10.,
          20., 52., 59., 27., 16., 84., 29., 0., 1., 6., 5., 2., 3., 1.,
          0., 0., 6., 64., 2., 2., 2., 35., 5., 0., 18., 108., 3., 1.,
          15., 39., 9., 2., 1., 1., 1., 4., 21., 4., 3., 3., 3., 4., 7.,
          8., 7., 2., 0., 0., 2., 88., 3., 3., 3., 49., 7., 7., 27.,
          110., 4., 19., 69., 28., 15., 63., 53., 8., 5., 87., 83., 6.,
          4., 61., 28., 13., 12., 44., 25., 8., 1., 0., 4., 83., 3., 2.,
          4., 110., 14., 30., 76., 110., 19., 26., 91., 58., 30., 110.,
          104., 49., 24., 107., 110., 35., 17., 97., 83., 47., 31., 82.,
          97., 5., 1., 0., 3., 67., 3., 3., 1., 65., 38., 31., 24., 110.,
          36., 14., 21., 26., 25., 74., 36., 20., 27., 38., 44., 18.,
          13., 55., 44., 14., 13., 36., 28., 2., 0., 0., 2., 67., 2., 2.,
          2., 52., 6., 10., 39., 112., 4., 18., 72., 28., 13., 76., 68.,
          14., 8., 83., 83., 11., 5., 60., 37., 20., 15., 45., 39., 7.,
          1., 0., 3., 80., 4., 2., 3., 112., 21., 37., 64., 112., 28.,
          25., 74., 59., 34., 112., 95., 54., 28., 97., 112., 37., 21.,
          105., 86., 42., 31., 88., 90., 4., 1., 0., 4., 84., 5., 5., 2.,
          65., 56., 26., 19., 112., 41., 13., 11., 23., 35., 59., 22.,
          12., 37., 35., 26., 14., 12., 45., 34., 12., 15., 29., 17., 2.,
          0., 1., 4., 68., 5., 8., 2., 30., 20., 8., 8., 112., 8., 9.,
          9., 9., 27., 21., 1., 1., 8., 26., 12., 3., 7., 11., 3., 3.,
          11., 18., 3., 11., 5., 3., 2., 1., 4., 8., 12., 3., 3., 5.,
          11., 25., 16., 10., 4., 94., 12., 1., 10., 49., 17., 2., 7.,
          87., 6., 0., 0., 1., 0., 1., 6., 11., 7., 68., 37., 13., 11.,
          66., 38., 8., 4., 71., 40., 27., 21., 53., 34., 111., 4., 16.,
          22., 61., 22., 26., 19., 107., 0., 0., 0., 2., 0., 1., 9., 37.,
          22., 111., 83., 44., 27., 99., 87., 52., 29., 111., 111., 62.,
          38., 111., 111., 111., 11., 45., 80., 86., 27., 74., 41., 98.,
          0., 0., 0., 2., 0., 1., 6., 17., 12., 57., 34., 12., 12., 35.,
          26., 35., 21., 61., 70., 23., 19., 44., 35., 111., 6., 16.,
          37., 39., 9., 15., 17., 65., 0., 0., 0., 1., 0., 3., 7., 15.,
          8., 68., 45., 20., 14., 64., 45., 15., 7., 75., 49., 29., 21.,
          64., 57., 112., 6., 22., 26., 57., 21., 38., 22., 86., 0., 0.,
          0., 2., 0., 1., 6., 38., 23., 112., 81., 38., 25., 99., 83.,
          60., 35., 112., 112., 59., 38., 112., 112., 112., 11., 46.,
          95., 79., 24., 70., 41., 100., 0., 0., 0., 3., 1., 2., 7., 12.,
          12., 45., 22., 9., 15., 29., 15., 30., 18., 52., 53., 18., 24.,
          38., 19., 112., 7., 13., 24., 41., 13., 8., 17., 84., 1., 0.,
          0., 2., 0., 3., 8., 3., 10., 16., 3., 2., 10., 21., 5., 10.,
          12., 9., 7., 12., 20., 21., 7., 112., 7., 2., 8., 38., 15., 5.,
          11., 61., 1., 1., 0., 2., 0., 0., 3. ]
      - [ 6., 3., 3., 21., 52., 5., 6., 3., 54., 24., 36., 56., 76., 27.,
          51., 50., 67., 42., 38., 14., 58., 35., 39., 13., 60., 21., 3.,
          1., 5., 1., 4., 5., 17., 9., 9., 8., 83., 8., 13., 11., 66.,
          41., 76., 45., 104., 42., 85., 53., 91., 29., 83., 31., 51.,
          49., 82., 27., 87., 6., 9., 4., 9., 8., 10., 11., 23., 9., 11.,
          9., 80., 6., 13., 13., 65., 40., 76., 53., 104., 56., 84., 58.,
          82., 27., 69., 44., 41., 39., 87., 49., 70., 4., 8., 4., 7.,
          6., 9., 9., 16., 15., 11., 6., 64., 7., 9., 3., 33., 57., 104.,
          39., 65., 47., 88., 19., 66., 16., 98., 40., 16., 19., 67.,
          18., 56., 2., 7., 5., 5., 1., 4., 5., 57., 44., 46., 20., 71.,
          24., 61., 41., 12., 15., 103., 33., 17., 26., 99., 17., 2., 7.,
          103., 13., 15., 36., 98., 3., 60., 9., 58., 13., 27., 28., 66.,
          17., 76., 31., 29., 25., 97., 19., 30., 51., 22., 17., 42.,
          53., 58., 26., 34., 29., 25., 44., 52., 26., 30., 35., 30.,
          15., 88., 27., 28., 23., 45., 41., 24., 20., 61., 40., 58.,
          27., 94., 21., 64., 71., 32., 20., 18., 28., 71., 60., 42.,
          27., 20., 17., 18., 54., 54., 29., 59., 51., 73., 34., 48.,
          21., 25., 27., 64., 40., 54., 30., 44., 32., 61., 26., 49.,
          41., 21., 17., 83., 58., 17., 48., 62., 24., 9., 13., 87., 29.,
          13., 27., 71., 27., 55., 8., 41., 20., 17., 10., 42., 25., 2.,
          0., 0., 24., 24., 0., 0., 1., 51., 16., 21., 91., 96., 17.,
          32., 45., 95., 73., 26., 15., 50., 37., 41., 14., 31., 25., 0.,
          0., 3., 1., 0., 0., 13., 7., 7., 18., 81., 10., 13., 6., 73.,
          38., 69., 49., 103., 45., 89., 59., 88., 29., 71., 19., 68.,
          44., 70., 18., 88., 15., 6., 2., 7., 3., 9., 10., 18., 10.,
          11., 9., 84., 6., 13., 14., 64., 42., 69., 50., 103., 42., 72.,
          57., 96., 38., 72., 39., 49., 48., 73., 37., 81., 6., 9., 4.,
          8., 9., 9., 10., 22., 9., 8., 7., 65., 6., 12., 9., 47., 37.,
          80., 44., 75., 51., 85., 38., 64., 16., 70., 37., 26., 27.,
          77., 36., 54., 2., 6., 4., 7., 2., 6., 6., 0., 0., 0., 0., 0.,
          0., 0., 0., 25., 13., 47., 44., 113., 14., 12., 10., 119., 36.,
          60., 22., 29., 13., 16., 25., 1., 0., 0., 0., 0., 0., 0., 0.,
          0., 0., 0., 0., 1., 0., 0., 0., 61., 17., 59., 53., 119., 38.,
          71., 27., 119., 46., 72., 13., 58., 29., 72., 34., 2., 0., 0.,
          0., 0., 0., 0., 0., 0., 0., 0., 7., 11., 0., 0., 0., 59., 28.,
          96., 100., 119., 38., 76., 29., 119., 74., 114., 22., 31., 24.,
          92., 28., 11., 5., 0., 0., 0., 0., 0., 0., 5., 1., 0., 38.,
          44., 1., 2., 3., 65., 21., 24., 101., 102., 24., 42., 61.,
          111., 92., 24., 17., 70., 45., 38., 14., 41., 28., 0., 0., 3.,
          1., 0., 1., 0., 0., 0., 10., 55., 3., 0., 0., 54., 10., 2.,
          47., 115., 19., 28., 28., 59., 19., 12., 14., 15., 25., 43.,
          64., 4., 4., 9., 6., 21., 26., 13., 7., 0., 1., 3., 10., 70.,
          9., 1., 0., 68., 70., 80., 35., 115., 54., 110., 44., 50., 40.,
          115., 45., 28., 44., 115., 46., 1., 4., 112., 11., 20., 33.,
          81., 4., 1., 1., 0., 3., 86., 2., 2., 1., 108., 34., 19., 19.,
          115., 21., 41., 64., 38., 23., 53., 60., 53., 28., 58., 37.,
          8., 21., 67., 19., 14., 25., 53., 10., 3., 2., 1., 4., 63., 1.,
          1., 2., 52., 40., 58., 30., 115., 17., 51., 55., 40., 23., 21.,
          26., 81., 35., 29., 35., 16., 13., 14., 28., 32., 23., 20.,
          20., 0., 0., 1., 6., 57., 4., 1., 0., 61., 48., 49., 23., 113.,
          29., 62., 39., 32., 30., 92., 40., 22., 32., 96., 33., 1., 5.,
          95., 11., 9., 22., 79., 3., 1., 1., 0., 3., 75., 2., 1., 1.,
          89., 36., 30., 23., 113., 22., 38., 61., 44., 25., 37., 58.,
          73., 25., 36., 39., 13., 24., 45., 24., 22., 27., 27., 13., 5.,
          2., 1., 4., 77., 1., 1., 2., 72., 47., 70., 37., 113., 22.,
          80., 77., 49., 29., 28., 27., 90., 56., 46., 46., 16., 11.,
          13., 37., 38., 30., 41., 29., 10., 1., 0., 2., 63., 0., 0., 2.,
          83., 32., 37., 36., 113., 25., 49., 48., 29., 25., 83., 56.,
          22., 49., 62., 30., 10., 10., 70., 31., 10., 27., 55., 21.,
          11., 5., 9., 8., 13., 26., 26., 23., 1., 7., 11., 11., 87.,
          35., 8., 1., 124., 40., 2., 3., 44., 6., 12., 14., 78., 11.,
          0., 0., 0., 0., 0., 4., 4., 7., 124., 23., 18., 32., 101., 9.,
          2., 4., 124., 18., 50., 64., 124., 5., 124., 28., 88., 18.,
          34., 25., 108., 58., 88., 8., 2., 0., 0., 0., 1., 12., 8., 17.,
          69., 36., 26., 26., 58., 16., 25., 44., 69., 27., 38., 48.,
          66., 15., 124., 16., 23., 29., 70., 58., 37., 30., 94., 1., 0.,
          0., 0., 1., 1., 5., 17., 13., 12., 24., 44., 31., 24., 21.,
          29., 40., 35., 50., 56., 27., 42., 41., 124., 43., 56., 15.,
          18., 33., 44., 34., 56., 3., 1., 0., 0., 0., 1., 4., 3., 8.,
          105., 22., 12., 22., 94., 6., 3., 8., 112., 15., 24., 50.,
          116., 6., 117., 19., 63., 19., 38., 28., 69., 32., 76., 5., 2.,
          0., 0., 0., 1., 7., 14., 18., 45., 37., 39., 27., 30., 22.,
          37., 58., 55., 34., 46., 43., 32., 18., 117., 29., 31., 27.,
          57., 60., 32., 33., 88., 2., 0., 0., 0., 1., 1., 7., 20., 14.,
          17., 30., 50., 48., 42., 24., 23., 30., 34., 67., 66., 31.,
          85., 68., 117., 42., 62., 16., 24., 36., 75., 49., 74., 3., 1.,
          0., 1., 1., 1., 5., 16., 13., 79., 47., 13., 40., 60., 22., 8.,
          15., 96., 33., 13., 24., 85., 34., 117., 8., 40., 22., 33.,
          12., 39., 32., 52., 0., 0., 0., 2., 0., 0., 3. ]
      - [ 1., 1., 3., 20., 40., 4., 3., 1., 19., 13., 29., 58., 83., 17.,
          46., 20., 96., 64., 29., 34., 26., 38., 54., 35., 43., 22., 3.,
          2., 3., 2., 4., 4., 5., 3., 13., 8., 53., 14., 14., 4., 27.,
          30., 118., 27., 73., 44., 118., 35., 75., 38., 118., 36., 27.,
          47., 118., 52., 49., 7., 15., 6., 6., 5., 18., 15., 6., 7.,
          15., 14., 29., 15., 12., 6., 57., 52., 88., 63., 55., 71.,
          102., 63., 45., 36., 79., 48., 33., 38., 93., 72., 15., 6.,
          11., 8., 6., 4., 12., 12., 2., 12., 16., 9., 26., 11., 8., 2.,
          21., 61., 118., 41., 38., 47., 89., 36., 35., 29., 118., 57.,
          14., 19., 86., 49., 15., 4., 13., 10., 3., 1., 6., 8., 1., 9.,
          72., 9., 50., 33., 113., 7., 1., 11., 118., 4., 2., 14., 118.,
          9., 11., 20., 118., 14., 3., 20., 118., 34., 43., 10., 73.,
          17., 4., 23., 118., 31., 25., 17., 50., 18., 57., 31., 61.,
          25., 22., 21., 100., 21., 14., 14., 118., 40., 20., 29., 84.,
          12., 16., 34., 112., 17., 48., 18., 46., 17., 30., 33., 64.,
          30., 28., 27., 63., 37., 40., 56., 55., 13., 51., 51., 39.,
          21., 28., 42., 52., 42., 37., 24., 38., 34., 36., 35., 46.,
          42., 29., 29., 53., 20., 25., 19., 54., 45., 29., 24., 36.,
          36., 35., 34., 44., 38., 31., 26., 50., 53., 8., 24., 53., 46.,
          14., 17., 51., 29., 8., 14., 45., 37., 13., 10., 30., 22., 9.,
          9., 36., 25., 0., 0., 0., 16., 19., 1., 1., 1., 34., 10., 5.,
          69., 114., 8., 5., 14., 114., 70., 7., 19., 57., 18., 10., 15.,
          21., 16., 0., 1., 2., 1., 0., 0., 1., 2., 8., 19., 64., 10.,
          9., 2., 19., 21., 86., 46., 90., 29., 114., 25., 110., 60.,
          82., 52., 25., 49., 114., 51., 63., 18., 8., 4., 4., 3., 11.,
          10., 6., 5., 15., 10., 43., 16., 14., 4., 42., 40., 114., 36.,
          66., 58., 114., 45., 63., 39., 114., 31., 36., 49., 114., 59.,
          34., 7., 14., 7., 7., 5., 16., 14., 5., 7., 12., 11., 21., 12.,
          10., 6., 41., 45., 80., 60., 39., 53., 83., 57., 31., 27., 77.,
          47., 19., 24., 74., 58., 9., 4., 9., 7., 4., 2., 8., 8., 0.,
          0., 1., 0., 1., 1., 1., 0., 42., 19., 71., 56., 139., 37., 16.,
          20., 139., 60., 70., 16., 54., 26., 19., 33., 0., 0., 2., 1.,
          1., 1., 1., 0., 0., 0., 0., 1., 4., 1., 1., 0., 62., 17., 41.,
          53., 139., 42., 48., 44., 139., 38., 29., 20., 88., 37., 40.,
          44., 1., 0., 0., 1., 1., 2., 1., 0., 0., 0., 0., 3., 17., 0.,
          0., 0., 73., 20., 34., 57., 139., 13., 11., 18., 139., 53.,
          30., 21., 113., 18., 10., 15., 7., 1., 0., 1., 2., 2., 1., 0.,
          1., 0., 1., 28., 35., 1., 1., 1., 39., 14., 8., 84., 131., 12.,
          9., 20., 139., 93., 9., 26., 51., 25., 15., 20., 25., 19., 0.,
          1., 2., 1., 0., 1., 0., 0., 0., 8., 28., 1., 0., 0., 5., 3.,
          2., 77., 128., 7., 3., 5., 15., 10., 13., 17., 15., 8., 10.,
          18., 30., 19., 8., 20., 16., 19., 15., 34., 1., 1., 2., 4.,
          42., 7., 1., 0., 1., 9., 66., 19., 128., 69., 94., 1., 3., 20.,
          128., 10., 7., 21., 128., 7., 19., 24., 109., 17., 4., 12.,
          128., 27., 1., 1., 2., 4., 36., 3., 1., 1., 26., 13., 60., 20.,
          128., 41., 98., 28., 13., 20., 128., 15., 9., 15., 128., 40.,
          8., 18., 109., 7., 5., 18., 128., 17., 1., 1., 3., 4., 18., 4.,
          1., 1., 24., 21., 53., 34., 64., 54., 35., 9., 52., 38., 62.,
          30., 34., 39., 31., 43., 24., 23., 37., 18., 19., 27., 23.,
          23., 1., 1., 2., 3., 26., 4., 0., 0., 2., 7., 70., 17., 115.,
          54., 99., 6., 1., 15., 119., 4., 4., 19., 119., 12., 7., 14.,
          115., 7., 1., 12., 119., 21., 1., 1., 3., 3., 30., 3., 0., 1.,
          36., 18., 41., 20., 119., 43., 58., 25., 28., 25., 113., 27.,
          20., 21., 119., 50., 14., 22., 79., 10., 10., 22., 113., 17.,
          0., 1., 3., 5., 18., 4., 1., 1., 22., 26., 74., 51., 74., 72.,
          59., 10., 70., 58., 60., 30., 37., 58., 64., 44., 29., 27.,
          34., 26., 23., 30., 42., 34., 0., 1., 3., 3., 12., 3., 1., 0.,
          29., 24., 38., 50., 67., 45., 46., 41., 41., 35., 56., 51.,
          12., 34., 67., 52., 17., 16., 44., 33., 6., 13., 40., 37., 16.,
          10., 9., 16., 15., 10., 9., 17., 52., 37., 13., 44., 27., 56.,
          33., 52., 123., 70., 1., 15., 18., 22., 6., 8., 30., 7., 0.,
          1., 1., 0., 0., 1., 7., 15., 119., 8., 3., 11., 123., 14., 30.,
          35., 123., 54., 10., 33., 123., 45., 123., 18., 72., 22., 6.,
          15., 108., 64., 40., 3., 2., 2., 1., 0., 1., 8., 9., 16., 108.,
          8., 4., 10., 123., 20., 12., 26., 115., 15., 14., 50., 123.,
          24., 117., 20., 56., 16., 33., 37., 98., 42., 26., 3., 3., 2.,
          1., 0., 0., 4., 28., 27., 36., 17., 16., 20., 25., 30., 35.,
          28., 52., 28., 42., 37., 32., 36., 49., 28., 43., 19., 25.,
          13., 36., 45., 10., 1., 2., 2., 0., 0., 0., 2., 3., 11., 121.,
          3., 1., 11., 121., 13., 13., 22., 121., 27., 5., 37., 121.,
          42., 111., 18., 85., 16., 5., 21., 121., 56., 31., 3., 2., 2.,
          1., 0., 1., 7., 19., 22., 90., 15., 10., 15., 113., 31., 25.,
          37., 99., 20., 28., 54., 121., 25., 113., 22., 45., 23., 51.,
          35., 69., 48., 29., 2., 3., 2., 1., 0., 0., 4., 39., 42., 34.,
          22., 21., 32., 51., 39., 44., 28., 55., 43., 55., 45., 64.,
          58., 54., 41., 65., 22., 25., 20., 67., 63., 12., 2., 3., 4.,
          1., 0., 1., 4., 26., 22., 51., 51., 7., 18., 48., 46., 13.,
          18., 62., 34., 11., 18., 58., 40., 25., 12., 34., 28., 13.,
          10., 40., 35., 4., 1., 2., 2., 1., 1., 1., 1. ]
      - [ 1., 1., 3., 18., 44., 2., 5., 2., 11., 10., 38., 52., 81., 17.,
          79., 18., 85., 45., 41., 11., 16., 24., 80., 13., 53., 19., 4.,
          1., 2., 2., 6., 4., 11., 3., 7., 9., 66., 9., 9., 7., 49., 31.,
          83., 44., 105., 39., 105., 52., 105., 48., 85., 27., 55., 56.,
          105., 40., 68., 7., 7., 3., 10., 6., 10., 11., 7., 5., 9., 15.,
          49., 12., 11., 9., 54., 42., 78., 71., 84., 56., 88., 68., 76.,
          47., 82., 50., 38., 45., 97., 71., 37., 6., 8., 3., 3., 5., 8.,
          11., 1., 8., 11., 8., 42., 6., 8., 2., 13., 45., 105., 34.,
          50., 32., 86., 26., 52., 27., 105., 36., 8., 20., 87., 30.,
          32., 4., 8., 4., 1., 1., 5., 5., 25., 12., 41., 13., 75., 11.,
          61., 30., 5., 13., 90., 15., 7., 12., 106., 18., 5., 20., 88.,
          6., 7., 31., 106., 5., 76., 12., 46., 10., 29., 31., 69., 15.,
          56., 17., 29., 44., 96., 29., 14., 43., 40., 23., 44., 44.,
          47., 30., 30., 57., 55., 62., 42., 23., 57., 60., 22., 28.,
          97., 40., 29., 19., 60., 38., 23., 37., 47., 25., 43., 40.,
          73., 37., 59., 44., 40., 43., 30., 28., 34., 56., 58., 29.,
          35., 26., 30., 55., 52., 30., 75., 72., 67., 42., 39., 14.,
          30., 40., 63., 47., 27., 21., 41., 39., 52., 25., 39., 34.,
          28., 23., 76., 73., 12., 25., 60., 57., 16., 28., 96., 38.,
          10., 24., 68., 41., 45., 17., 45., 24., 8., 11., 36., 29., 0.,
          0., 0., 18., 19., 0., 0., 1., 23., 7., 6., 80., 109., 9., 14.,
          11., 109., 66., 9., 12., 23., 13., 11., 10., 26., 19., 1., 0.,
          0., 0., 0., 0., 5., 2., 6., 15., 72., 6., 11., 4., 20., 19.,
          84., 43., 101., 27., 109., 31., 108., 40., 85., 16., 27., 40.,
          109., 21., 78., 15., 6., 2., 5., 3., 12., 9., 12., 4., 9., 14.,
          62., 11., 9., 9., 66., 39., 71., 60., 109., 51., 77., 65.,
          109., 60., 72., 37., 65., 61., 85., 57., 56., 8., 7., 3., 9.,
          7., 8., 12., 5., 5., 7., 10., 38., 9., 10., 6., 31., 36., 79.,
          55., 55., 44., 89., 51., 53., 31., 84., 42., 17., 30., 91.,
          54., 27., 4., 6., 3., 1., 2., 6., 7., 0., 0., 0., 0., 0., 0.,
          0., 0., 24., 13., 49., 46., 139., 26., 16., 11., 139., 43.,
          58., 16., 48., 17., 16., 33., 1., 0., 0., 0., 0., 0., 0., 0.,
          0., 0., 0., 0., 1., 0., 0., 0., 53., 26., 63., 57., 139., 41.,
          85., 30., 139., 55., 65., 28., 90., 47., 77., 44., 1., 0., 0.,
          0., 0., 0., 0., 0., 0., 0., 0., 4., 11., 0., 0., 0., 96., 21.,
          46., 77., 139., 16., 19., 19., 139., 58., 52., 25., 65., 22.,
          19., 20., 6., 1., 0., 0., 0., 0., 0., 0., 1., 1., 1., 29., 35.,
          1., 2., 2., 19., 9., 11., 85., 116., 14., 32., 14., 137., 81.,
          14., 12., 20., 17., 25., 12., 30., 21., 1., 1., 1., 0., 1., 1.,
          0., 0., 0., 5., 33., 1., 0., 0., 14., 9., 11., 61., 131., 12.,
          38., 18., 15., 11., 23., 22., 24., 21., 71., 20., 4., 4., 11.,
          4., 8., 13., 48., 4., 0., 0., 0., 4., 49., 3., 0., 0., 26.,
          18., 76., 28., 131., 27., 101., 30., 6., 18., 131., 15., 5.,
          17., 131., 28., 2., 13., 131., 4., 5., 23., 131., 4., 0., 0.,
          0., 3., 50., 4., 0., 0., 82., 20., 21., 36., 131., 38., 26.,
          52., 41., 21., 57., 63., 44., 22., 54., 68., 25., 44., 60.,
          15., 26., 44., 46., 21., 0., 0., 1., 6., 31., 5., 1., 0., 40.,
          19., 53., 62., 124., 40., 46., 40., 64., 41., 23., 26., 55.,
          50., 34., 39., 32., 22., 18., 36., 42., 27., 34., 38., 0., 0.,
          0., 2., 35., 1., 0., 0., 37., 13., 39., 20., 115., 18., 55.,
          31., 10., 15., 96., 18., 7., 12., 115., 31., 4., 16., 85., 6.,
          5., 19., 115., 6., 0., 0., 0., 4., 39., 4., 0., 0., 70., 19.,
          33., 52., 115., 44., 18., 48., 61., 26., 44., 64., 65., 29.,
          28., 74., 36., 41., 44., 20., 39., 49., 26., 27., 0., 0., 0.,
          6., 34., 6., 0., 0., 44., 26., 60., 69., 115., 52., 77., 53.,
          66., 51., 35., 27., 47., 69., 61., 40., 28., 22., 28., 47.,
          36., 27., 62., 53., 0., 0., 0., 3., 26., 3., 0., 0., 34., 22.,
          37., 52., 115., 36., 41., 41., 34., 28., 83., 75., 15., 29.,
          65., 59., 17., 24., 83., 43., 9., 22., 60., 43., 2., 2., 14.,
          5., 10., 13., 52., 3., 13., 14., 31., 16., 21., 24., 76., 11.,
          133., 49., 12., 9., 16., 12., 36., 17., 37., 4., 0., 0., 0.,
          0., 0., 2., 3., 12., 127., 8., 5., 16., 133., 7., 4., 15.,
          133., 10., 13., 50., 133., 5., 133., 29., 77., 12., 25., 27.,
          110., 42., 40., 2., 0., 0., 0., 0., 0., 4., 22., 28., 56., 26.,
          26., 30., 44., 34., 47., 69., 51., 22., 62., 69., 43., 24.,
          133., 23., 15., 19., 73., 40., 29., 49., 33., 0., 0., 0., 0.,
          0., 0., 2., 27., 25., 19., 26., 31., 29., 33., 27., 47., 47.,
          31., 44., 71., 44., 52., 56., 123., 50., 44., 10., 23., 31.,
          40., 49., 16., 1., 0., 0., 0., 0., 0., 1., 5., 15., 84., 10.,
          6., 13., 115., 11., 8., 22., 95., 9., 17., 48., 115., 6., 115.,
          19., 44., 13., 38., 30., 62., 28., 36., 2., 0., 0., 0., 0., 0.,
          3., 32., 28., 42., 29., 38., 35., 29., 41., 69., 79., 47., 31.,
          81., 72., 24., 36., 115., 43., 32., 19., 66., 39., 31., 56.,
          33., 1., 0., 0., 0., 0., 0., 3., 26., 31., 32., 36., 27., 38.,
          61., 36., 38., 43., 41., 56., 68., 46., 99., 79., 115., 49.,
          47., 11., 24., 42., 65., 69., 21., 1., 0., 0., 0., 0., 0., 2.,
          23., 22., 77., 58., 10., 23., 58., 52., 17., 32., 106., 44.,
          13., 27., 79., 44., 94., 18., 42., 23., 7., 10., 33., 36., 11.,
          0., 0., 0., 0., 0., 0., 0. ]
      - [ 12., 3., 3., 22., 53., 5., 4., 7., 37., 13., 22., 39., 65.,
          27., 41., 32., 57., 35., 22., 13., 28., 29., 40., 11., 58.,
          24., 3., 4., 10., 6., 6., 5., 17., 8., 12., 10., 71., 13., 14.,
          10., 46., 33., 104., 35., 73., 37., 105., 44., 70., 29., 103.,
          31., 44., 47., 105., 29., 76., 7., 10., 7., 13., 7., 14., 14.,
          18., 9., 13., 15., 65., 11., 14., 14., 60., 49., 83., 64., 74.,
          54., 97., 64., 79., 40., 77., 60., 57., 48., 98., 57., 67., 8.,
          8., 7., 19., 8., 9., 12., 17., 16., 10., 12., 54., 10., 12.,
          5., 29., 57., 105., 41., 44., 36., 104., 27., 57., 23., 105.,
          58., 30., 21., 97., 30., 55., 6., 7., 10., 15., 2., 7., 8.,
          28., 30., 76., 8., 35., 18., 78., 26., 3., 9., 107., 12., 11.,
          19., 107., 10., 1., 5., 107., 11., 8., 25., 107., 5., 36., 6.,
          72., 20., 17., 19., 99., 20., 62., 20., 33., 27., 52., 29.,
          43., 43., 16., 16., 82., 42., 22., 20., 61., 39., 19., 44.,
          83., 18., 24., 48., 60., 14., 61., 21., 34., 19., 61., 40.,
          41., 28., 39., 34., 71., 43., 54., 29., 55., 38., 36., 47.,
          35., 35., 43., 44., 53., 41., 42., 34., 35., 64., 46., 45.,
          57., 45., 62., 46., 58., 27., 44., 35., 52., 34., 46., 30.,
          42., 37., 43., 26., 56., 50., 30., 26., 62., 54., 11., 35.,
          72., 37., 12., 15., 68., 41., 16., 20., 84., 39., 47., 12.,
          37., 33., 38., 21., 51., 27., 4., 0., 0., 28., 29., 0., 1., 4.,
          46., 9., 13., 77., 88., 16., 21., 30., 94., 64., 14., 14., 37.,
          27., 17., 9., 33., 28., 1., 1., 5., 4., 1., 0., 20., 8., 8.,
          19., 82., 12., 12., 10., 49., 25., 64., 31., 84., 39., 91.,
          37., 73., 26., 62., 22., 38., 38., 98., 18., 87., 19., 8., 7.,
          14., 7., 12., 11., 17., 9., 14., 12., 71., 13., 15., 13., 54.,
          41., 100., 51., 78., 47., 103., 57., 83., 45., 95., 41., 57.,
          57., 103., 43., 74., 8., 10., 7., 16., 9., 11., 13., 18., 9.,
          10., 14., 56., 9., 13., 11., 48., 45., 86., 56., 56., 44., 96.,
          53., 64., 28., 83., 57., 43., 33., 93., 47., 54., 6., 7., 7.,
          17., 5., 7., 10., 0., 0., 0., 0., 1., 0., 0., 0., 27., 22.,
          47., 57., 134., 32., 14., 14., 134., 67., 56., 19., 22., 17.,
          16., 39., 2., 0., 0., 0., 0., 0., 0., 0., 0., 0., 0., 2., 7.,
          0., 0., 0., 66., 14., 31., 59., 134., 44., 47., 37., 134., 41.,
          29., 21., 50., 33., 47., 44., 7., 1., 0., 0., 0., 0., 0., 0.,
          0., 0., 0., 13., 30., 0., 0., 0., 101., 23., 48., 94., 134.,
          24., 34., 32., 134., 73., 51., 26., 68., 31., 34., 21., 21.,
          6., 0., 0., 1., 0., 0., 0., 10., 1., 0., 49., 59., 2., 2., 10.,
          59., 13., 16., 96., 105., 29., 37., 46., 124., 94., 16., 18.,
          49., 43., 27., 13., 50., 38., 1., 2., 7., 6., 2., 1., 2., 0.,
          1., 19., 79., 4., 0., 1., 94., 17., 2., 43., 108., 11., 8.,
          49., 25., 8., 3., 9., 26., 33., 23., 21., 2., 2., 2., 5., 16.,
          22., 9., 2., 3., 2., 5., 10., 85., 21., 7., 1., 68., 53., 79.,
          18., 108., 48., 107., 36., 15., 21., 108., 17., 20., 25., 108.,
          20., 1., 4., 83., 14., 19., 22., 108., 3., 3., 2., 2., 10.,
          89., 8., 2., 4., 92., 33., 51., 24., 108., 33., 65., 56., 19.,
          18., 108., 32., 13., 19., 108., 37., 7., 18., 96., 13., 12.,
          27., 108., 10., 4., 3., 2., 5., 57., 6., 2., 4., 46., 29., 59.,
          37., 86., 32., 40., 43., 33., 34., 45., 47., 44., 29., 28.,
          47., 24., 25., 37., 31., 25., 36., 22., 22., 1., 2., 4., 8.,
          58., 11., 4., 0., 41., 40., 77., 16., 93., 31., 84., 28., 9.,
          16., 106., 11., 9., 18., 106., 20., 1., 4., 88., 9., 9., 18.,
          106., 3., 3., 2., 1., 7., 76., 9., 2., 5., 90., 26., 28., 27.,
          106., 40., 47., 58., 27., 19., 75., 49., 23., 20., 65., 46.,
          12., 25., 75., 17., 17., 32., 53., 14., 5., 4., 3., 6., 68.,
          5., 2., 3., 48., 40., 91., 50., 106., 30., 63., 49., 46., 53.,
          46., 42., 51., 47., 54., 46., 28., 25., 29., 46., 31., 37.,
          46., 32., 8., 2., 1., 8., 57., 6., 2., 3., 62., 33., 41., 52.,
          98., 31., 60., 61., 39., 34., 63., 48., 13., 38., 75., 44.,
          13., 14., 54., 37., 11., 19., 66., 32., 2., 2., 2., 6., 21.,
          28., 11., 3., 4., 5., 4., 7., 15., 17., 11., 4., 114., 48., 9.,
          20., 55., 28., 8., 6., 88., 14., 1., 1., 6., 1., 0., 2., 1.,
          5., 93., 16., 23., 24., 114., 4., 1., 6., 114., 21., 15., 28.,
          114., 9., 114., 19., 75., 36., 34., 20., 114., 58., 88., 7.,
          3., 3., 4., 1., 5., 21., 8., 15., 95., 19., 11., 20., 102.,
          17., 11., 33., 109., 18., 34., 55., 114., 16., 114., 16., 46.,
          28., 73., 46., 59., 33., 83., 3., 1., 1., 3., 2., 1., 6., 21.,
          24., 37., 30., 26., 27., 26., 29., 41., 52., 51., 43., 45.,
          49., 34., 34., 114., 38., 45., 27., 55., 35., 34., 35., 54.,
          5., 0., 2., 5., 1., 0., 6., 1., 5., 95., 10., 11., 17., 110.,
          4., 2., 5., 110., 14., 10., 30., 110., 8., 100., 13., 75., 29.,
          25., 19., 98., 37., 63., 5., 3., 2., 2., 1., 4., 13., 13., 18.,
          72., 26., 17., 22., 50., 26., 22., 51., 79., 22., 40., 56.,
          61., 20., 110., 21., 26., 23., 79., 49., 42., 37., 79., 4., 0.,
          1., 4., 3., 0., 6., 25., 32., 29., 33., 30., 35., 49., 31.,
          45., 48., 47., 64., 55., 48., 68., 51., 110., 49., 64., 31.,
          62., 42., 51., 41., 67., 5., 1., 3., 6., 1., 0., 8., 20., 19.,
          56., 44., 8., 24., 63., 32., 8., 14., 71., 46., 20., 23., 92.,
          38., 110., 18., 34., 35., 67., 26., 43., 35., 49., 5., 0., 1.,
          6., 1., 0., 6. ]
      - [ 19., 5., 14., 19., 17., 7., 16., 34., 36., 18., 60., 15., 13.,
          14., 42., 58., 13., 32., 55., 9., 31., 79., 64., 11., 18., 13.,
          8., 15., 14., 29., 16., 20., 50., 15., 27., 40., 37., 21., 28.,
          42., 81., 49., 50., 49., 33., 30., 52., 57., 45., 60., 45.,
          35., 67., 68., 54., 35., 33., 44., 34., 26., 48., 41., 38.,
          47., 54., 25., 37., 39., 40., 31., 41., 36., 67., 56., 76.,
          58., 28., 36., 90., 81., 35., 66., 80., 44., 59., 64., 87.,
          51., 49., 58., 34., 22., 60., 48., 58., 36., 26., 21., 29.,
          21., 27., 40., 46., 33., 20., 49., 80., 23., 10., 26., 87.,
          34., 15., 67., 103., 19., 35., 45., 90., 20., 21., 80., 35.,
          15., 47., 45., 42., 16., 43., 17., 18., 26., 22., 16., 15.,
          35., 61., 32., 43., 38., 23., 8., 10., 54., 23., 32., 40., 9.,
          15., 30., 22., 21., 20., 39., 20., 12., 52., 54., 21., 8., 44.,
          29., 33., 62., 22., 27., 53., 20., 103., 90., 17., 20., 30.,
          53., 66., 40., 44., 29., 28., 41., 35., 24., 45., 39., 46.,
          75., 13., 39., 92., 45., 27., 25., 57., 31., 54., 52., 23.,
          22., 63., 70., 66., 49., 90., 75., 9., 28., 87., 85., 29., 39.,
          82., 54., 12., 28., 67., 75., 15., 46., 37., 23., 54., 73.,
          68., 14., 24., 26., 36., 24., 18., 17., 50., 43., 37., 51.,
          62., 37., 18., 38., 77., 67., 25., 46., 71., 27., 14., 47.,
          81., 50., 17., 41., 54., 16., 39., 46., 60., 16., 14., 3., 4.,
          21., 21., 3., 10., 20., 35., 13., 25., 13., 15., 17., 26., 62.,
          11., 17., 19., 10., 38., 55., 29., 10., 9., 7., 3., 4., 6.,
          19., 13., 6., 36., 9., 28., 31., 30., 14., 26., 55., 62., 35.,
          88., 32., 26., 21., 60., 78., 28., 60., 86., 17., 48., 103.,
          94., 20., 28., 27., 22., 28., 31., 47., 32., 44., 65., 23.,
          32., 51., 46., 30., 39., 42., 95., 61., 58., 64., 36., 42.,
          79., 70., 52., 70., 51., 51., 82., 66., 63., 50., 49., 56.,
          37., 27., 59., 46., 46., 47., 42., 23., 36., 29., 33., 28.,
          35., 32., 44., 55., 77., 41., 20., 27., 79., 63., 25., 62.,
          82., 30., 47., 54., 85., 36., 36., 64., 31., 17., 56., 43.,
          55., 28., 1., 2., 3., 104., 109., 0., 0., 1., 20., 57., 78.,
          47., 42., 12., 29., 31., 12., 109., 109., 11., 26., 27., 26.,
          12., 0., 107., 109., 0., 0., 0., 1., 0., 5., 2., 2., 109.,
          109., 1., 2., 5., 58., 34., 39., 24., 27., 31., 63., 74., 15.,
          34., 37., 14., 68., 68., 53., 23., 0., 13., 15., 1., 2., 3.,
          2., 0., 13., 4., 5., 67., 77., 6., 12., 18., 105., 48., 31.,
          33., 47., 37., 34., 92., 20., 35., 26., 30., 104., 61., 31.,
          19., 1., 2., 1., 1., 2., 11., 10., 2., 30., 7., 11., 32., 30.,
          7., 20., 47., 58., 24., 59., 22., 26., 32., 58., 109., 21.,
          36., 44., 16., 63., 109., 67., 14., 22., 15., 8., 12., 12.,
          36., 24., 17., 16., 2., 9., 21., 27., 15., 22., 57., 49., 13.,
          67., 32., 12., 7., 28., 70., 27., 29., 105., 6., 6., 6., 63.,
          63., 5., 24., 105., 5., 12., 38., 105., 13., 38., 15., 53.,
          39., 47., 18., 30., 43., 82., 20., 26., 33., 42., 28., 28.,
          77., 68., 43., 66., 40., 22., 9., 36., 80., 22., 30., 66., 12.,
          7., 23., 46., 28., 70., 17., 16., 41., 48., 18., 20., 33., 69.,
          29., 35., 80., 37., 31., 40., 33., 105., 85., 31., 58., 52.,
          41., 37., 49., 51., 40., 24., 21., 21., 25., 25., 32., 66.,
          24., 19., 35., 52., 28., 39., 31., 54., 27., 54., 64., 29.,
          28., 63., 52., 76., 58., 47., 34., 9., 33., 103., 65., 25.,
          24., 42., 37., 6., 19., 59., 44., 32., 10., 30., 25., 32., 14.,
          25., 29., 64., 17., 15., 27., 32., 24., 20., 48., 65., 34.,
          44., 44., 29., 10., 13., 55., 24., 23., 35., 12., 9., 16., 16.,
          27., 76., 23., 15., 40., 48., 21., 21., 29., 56., 27., 39.,
          79., 33., 32., 54., 29., 103., 90., 22., 39., 35., 50., 73.,
          41., 46., 39., 23., 21., 17., 26., 41., 28., 71., 28., 28.,
          44., 64., 32., 44., 35., 74., 29., 60., 78., 41., 29., 67.,
          79., 83., 58., 88., 59., 13., 29., 100., 92., 32., 31., 72.,
          62., 7., 22., 59., 70., 50., 15., 19., 22., 35., 21., 15., 15.,
          47., 27., 35., 31., 26., 19., 56., 53., 36., 53., 64., 36.,
          22., 36., 80., 66., 27., 37., 55., 29., 12., 35., 63., 54., 8.,
          20., 102., 4., 7., 15., 84., 26., 2., 40., 109., 5., 20., 96.,
          109., 3., 28., 53., 41., 6., 29., 109., 55., 2., 19., 8., 5.,
          16., 6., 20., 7., 6., 36., 27., 58., 22., 9., 10., 31., 43.,
          19., 53., 64., 7., 15., 65., 56., 13., 17., 67., 40., 25., 99.,
          109., 49., 10., 23., 17., 25., 46., 36., 21., 19., 59., 76.,
          56., 17., 17., 23., 29., 26., 34., 54., 40., 25., 45., 60.,
          32., 23., 37., 48., 86., 21., 39., 109., 65., 25., 26., 27.,
          22., 38., 20., 58., 25., 34., 56., 34., 29., 39., 38., 4., 21.,
          61., 41., 17., 24., 37., 32., 24., 30., 63., 46., 20., 71.,
          18., 33., 84., 91., 66., 9., 42., 20., 26., 33., 37., 28., 21.,
          23., 39., 23., 33., 21., 13., 9., 8., 39., 24., 41., 34., 9.,
          21., 39., 22., 14., 20., 41., 22., 23., 99., 73., 26., 11.,
          19., 15., 27., 27., 36., 15., 21., 47., 69., 59., 17., 12.,
          17., 35., 48., 27., 46., 29., 23., 53., 57., 28., 39., 47.,
          46., 104., 17., 42., 104., 67., 36., 23., 28., 23., 31., 27.,
          58., 24., 24., 46., 41., 32., 71., 71., 7., 21., 61., 68., 21.,
          42., 74., 35., 17., 37., 68., 57., 21., 64., 39., 33., 104.,
          104., 74., 11., 58., 30., 31., 32., 54., 48., 41., 29., 30.,
          38., 46., 29., 13., 30., 60., 54., 19., 48., 74., 21., 10.,
          51., 84., 36., 21., 50., 56., 21., 94., 59., 65., 18., 31.,
          53., 25., 9., 54., 24., 52., 34. ]
      - [ 1., 0., 0., 20., 76., 4., 1., 1., 12., 9., 8., 31., 56., 13.,
          18., 23., 53., 26., 5., 6., 7., 14., 17., 15., 70., 16., 0.,
          0., 0., 0., 2., 6., 2., 1., 3., 13., 95., 11., 9., 5., 53.,
          33., 31., 42., 73., 43., 51., 66., 74., 41., 39., 51., 26.,
          60., 83., 66., 67., 5., 3., 7., 4., 2., 9., 22., 10., 4., 7.,
          15., 97., 10., 5., 6., 77., 52., 71., 83., 99., 49., 65., 105.,
          99., 39., 61., 87., 56., 34., 72., 98., 62., 4., 4., 5., 9.,
          2., 4., 7., 5., 8., 9., 13., 92., 6., 3., 2., 28., 64., 105.,
          34., 48., 27., 81., 45., 59., 29., 105., 59., 23., 17., 105.,
          45., 69., 5., 10., 10., 12., 2., 4., 4., 10., 4., 5., 7., 30.,
          19., 34., 33., 40., 17., 23., 15., 16., 45., 61., 81., 13.,
          24., 19., 10., 10., 90., 96., 15., 21., 7., 7., 18., 5., 17.,
          53., 69., 24., 16., 21., 44., 34., 12., 22., 38., 91., 51.,
          31., 45., 34., 23., 16., 44., 50., 55., 56., 63., 29., 55.,
          53., 28., 44., 27., 27., 52., 21., 25., 40., 51., 31., 17.,
          25., 35., 51., 25., 22., 48., 63., 37., 48., 73., 48., 33.,
          35., 94., 60., 34., 42., 80., 43., 28., 42., 81., 61., 26.,
          27., 36., 27., 12., 28., 52., 48., 29., 41., 41., 53., 31.,
          26., 50., 62., 44., 71., 77., 44., 45., 77., 102., 62., 33.,
          42., 86., 52., 28., 71., 102., 42., 7., 12., 27., 31., 8., 26.,
          40., 1., 0., 0., 26., 62., 0., 0., 1., 15., 8., 7., 56., 84.,
          5., 8., 15., 86., 48., 6., 6., 12., 6., 6., 7., 61., 19., 0.,
          0., 0., 0., 0., 1., 1., 1., 1., 20., 103., 11., 5., 3., 28.,
          19., 18., 29., 77., 35., 44., 48., 75., 30., 15., 18., 13.,
          41., 56., 42., 97., 15., 1., 2., 1., 1., 6., 18., 5., 2., 4.,
          17., 103., 10., 9., 7., 76., 45., 46., 71., 91., 46., 52., 89.,
          99., 51., 52., 79., 43., 57., 78., 85., 68., 5., 4., 7., 6.,
          3., 8., 18., 10., 6., 9., 15., 90., 10., 5., 5., 62., 59., 85.,
          70., 79., 47., 80., 93., 81., 33., 80., 75., 47., 27., 87.,
          84., 56., 4., 5., 5., 10., 2., 4., 5., 0., 0., 4., 2., 45., 0.,
          1., 1., 44., 20., 58., 37., 120., 27., 45., 45., 107., 35.,
          61., 13., 27., 28., 59., 35., 39., 2., 5., 0., 0., 0., 1., 1.,
          0., 1., 14., 9., 68., 4., 11., 2., 63., 60., 120., 61., 120.,
          28., 83., 62., 108., 52., 120., 42., 38., 36., 107., 38., 57.,
          4., 12., 1., 0., 0., 12., 7., 0., 1., 2., 11., 88., 1., 3., 1.,
          56., 24., 54., 51., 120., 9., 25., 17., 120., 40., 68., 17.,
          43., 11., 28., 14., 67., 5., 2., 1., 0., 0., 1., 1., 1., 1.,
          1., 39., 92., 2., 1., 2., 16., 11., 9., 63., 82., 7., 13., 21.,
          102., 62., 6., 6., 10., 8., 8., 8., 74., 22., 0., 0., 0., 0.,
          0., 1., 0., 0., 0., 28., 115., 9., 0., 0., 6., 3., 3., 44.,
          115., 10., 3., 7., 25., 20., 15., 8., 3., 6., 13., 20., 4., 9.,
          12., 14., 11., 14., 11., 7., 0., 0., 0., 7., 115., 18., 3., 0.,
          6., 3., 3., 11., 115., 37., 42., 24., 44., 20., 23., 14., 10.,
          39., 76., 115., 16., 20., 18., 15., 13., 90., 90., 27., 1., 0.,
          1., 14., 115., 11., 4., 1., 18., 10., 26., 71., 115., 38., 58.,
          48., 104., 52., 36., 34., 32., 28., 36., 88., 56., 54., 49.,
          40., 29., 80., 76., 28., 1., 0., 1., 10., 115., 3., 3., 0.,
          23., 14., 21., 48., 114., 23., 21., 35., 71., 49., 41., 63.,
          38., 23., 22., 75., 51., 36., 39., 66., 32., 21., 19., 48., 0.,
          0., 0., 4., 104., 10., 2., 0., 5., 2., 5., 12., 100., 31., 41.,
          22., 38., 14., 18., 11., 10., 27., 48., 91., 17., 18., 17.,
          10., 12., 71., 72., 21., 0., 0., 0., 11., 104., 4., 2., 0.,
          17., 9., 20., 64., 98., 18., 28., 35., 83., 50., 29., 38., 27.,
          17., 18., 52., 51., 43., 40., 46., 26., 38., 32., 23., 2., 0.,
          1., 8., 104., 3., 2., 1., 26., 14., 22., 39., 104., 33., 25.,
          35., 63., 36., 47., 65., 43., 30., 32., 97., 49., 29., 35.,
          64., 35., 23., 31., 65., 6., 1., 0., 7., 101., 2., 0., 0., 49.,
          22., 40., 40., 104., 38., 22., 35., 66., 49., 69., 71., 49.,
          42., 67., 104., 52., 29., 41., 70., 40., 28., 59., 81., 10.,
          15., 16., 15., 7., 13., 13., 11., 3., 5., 4., 9., 11., 10., 5.,
          3., 109., 36., 1., 1., 2., 2., 2., 8., 109., 15., 0., 0., 0.,
          0., 0., 2., 27., 20., 24., 21., 18., 87., 91., 61., 9., 17.,
          13., 9., 9., 76., 103., 28., 109., 16., 5., 17., 7., 9., 62.,
          109., 109., 8., 0., 1., 1., 1., 6., 24., 73., 44., 35., 41.,
          39., 52., 38., 38., 48., 69., 73., 73., 23., 102., 109., 52.,
          103., 24., 22., 63., 24., 26., 57., 104., 88., 1., 0., 1., 2.,
          1., 2., 5., 51., 34., 36., 68., 35., 21., 18., 52., 63., 43.,
          45., 72., 39., 25., 29., 66., 98., 30., 28., 30., 26., 12.,
          25., 40., 70., 2., 0., 1., 2., 1., 0., 1., 28., 17., 20., 15.,
          18., 63., 61., 46., 10., 22., 21., 13., 6., 79., 103., 27.,
          70., 10., 6., 24., 7., 11., 56., 103., 73., 3., 0., 1., 1., 1.,
          5., 15., 65., 41., 32., 50., 34., 28., 17., 29., 55., 61., 61.,
          74., 29., 58., 67., 43., 90., 26., 24., 51., 25., 21., 33.,
          60., 76., 2., 0., 1., 2., 1., 0., 2., 51., 28., 40., 70., 42.,
          29., 34., 76., 68., 38., 45., 82., 45., 28., 47., 92., 103.,
          27., 27., 31., 32., 12., 30., 48., 79., 1., 0., 1., 2., 1., 0.,
          1., 52., 33., 55., 76., 42., 39., 68., 83., 63., 30., 41., 81.,
          49., 22., 73., 103., 76., 5., 8., 20., 43., 9., 18., 28., 63.,
          0., 0., 1., 3., 1., 0., 1. ]
      - [ 3., 2., 2., 23., 98., 4., 2., 2., 32., 16., 20., 51., 52., 15.,
          14., 24., 79., 36., 12., 16., 18., 16., 12., 15., 74., 16., 1.,
          0., 0., 0., 0., 2., 15., 6., 4., 11., 107., 15., 11., 7., 43.,
          32., 36., 40., 72., 37., 79., 74., 79., 34., 28., 30., 31.,
          48., 65., 61., 89., 7., 1., 2., 2., 2., 6., 14., 30., 7., 4.,
          9., 107., 9., 3., 10., 82., 46., 70., 82., 103., 46., 68., 91.,
          94., 50., 64., 83., 52., 29., 68., 90., 80., 9., 4., 4., 5.,
          1., 4., 11., 17., 13., 6., 5., 107., 7., 5., 5., 34., 46., 92.,
          26., 50., 31., 69., 30., 48., 21., 101., 38., 17., 17., 72.,
          46., 67., 6., 9., 4., 3., 0., 4., 6., 13., 6., 4., 5., 35.,
          23., 34., 18., 11., 9., 12., 5., 5., 10., 58., 55., 6., 7.,
          10., 11., 15., 47., 64., 38., 51., 6., 1., 2., 5., 20., 25.,
          28., 51., 24., 23., 34., 61., 31., 51., 60., 33., 53., 67.,
          46., 28., 24., 89., 91., 36., 50., 43., 49., 67., 45., 62.,
          52., 37., 23., 17., 17., 14., 33., 41., 40., 72., 25., 33.,
          55., 70., 25., 15., 45., 53., 46., 62., 82., 40., 40., 41.,
          73., 51., 50., 67., 88., 50., 24., 38., 57., 53., 38., 26.,
          39., 17., 7., 15., 31., 57., 19., 23., 19., 61., 20., 24., 45.,
          42., 31., 62., 84., 57., 39., 75., 99., 51., 27., 69., 87.,
          51., 33., 85., 91., 50., 17., 19., 35., 30., 8., 33., 65., 2.,
          2., 5., 20., 81., 4., 2., 2., 34., 13., 17., 57., 86., 18.,
          14., 23., 109., 41., 11., 13., 18., 18., 12., 14., 59., 15.,
          2., 1., 0., 0., 1., 1., 5., 3., 3., 24., 109., 10., 6., 4.,
          36., 23., 25., 45., 64., 24., 41., 42., 100., 35., 17., 19.,
          23., 31., 34., 34., 108., 15., 0., 0., 0., 1., 2., 8., 25., 9.,
          5., 12., 109., 14., 9., 10., 67., 46., 56., 67., 90., 42., 79.,
          92., 88., 50., 45., 53., 43., 44., 66., 72., 87., 9., 2., 3.,
          3., 2., 5., 13., 27., 7., 4., 6., 109., 7., 4., 8., 66., 40.,
          67., 63., 82., 44., 73., 73., 78., 35., 65., 70., 42., 25.,
          71., 83., 68., 7., 4., 4., 5., 1., 4., 9., 2., 3., 19., 7.,
          49., 6., 5., 3., 40., 13., 63., 42., 116., 29., 24., 20., 124.,
          30., 61., 25., 41., 22., 21., 35., 34., 3., 3., 1., 0., 0., 1.,
          2., 3., 6., 11., 8., 76., 10., 11., 4., 108., 39., 44., 79.,
          124., 45., 43., 41., 124., 64., 37., 63., 108., 47., 38., 53.,
          53., 5., 2., 2., 1., 1., 2., 2., 4., 5., 6., 9., 104., 6., 3.,
          3., 46., 35., 38., 59., 124., 23., 20., 19., 124., 48., 32.,
          37., 35., 19., 18., 26., 66., 5., 2., 1., 1., 1., 1., 2., 3.,
          3., 6., 31., 101., 4., 2., 3., 47., 17., 22., 70., 85., 25.,
          19., 31., 124., 55., 13., 15., 21., 20., 13., 15., 67., 17.,
          1., 1., 0., 0., 1., 1., 2., 2., 1., 26., 118., 5., 1., 1., 14.,
          8., 6., 83., 88., 2., 4., 9., 36., 27., 33., 27., 12., 10.,
          12., 25., 24., 19., 19., 23., 21., 16., 13., 18., 2., 2., 4.,
          14., 118., 15., 6., 1., 21., 8., 7., 19., 118., 23., 28., 17.,
          16., 15., 21., 7., 5., 9., 38., 33., 14., 13., 23., 14., 14.,
          25., 44., 38., 8., 6., 5., 14., 118., 16., 9., 3., 69., 36.,
          11., 20., 113., 60., 82., 58., 26., 32., 48., 37., 28., 44.,
          118., 115., 24., 33., 24., 27., 44., 39., 88., 81., 12., 4.,
          2., 10., 118., 6., 1., 3., 109., 29., 25., 52., 101., 14., 11.,
          49., 41., 44., 67., 80., 42., 31., 33., 67., 42., 46., 54.,
          61., 44., 14., 22., 37., 1., 2., 3., 7., 112., 11., 5., 1.,
          17., 8., 3., 8., 81., 28., 34., 17., 10., 7., 10., 4., 6., 13.,
          49., 36., 6., 6., 10., 8., 9., 21., 49., 42., 7., 5., 4., 12.,
          112., 11., 5., 2., 80., 32., 14., 27., 95., 32., 47., 51., 25.,
          38., 61., 52., 31., 32., 90., 89., 30., 39., 33., 33., 46.,
          21., 50., 51., 11., 3., 1., 7., 112., 6., 0., 3., 108., 28.,
          27., 48., 106., 19., 9., 45., 47., 37., 58., 80., 45., 42.,
          37., 69., 40., 41., 52., 64., 40., 20., 29., 44., 13., 1., 0.,
          5., 112., 6., 0., 3., 77., 16., 15., 12., 93., 17., 15., 35.,
          44., 28., 49., 66., 55., 35., 58., 92., 34., 21., 58., 66.,
          39., 27., 70., 68., 32., 25., 30., 26., 17., 15., 15., 25.,
          20., 18., 14., 26., 32., 18., 11., 10., 117., 59., 3., 2., 2.,
          1., 1., 7., 117., 13., 0., 0., 0., 0., 0., 1., 18., 17., 25.,
          10., 9., 15., 47., 53., 16., 9., 13., 18., 21., 52., 54., 24.,
          117., 18., 2., 1., 2., 6., 17., 49., 117., 7., 0., 0., 0., 0.,
          0., 10., 30., 41., 36., 31., 35., 25., 108., 112., 34., 45.,
          35., 31., 58., 117., 111., 59., 117., 18., 7., 10., 17., 33.,
          63., 88., 117., 9., 0., 0., 1., 0., 0., 11., 48., 52., 60.,
          64., 37., 21., 24., 47., 47., 58., 70., 88., 46., 17., 30.,
          49., 108., 42., 22., 33., 15., 5., 7., 23., 104., 7., 0., 0.,
          0., 0., 0., 3., 9., 9., 11., 7., 6., 11., 54., 57., 10., 7.,
          7., 9., 16., 60., 61., 25., 104., 11., 1., 1., 4., 12., 25.,
          50., 103., 5., 0., 0., 0., 0., 0., 9., 35., 50., 48., 37., 36.,
          17., 63., 69., 36., 52., 48., 47., 56., 62., 67., 49., 91.,
          22., 13., 18., 16., 22., 38., 49., 104., 7., 0., 0., 1., 0.,
          0., 7., 45., 42., 56., 71., 37., 29., 35., 59., 52., 52., 63.,
          89., 46., 22., 38., 58., 104., 46., 22., 33., 16., 5., 14.,
          37., 104., 9., 0., 0., 1., 0., 0., 3., 34., 24., 63., 77., 47.,
          33., 73., 82., 63., 31., 58., 86., 55., 29., 78., 101., 88.,
          17., 16., 27., 30., 6., 28., 65., 91., 6., 0., 0., 2., 0., 0.,
          2. ]
      - [ 3., 1., 2., 19., 35., 4., 1., 3., 30., 17., 13., 49., 65., 29.,
          28., 29., 66., 42., 10., 16., 30., 34., 22., 16., 45., 22., 1.,
          1., 4., 2., 1., 5., 4., 1., 4., 12., 39., 14., 9., 5., 38.,
          27., 40., 70., 62., 48., 54., 46., 89., 52., 40., 60., 49.,
          60., 53., 55., 59., 11., 3., 7., 8., 4., 5., 24., 5., 3., 6.,
          12., 35., 11., 6., 4., 59., 36., 85., 106., 97., 67., 81., 86.,
          106., 55., 73., 105., 66., 44., 80., 106., 52., 12., 4., 8.,
          6., 4., 5., 15., 4., 7., 13., 11., 33., 10., 11., 3., 23., 37.,
          106., 53., 53., 53., 106., 34., 59., 41., 106., 58., 25., 30.,
          106., 55., 44., 12., 9., 6., 3., 2., 8., 11., 20., 7., 4., 8.,
          41., 23., 30., 23., 19., 21., 22., 25., 18., 20., 33., 23.,
          14., 28., 25., 23., 19., 41., 29., 11., 49., 11., 7., 19., 36.,
          25., 19., 29., 10., 9., 37., 76., 26., 29., 40., 25., 43., 22.,
          41., 84., 31., 33., 35., 44., 57., 63., 48., 56., 33., 66.,
          49., 35., 64., 39., 27., 59., 31., 38., 47., 48., 29., 14.,
          21., 52., 66., 41., 22., 33., 42., 31., 46., 79., 51., 39.,
          36., 67., 62., 35., 47., 81., 49., 26., 37., 72., 74., 34.,
          18., 45., 35., 21., 19., 43., 34., 15., 32., 37., 62., 39.,
          36., 31., 48., 27., 79., 94., 66., 51., 87., 99., 64., 31.,
          65., 96., 62., 32., 84., 103., 62., 21., 18., 50., 35., 16.,
          36., 54., 1., 0., 1., 16., 16., 1., 0., 1., 33., 18., 21., 69.,
          101., 24., 19., 20., 93., 67., 18., 24., 28., 24., 17., 20.,
          24., 20., 1., 0., 1., 1., 0., 1., 6., 2., 3., 20., 59., 10.,
          5., 7., 42., 25., 22., 50., 79., 44., 46., 44., 87., 45., 20.,
          29., 48., 55., 38., 31., 71., 21., 2., 2., 8., 3., 2., 15., 4.,
          2., 6., 16., 35., 14., 9., 5., 47., 30., 53., 102., 73., 57.,
          58., 62., 103., 63., 50., 85., 56., 59., 61., 77., 57., 12.,
          3., 9., 7., 5., 5., 22., 6., 4., 8., 9., 33., 10., 8., 3., 50.,
          37., 103., 87., 83., 63., 103., 74., 90., 46., 92., 91., 54.,
          36., 94., 95., 42., 11., 5., 6., 4., 2., 5., 12., 0., 0., 0.,
          0., 0., 0., 0., 0., 15., 21., 62., 52., 93., 44., 27., 13.,
          107., 64., 61., 21., 27., 21., 23., 34., 0., 0., 0., 0., 0.,
          0., 0., 0., 0., 0., 0., 0., 1., 0., 0., 0., 37., 31., 44., 70.,
          115., 60., 69., 26., 115., 72., 46., 37., 59., 36., 82., 51.,
          1., 0., 0., 0., 0., 0., 0., 0., 0., 0., 0., 4., 14., 0., 0.,
          0., 50., 40., 115., 91., 115., 42., 68., 31., 115., 104., 102.,
          47., 42., 39., 75., 53., 9., 4., 0., 0., 0., 0., 0., 1., 2.,
          1., 2., 31., 36., 3., 1., 2., 47., 25., 21., 93., 115., 37.,
          29., 34., 115., 94., 16., 27., 38., 35., 21., 24., 35., 27.,
          1., 0., 1., 1., 0., 2., 0., 0., 1., 19., 39., 3., 0., 0., 29.,
          14., 22., 113., 113., 26., 13., 37., 52., 26., 11., 18., 17.,
          53., 54., 49., 10., 5., 6., 8., 11., 36., 41., 20., 1., 0., 0.,
          9., 95., 11., 1., 1., 57., 17., 8., 25., 113., 42., 31., 49.,
          50., 35., 26., 22., 30., 30., 41., 41., 18., 27., 29., 25.,
          20., 35., 31., 18., 0., 0., 2., 4., 31., 14., 5., 1., 12., 8.,
          42., 77., 70., 91., 104., 38., 38., 26., 59., 113., 36., 48.,
          89., 67., 60., 68., 59., 53., 35., 80., 57., 37., 0., 0., 1.,
          8., 29., 4., 0., 0., 25., 14., 34., 102., 108., 35., 18., 28.,
          48., 31., 50., 100., 53., 40., 26., 65., 61., 35., 50., 81.,
          40., 27., 27., 57., 0., 0., 0., 3., 46., 8., 2., 1., 26., 7.,
          3., 11., 104., 41., 40., 29., 25., 20., 18., 23., 19., 21.,
          39., 30., 14., 26., 26., 20., 14., 30., 27., 14., 0., 0., 1.,
          4., 16., 6., 2., 0., 9., 9., 44., 91., 51., 48., 52., 22., 34.,
          21., 52., 104., 32., 35., 50., 52., 58., 45., 44., 54., 30.,
          54., 37., 36., 0., 0., 0., 6., 29., 6., 0., 0., 28., 14., 21.,
          71., 104., 55., 26., 31., 48., 31., 48., 93., 61., 52., 40.,
          74., 53., 33., 49., 76., 45., 24., 35., 67., 0., 0., 0., 2.,
          22., 2., 0., 0., 39., 15., 28., 37., 99., 45., 30., 26., 57.,
          31., 78., 100., 81., 64., 91., 101., 55., 27., 73., 88., 55.,
          35., 84., 104., 17., 9., 7., 9., 7., 36., 37., 22., 9., 5., 7.,
          14., 36., 52., 39., 13., 115., 86., 8., 7., 39., 25., 8., 18.,
          55., 18., 1., 0., 0., 0., 0., 5., 21., 29., 29., 22., 19., 26.,
          34., 22., 15., 20., 25., 46., 55., 62., 26., 12., 115., 27.,
          8., 25., 70., 26., 9., 67., 89., 9., 0., 0., 0., 0., 0., 18.,
          52., 38., 47., 68., 32., 52., 43., 41., 52., 99., 63., 63.,
          45., 110., 106., 38., 115., 49., 27., 68., 42., 45., 66., 115.,
          50., 10., 0., 0., 0., 0., 0., 17., 46., 30., 41., 66., 39.,
          26., 22., 49., 72., 48., 45., 90., 50., 31., 28., 60., 115.,
          52., 20., 49., 34., 20., 14., 56., 41., 7., 0., 0., 0., 0., 0.,
          8., 15., 22., 23., 21., 14., 21., 27., 18., 13., 26., 23., 30.,
          31., 51., 34., 11., 106., 18., 6., 18., 39., 20., 18., 60.,
          49., 6., 0., 0., 0., 0., 0., 14., 48., 26., 36., 59., 28., 37.,
          27., 36., 56., 76., 51., 65., 38., 71., 65., 38., 106., 43.,
          26., 68., 33., 33., 42., 78., 41., 8., 0., 0., 0., 0., 0., 12.,
          40., 30., 42., 67., 45., 28., 34., 60., 70., 39., 43., 85.,
          54., 30., 38., 73., 106., 48., 18., 39., 33., 19., 19., 59.,
          43., 7., 0., 0., 0., 0., 0., 8., 45., 25., 76., 81., 50., 39.,
          80., 90., 65., 32., 53., 106., 70., 31., 81., 106., 106., 30.,
          16., 39., 30., 15., 32., 54., 31., 5., 0., 0., 0., 0., 1., 4. ]
      - [ 7., 1., 1., 21., 46., 2., 2., 4., 23., 7., 8., 48., 74., 12.,
          25., 25., 73., 42., 7., 11., 27., 23., 19., 13., 51., 22., 1.,
          2., 5., 3., 1., 4., 10., 5., 7., 10., 68., 7., 10., 9., 35.,
          22., 45., 67., 96., 28., 65., 49., 103., 43., 31., 42., 43.,
          40., 48., 49., 70., 7., 3., 7., 8., 5., 6., 16., 9., 5., 7.,
          7., 55., 8., 10., 5., 51., 36., 91., 84., 103., 68., 101., 77.,
          110., 46., 72., 87., 58., 41., 85., 110., 52., 5., 4., 6., 6.,
          4., 6., 12., 4., 10., 15., 8., 44., 7., 13., 3., 13., 40.,
          110., 42., 48., 49., 110., 22., 55., 41., 110., 42., 15., 24.,
          110., 51., 37., 7., 11., 5., 2., 2., 8., 7., 40., 12., 25.,
          27., 64., 14., 63., 42., 4., 5., 22., 41., 26., 18., 60., 24.,
          21., 21., 15., 11., 10., 31., 27., 11., 59., 17., 11., 18.,
          34., 27., 38., 36., 26., 18., 42., 54., 69., 11., 30., 44.,
          16., 17., 30., 61., 45., 20., 25., 26., 45., 35., 26., 26.,
          20., 22., 26., 33., 86., 39., 26., 50., 39., 34., 33., 43.,
          34., 19., 22., 33., 73., 40., 35., 32., 29., 21., 42., 76.,
          57., 44., 52., 70., 51., 31., 41., 59., 40., 26., 45., 74.,
          87., 27., 20., 39., 30., 17., 32., 50., 35., 26., 45., 27.,
          52., 35., 60., 27., 37., 24., 102., 90., 58., 69., 102., 78.,
          73., 38., 68., 100., 58., 27., 87., 103., 71., 17., 19., 38.,
          31., 22., 35., 59., 1., 0., 0., 20., 21., 0., 0., 2., 29., 8.,
          7., 67., 106., 7., 11., 19., 106., 59., 6., 9., 41., 16., 11.,
          8., 28., 21., 0., 0., 1., 1., 0., 1., 14., 3., 3., 21., 80.,
          6., 7., 8., 37., 14., 25., 55., 102., 22., 53., 38., 106., 45.,
          18., 24., 44., 38., 36., 29., 81., 19., 2., 5., 9., 5., 4.,
          10., 9., 5., 7., 10., 69., 8., 10., 9., 42., 27., 51., 81.,
          106., 40., 65., 65., 106., 49., 40., 62., 50., 42., 55., 74.,
          66., 7., 3., 8., 7., 5., 6., 16., 8., 7., 11., 6., 45., 8.,
          13., 4., 39., 40., 106., 71., 77., 66., 106., 59., 88., 43.,
          100., 73., 43., 36., 105., 95., 38., 5., 5., 4., 4., 3., 6.,
          9., 0., 0., 0., 0., 0., 0., 0., 0., 41., 12., 49., 40., 124.,
          21., 27., 23., 131., 35., 57., 17., 54., 27., 25., 28., 1., 0.,
          0., 0., 0., 0., 0., 0., 0., 0., 0., 1., 4., 0., 0., 0., 121.,
          34., 57., 93., 131., 32., 68., 50., 131., 62., 51., 62., 129.,
          48., 57., 42., 6., 1., 0., 0., 0., 0., 0., 0., 0., 0., 0., 4.,
          20., 0., 0., 0., 86., 28., 40., 59., 131., 12., 21., 21., 131.,
          52., 33., 34., 108., 20., 18., 19., 17., 3., 0., 0., 0., 0.,
          0., 1., 3., 0., 0., 29., 35., 1., 1., 3., 28., 9., 8., 71.,
          101., 10., 16., 24., 115., 70., 6., 10., 35., 21., 14., 9.,
          31., 22., 0., 0., 2., 1., 0., 1., 0., 0., 0., 15., 56., 2., 0.,
          0., 58., 10., 6., 99., 125., 9., 12., 36., 16., 7., 11., 11.,
          22., 15., 27., 22., 10., 5., 6., 6., 9., 10., 9., 7., 1., 1.,
          0., 8., 109., 8., 2., 0., 114., 24., 20., 38., 125., 35., 75.,
          54., 19., 13., 36., 47., 39., 26., 110., 49., 15., 14., 19.,
          19., 12., 30., 31., 13., 1., 2., 1., 7., 80., 7., 3., 1., 48.,
          40., 82., 75., 125., 29., 87., 78., 28., 21., 73., 125., 59.,
          26., 84., 63., 30., 26., 23., 24., 24., 27., 24., 20., 1., 0.,
          0., 5., 63., 3., 1., 1., 34., 19., 22., 37., 125., 31., 32.,
          35., 30., 26., 37., 74., 59., 41., 44., 58., 31., 24., 29.,
          40., 28., 18., 27., 45., 1., 0., 0., 4., 56., 5., 2., 0., 59.,
          17., 25., 28., 110., 26., 68., 45., 14., 8., 32., 52., 26.,
          17., 90., 41., 11., 11., 12., 14., 11., 22., 21., 9., 0., 1.,
          0., 4., 58., 3., 1., 0., 30., 26., 48., 51., 110., 16., 38.,
          48., 24., 19., 48., 92., 50., 21., 39., 47., 25., 20., 19.,
          22., 20., 17., 16., 20., 1., 0., 0., 5., 56., 3., 1., 1., 40.,
          20., 23., 35., 110., 43., 40., 32., 36., 25., 43., 80., 63.,
          57., 57., 71., 36., 24., 37., 54., 38., 25., 42., 65., 2., 0.,
          0., 3., 42., 3., 0., 1., 50., 27., 40., 26., 99., 34., 57.,
          26., 40., 31., 98., 86., 65., 81., 107., 76., 53., 29., 79.,
          90., 50., 32., 88., 92., 6., 5., 8., 6., 12., 9., 11., 7., 35.,
          16., 10., 16., 38., 30., 23., 19., 127., 87., 7., 18., 55.,
          29., 10., 10., 75., 19., 0., 0., 0., 0., 0., 2., 4., 9., 22.,
          31., 23., 27., 51., 22., 52., 37., 28., 25., 41., 58., 55.,
          20., 127., 28., 16., 35., 73., 37., 45., 87., 116., 8., 1., 1.,
          1., 0., 2., 16., 13., 15., 28., 51., 40., 26., 28., 18., 94.,
          91., 53., 49., 45., 63., 75., 63., 127., 49., 33., 72., 58.,
          50., 57., 96., 80., 4., 1., 1., 0., 0., 1., 10., 21., 21., 31.,
          53., 42., 27., 33., 46., 71., 43., 42., 59., 42., 26., 39.,
          69., 127., 39., 20., 37., 32., 18., 30., 58., 52., 2., 0., 0.,
          0., 0., 0., 5., 3., 5., 15., 27., 18., 18., 34., 14., 34., 33.,
          19., 13., 22., 42., 46., 18., 111., 19., 11., 23., 39., 27.,
          40., 68., 62., 4., 0., 1., 1., 0., 2., 12., 12., 15., 20., 37.,
          32., 18., 17., 18., 73., 58., 38., 45., 34., 35., 41., 51.,
          111., 38., 26., 54., 41., 33., 32., 58., 60., 3., 0., 1., 0.,
          0., 1., 6., 26., 19., 40., 63., 48., 35., 48., 63., 70., 40.,
          45., 71., 47., 29., 52., 87., 111., 33., 17., 36., 29., 17.,
          36., 61., 49., 2., 0., 0., 1., 1., 1., 5., 37., 23., 96., 87.,
          49., 50., 97., 76., 92., 46., 59., 103., 64., 31., 85., 111.,
          111., 14., 16., 30., 32., 23., 31., 52., 30., 1., 0., 0., 1.,
          0., 0., 3. ]
      - [ 2., 1., 2., 25., 33., 5., 6., 3., 19., 10., 17., 51., 57., 15.,
          45., 36., 57., 47., 15., 13., 21., 34., 45., 15., 40., 27., 1.,
          1., 4., 4., 4., 4., 4., 2., 5., 13., 36., 8., 11., 7., 34.,
          36., 55., 55., 59., 46., 68., 45., 75., 40., 51., 61., 41.,
          43., 59., 52., 58., 9., 4., 8., 8., 9., 7., 11., 9., 3., 6.,
          14., 58., 7., 5., 6., 80., 41., 73., 107., 107., 46., 63., 98.,
          107., 51., 72., 107., 107., 36., 70., 107., 68., 10., 5., 13.,
          16., 3., 6., 18., 5., 4., 10., 9., 40., 6., 6., 7., 49., 24.,
          64., 67., 91., 29., 61., 75., 98., 31., 58., 67., 69., 36.,
          51., 69., 52., 8., 5., 7., 9., 3., 3., 10., 14., 8., 14., 9.,
          21., 18., 63., 17., 12., 11., 28., 23., 28., 39., 44., 16.,
          29., 17., 25., 16., 10., 15., 51., 40., 30., 7., 11., 17., 19.,
          35., 49., 18., 16., 19., 44., 63., 22., 9., 13., 28., 24., 57.,
          58., 39., 39., 53., 39., 28., 26., 38., 74., 65., 24., 18.,
          30., 57., 49., 34., 33., 63., 32., 19., 8., 15., 43., 21., 23.,
          59., 75., 17., 16., 33., 43., 51., 58., 79., 48., 27., 22.,
          39., 53., 35., 54., 87., 43., 23., 32., 59., 83., 30., 27.,
          53., 46., 15., 35., 53., 39., 10., 22., 38., 64., 23., 30.,
          37., 53., 15., 51., 95., 62., 36., 61., 103., 98., 19., 60.,
          90., 77., 26., 74., 103., 102., 22., 16., 51., 92., 14., 27.,
          61., 0., 0., 1., 16., 20., 0., 0., 1., 30., 12., 16., 49.,
          105., 5., 13., 17., 105., 44., 16., 20., 32., 15., 18., 9.,
          27., 17., 0., 0., 1., 1., 0., 1., 5., 2., 3., 24., 50., 10.,
          14., 5., 28., 15., 27., 48., 61., 34., 82., 51., 68., 45., 23.,
          22., 32., 51., 74., 33., 61., 24., 1., 3., 7., 8., 8., 10., 6.,
          2., 7., 19., 40., 6., 7., 7., 46., 52., 75., 89., 75., 45.,
          54., 54., 98., 54., 70., 94., 57., 39., 54., 71., 60., 11., 5.,
          11., 9., 6., 6., 13., 7., 2., 5., 10., 49., 8., 6., 7., 77.,
          25., 60., 100., 105., 43., 72., 105., 105., 37., 56., 100.,
          105., 35., 63., 105., 56., 7., 3., 9., 13., 3., 4., 13., 0.,
          0., 0., 0., 2., 0., 0., 0., 19., 18., 54., 55., 125., 22., 17.,
          10., 125., 56., 60., 24., 26., 15., 17., 25., 3., 0., 0., 0.,
          0., 0., 0., 0., 0., 0., 0., 2., 8., 0., 0., 0., 47., 36., 65.,
          68., 125., 59., 93., 55., 125., 60., 48., 42., 58., 59., 87.,
          52., 10., 2., 0., 0., 0., 0., 0., 0., 0., 0., 0., 5., 31., 1.,
          0., 0., 66., 45., 85., 64., 125., 27., 42., 25., 125., 57.,
          63., 56., 81., 26., 32., 28., 30., 3., 0., 0., 0., 0., 0., 1.,
          1., 0., 2., 34., 42., 2., 1., 2., 38., 18., 23., 74., 125.,
          11., 30., 32., 125., 77., 20., 25., 39., 28., 32., 13., 35.,
          27., 0., 0., 1., 2., 1., 1., 0., 0., 1., 28., 57., 4., 1., 0.,
          22., 5., 16., 111., 111., 13., 13., 37., 26., 8., 7., 10., 7.,
          6., 41., 78., 2., 3., 11., 5., 9., 23., 53., 12., 0., 1., 1.,
          5., 70., 19., 9., 0., 37., 14., 21., 20., 111., 62., 111., 38.,
          26., 20., 45., 31., 29., 51., 111., 40., 30., 21., 41., 22.,
          16., 24., 60., 32., 1., 0., 1., 7., 36., 4., 2., 2., 25., 13.,
          46., 72., 59., 17., 30., 50., 26., 57., 69., 44., 56., 90.,
          61., 29., 46., 34., 60., 49., 33., 41., 60., 92., 1., 0., 2.,
          7., 43., 4., 0., 1., 34., 18., 48., 109., 111., 18., 13., 36.,
          55., 88., 79., 88., 51., 28., 27., 44., 36., 45., 76., 92.,
          36., 23., 19., 35., 0., 0., 0., 2., 30., 7., 3., 0., 17., 9.,
          15., 13., 56., 29., 85., 21., 13., 13., 33., 25., 29., 46.,
          74., 19., 28., 16., 27., 18., 14., 18., 39., 34., 1., 0., 1.,
          6., 27., 4., 1., 2., 18., 11., 50., 90., 53., 11., 19., 42.,
          30., 74., 74., 50., 38., 54., 38., 26., 28., 36., 66., 58.,
          29., 32., 40., 61., 0., 0., 1., 7., 48., 3., 0., 0., 47., 19.,
          31., 83., 108., 23., 14., 33., 61., 63., 59., 96., 60., 31.,
          28., 54., 46., 38., 60., 87., 39., 24., 27., 47., 0., 0., 0.,
          3., 46., 2., 0., 0., 43., 12., 23., 40., 108., 33., 29., 35.,
          62., 18., 51., 101., 71., 43., 66., 108., 82., 17., 67., 96.,
          60., 28., 77., 108., 6., 5., 10., 2., 3., 10., 48., 24., 3.,
          8., 7., 8., 24., 57., 47., 9., 111., 111., 3., 6., 32., 39.,
          11., 8., 63., 27., 0., 0., 0., 0., 0., 3., 22., 19., 41., 27.,
          22., 31., 52., 25., 27., 23., 37., 28., 27., 47., 111., 44.,
          111., 11., 12., 27., 45., 64., 107., 61., 84., 2., 0., 0., 0.,
          0., 4., 20., 35., 39., 52., 39., 46., 68., 61., 61., 34., 45.,
          75., 85., 33., 25., 48., 77., 111., 49., 39., 72., 49., 53.,
          17., 27., 56., 6., 0., 0., 0., 0., 1., 6., 33., 56., 70., 80.,
          40., 24., 19., 28., 50., 49., 71., 103., 47., 20., 24., 53.,
          111., 47., 30., 58., 42., 15., 24., 48., 52., 7., 0., 0., 0.,
          0., 0., 7., 18., 12., 24., 19., 20., 27., 32., 21., 23., 16.,
          23., 18., 13., 24., 66., 39., 75., 8., 11., 19., 24., 41., 50.,
          28., 40., 1., 0., 0., 0., 0., 2., 9., 22., 43., 52., 41., 33.,
          42., 37., 36., 23., 42., 74., 84., 29., 14., 21., 45., 108.,
          46., 32., 64., 37., 25., 7., 20., 45., 7., 0., 0., 0., 0., 0.,
          4., 36., 38., 51., 71., 38., 23., 20., 36., 61., 40., 50., 87.,
          54., 24., 42., 72., 108., 35., 26., 56., 53., 16., 39., 68.,
          52., 5., 0., 0., 0., 0., 0., 9., 58., 13., 53., 89., 53., 28.,
          60., 107., 108., 25., 51., 87., 108., 27., 67., 108., 108.,
          29., 15., 52., 92., 11., 23., 66., 33., 3., 1., 0., 0., 0., 0.,
          4. ]
      - [ 11., 3., 4., 4., 7., 8., 76., 6., 46., 33., 33., 31., 28., 32.,
          76., 34., 45., 22., 27., 23., 62., 39., 68., 32., 12., 2., 2.,
          2., 13., 12., 66., 5., 34., 11., 13., 10., 18., 17., 26., 9.,
          107., 62., 89., 47., 101., 76., 107., 60., 94., 43., 61., 38.,
          107., 46., 101., 42., 22., 3., 4., 5., 31., 10., 16., 4., 20.,
          28., 34., 16., 35., 24., 34., 17., 68., 87., 107., 45., 73.,
          62., 86., 51., 52., 40., 107., 62., 62., 47., 56., 28., 24.,
          14., 28., 13., 14., 6., 7., 4., 11., 13., 31., 28., 45., 11.,
          19., 10., 32., 55., 86., 34., 54., 30., 69., 19., 33., 12.,
          58., 38., 29., 17., 41., 12., 24., 17., 30., 9., 5., 3., 14.,
          5., 63., 32., 38., 33., 46., 32., 52., 22., 41., 32., 62., 18.,
          40., 27., 104., 23., 46., 28., 54., 31., 45., 21., 93., 22.,
          37., 11., 11., 11., 55., 13., 35., 12., 79., 26., 22., 16.,
          58., 54., 45., 31., 82., 48., 84., 34., 86., 60., 82., 60.,
          70., 35., 49., 27., 74., 55., 78., 53., 37., 9., 7., 10., 71.,
          13., 23., 11., 32., 55., 68., 32., 23., 24., 30., 36., 24.,
          45., 104., 31., 30., 43., 83., 34., 24., 50., 85., 34., 30.,
          40., 38., 26., 20., 20., 45., 35., 41., 14., 12., 7., 42., 47.,
          56., 12., 42., 17., 20., 20., 28., 35., 97., 19., 23., 30.,
          67., 25., 13., 21., 104., 38., 53., 38., 27., 13., 43., 8.,
          61., 32., 8., 8., 12., 6., 8., 1., 1., 1., 1., 1., 25., 7.,
          55., 29., 28., 33., 27., 24., 30., 57., 22., 20., 32., 32.,
          51., 44., 35., 27., 2., 1., 1., 1., 8., 8., 22., 1., 21., 7.,
          9., 8., 16., 17., 83., 8., 77., 46., 54., 38., 58., 56., 105.,
          41., 84., 31., 38., 29., 97., 44., 105., 42., 23., 2., 4., 4.,
          21., 14., 72., 7., 34., 17., 20., 11., 17., 19., 24., 12.,
          105., 73., 105., 49., 93., 77., 105., 65., 74., 45., 83., 45.,
          101., 49., 82., 40., 18., 5., 7., 7., 29., 8., 6., 3., 14.,
          21., 24., 15., 44., 17., 21., 13., 52., 69., 105., 36., 66.,
          41., 66., 33., 44., 26., 103., 52., 44., 30., 39., 17., 24.,
          17., 33., 12., 7., 4., 6., 3., 3., 17., 97., 3., 0., 1., 4.,
          1., 62., 24., 109., 25., 26., 38., 35., 51., 34., 44., 83.,
          27., 70., 70., 40., 40., 15., 56., 97., 25., 10., 33., 17.,
          37., 0., 2., 23., 0., 0., 0., 0., 0., 117., 60., 75., 33., 62.,
          20., 15., 58., 76., 30., 80., 66., 117., 65., 18., 19., 0.,
          17., 42., 9., 2., 0., 0., 0., 4., 0., 0., 0., 0., 0., 0., 5.,
          117., 39., 17., 31., 65., 31., 23., 75., 70., 26., 21., 48.,
          117., 53., 22., 34., 0., 0., 0., 0., 3., 3., 0., 0., 18., 3.,
          3., 4., 4., 5., 57., 14., 88., 55., 54., 63., 50., 45., 58.,
          86., 42., 32., 53., 47., 84., 69., 59., 42., 5., 2., 2., 2.,
          13., 13., 53., 3., 3., 1., 1., 0., 4., 5., 113., 2., 22., 9.,
          6., 11., 35., 38., 64., 13., 24., 23., 18., 16., 16., 13., 20.,
          14., 42., 22., 15., 16., 23., 12., 19., 26., 14., 4., 7., 3.,
          5., 3., 7., 4., 86., 32., 43., 47., 60., 68., 95., 26., 36.,
          38., 58., 20., 28., 51., 113., 22., 34., 23., 41., 18., 22.,
          16., 113., 21., 22., 3., 5., 2., 4., 4., 5., 3., 113., 37.,
          27., 31., 99., 77., 43., 37., 113., 59., 88., 40., 113., 65.,
          79., 74., 83., 41., 73., 36., 98., 53., 68., 52., 15., 5., 7.,
          3., 2., 7., 13., 3., 60., 42., 39., 25., 20., 24., 25., 26.,
          26., 35., 87., 34., 36., 43., 70., 32., 23., 38., 50., 15.,
          19., 27., 47., 28., 11., 3., 6., 2., 3., 1., 1., 2., 85., 31.,
          36., 42., 61., 40., 45., 23., 52., 40., 65., 24., 42., 34.,
          104., 27., 34., 22., 48., 22., 36., 16., 93., 17., 20., 2., 3.,
          1., 2., 3., 6., 3., 104., 26., 18., 14., 63., 66., 42., 28.,
          93., 48., 73., 34., 94., 67., 83., 63., 62., 36., 59., 26.,
          70., 51., 71., 51., 12., 11., 15., 6., 5., 18., 27., 4., 52.,
          74., 70., 39., 28., 30., 28., 38., 25., 45., 104., 41., 36.,
          46., 79., 38., 25., 49., 79., 21., 21., 31., 48., 30., 6., 14.,
          16., 8., 28., 20., 14., 3., 38., 60., 58., 15., 89., 29., 18.,
          19., 46., 44., 102., 19., 19., 27., 63., 30., 13., 24., 91.,
          26., 39., 32., 35., 14., 34., 24., 17., 16., 15., 10., 23.,
          21., 60., 23., 12., 17., 80., 33., 32., 33., 60., 7., 3., 6.,
          55., 29., 56., 24., 10., 1., 2., 2., 3., 9., 112., 4., 31.,
          27., 53., 16., 25., 26., 112., 20., 58., 32., 49., 37., 63.,
          30., 112., 33., 88., 7., 7., 7., 112., 28., 68., 28., 20., 1.,
          4., 4., 6., 8., 7., 3., 97., 50., 92., 36., 112., 63., 78.,
          64., 111., 48., 59., 49., 104., 65., 89., 56., 78., 13., 8.,
          8., 112., 9., 15., 12., 13., 3., 5., 4., 6., 5., 3., 1., 25.,
          44., 83., 21., 21., 33., 66., 32., 17., 33., 44., 31., 38.,
          32., 30., 17., 27., 12., 17., 19., 80., 8., 8., 6., 6., 2., 3.,
          2., 3., 4., 4., 2., 40., 28., 63., 20., 45., 25., 106., 22.,
          59., 35., 57., 43., 56., 28., 97., 26., 65., 9., 8., 7., 105.,
          16., 36., 15., 15., 1., 3., 3., 6., 5., 3., 2., 75., 48., 86.,
          32., 82., 61., 86., 60., 77., 34., 38., 30., 81., 57., 85.,
          50., 56., 9., 6., 8., 106., 10., 15., 10., 11., 4., 4., 3., 6.,
          5., 3., 2., 28., 53., 106., 24., 24., 39., 79., 37., 21., 53.,
          106., 58., 43., 53., 33., 21., 43., 23., 49., 42., 74., 12.,
          14., 10., 8., 3., 5., 3., 4., 4., 5., 2., 18., 32., 99., 23.,
          37., 35., 60., 20., 12., 16., 106., 54., 51., 40., 28., 13.,
          104., 16., 66., 39., 11., 6., 13., 9., 12., 16., 28., 8., 4.,
          3., 7., 3. ]
      - [ 2., 1., 1., 10., 37., 1., 1., 1., 26., 18., 24., 41., 73., 15.,
          26., 19., 68., 35., 26., 19., 19., 18., 30., 13., 38., 11., 1.,
          1., 1., 1., 2., 1., 5., 3., 3., 6., 61., 5., 3., 2., 87., 53.,
          71., 47., 108., 58., 73., 54., 108., 49., 76., 48., 80., 55.,
          81., 50., 64., 5., 4., 3., 4., 3., 5., 4., 1., 3., 12., 10.,
          87., 6., 4., 1., 60., 54., 108., 34., 108., 32., 36., 27.,
          108., 38., 108., 52., 59., 33., 38., 35., 81., 9., 12., 3., 2.,
          2., 4., 8., 0., 1., 7., 6., 86., 7., 6., 0., 26., 41., 80.,
          25., 103., 36., 86., 17., 108., 25., 66., 40., 27., 23., 67.,
          35., 81., 4., 5., 2., 1., 1., 5., 7., 54., 24., 25., 25., 103.,
          40., 27., 22., 85., 50., 71., 39., 83., 42., 54., 51., 68.,
          41., 74., 47., 76., 41., 58., 41., 87., 23., 31., 24., 35.,
          19., 31., 18., 25., 19., 14., 14., 82., 17., 20., 16., 65.,
          39., 52., 34., 71., 45., 76., 47., 67., 40., 58., 35., 73.,
          56., 74., 48., 89., 19., 21., 18., 29., 23., 31., 20., 22.,
          27., 73., 24., 79., 13., 8., 15., 32., 36., 81., 22., 19., 20.,
          29., 25., 20., 23., 82., 29., 31., 30., 28., 21., 85., 26.,
          70., 24., 24., 21., 14., 17., 34., 19., 46., 19., 101., 24.,
          15., 6., 55., 43., 60., 7., 10., 13., 18., 20., 8., 9., 63.,
          39., 52., 20., 17., 12., 103., 22., 53., 23., 32., 8., 17.,
          24., 1., 0., 0., 7., 27., 0., 0., 0., 20., 15., 14., 43., 78.,
          5., 4., 10., 87., 35., 16., 20., 23., 9., 7., 6., 28., 8., 0.,
          0., 0., 0., 0., 0., 5., 2., 2., 12., 63., 4., 3., 2., 70., 41.,
          57., 56., 108., 44., 67., 44., 108., 50., 58., 38., 53., 41.,
          72., 34., 63., 11., 2., 2., 2., 2., 4., 3., 4., 4., 7., 7.,
          73., 5., 2., 2., 82., 57., 92., 47., 108., 52., 64., 52., 108.,
          52., 96., 51., 80., 57., 71., 50., 71., 6., 7., 3., 3., 3., 4.,
          5., 1., 2., 11., 9., 90., 7., 5., 0., 52., 53., 94., 30., 108.,
          32., 43., 20., 108., 32., 91., 51., 50., 25., 36., 34., 80.,
          8., 9., 2., 1., 1., 4., 8., 0., 0., 4., 1., 29., 1., 0., 0.,
          42., 23., 113., 43., 125., 43., 80., 47., 117., 46., 107., 18.,
          49., 36., 74., 54., 27., 1., 4., 0., 0., 0., 0., 1., 0., 0.,
          0., 2., 46., 0., 0., 0., 59., 28., 59., 43., 125., 18., 35.,
          18., 125., 46., 61., 27., 53., 23., 34., 20., 40., 1., 0., 0.,
          0., 0., 0., 2., 1., 1., 0., 4., 57., 1., 0., 0., 75., 26., 29.,
          40., 125., 29., 25., 14., 125., 40., 30., 24., 88., 23., 25.,
          16., 46., 1., 0., 0., 0., 0., 0., 2., 2., 1., 1., 21., 66., 0.,
          1., 1., 36., 30., 31., 88., 125., 12., 19., 25., 125., 76.,
          31., 36., 32., 22., 23., 12., 51., 16., 0., 0., 0., 0., 1., 1.,
          0., 0., 0., 2., 24., 0., 0., 0., 2., 2., 5., 48., 115., 2., 9.,
          3., 13., 6., 7., 13., 14., 10., 25., 15., 12., 11., 10., 9.,
          9., 14., 41., 13., 0., 0., 0., 2., 42., 0., 0., 0., 57., 23.,
          28., 49., 115., 41., 30., 24., 115., 68., 100., 54., 87., 63.,
          78., 64., 58., 42., 83., 47., 63., 37., 73., 37., 0., 0., 0.,
          1., 45., 0., 0., 0., 30., 20., 13., 13., 115., 33., 23., 15.,
          101., 58., 66., 41., 115., 60., 90., 68., 91., 47., 70., 46.,
          94., 59., 72., 53., 0., 0., 0., 3., 40., 0., 0., 0., 14., 17.,
          37., 27., 115., 7., 4., 10., 35., 32., 57., 26., 23., 20., 30.,
          27., 21., 22., 43., 18., 22., 28., 34., 20., 0., 0., 0., 1.,
          31., 0., 0., 0., 47., 20., 18., 26., 119., 39., 23., 17., 108.,
          59., 78., 47., 96., 59., 63., 58., 66., 39., 69., 43., 72.,
          38., 53., 39., 0., 0., 0., 1., 41., 0., 0., 0., 19., 16., 10.,
          16., 119., 16., 13., 12., 72., 44., 51., 35., 84., 46., 80.,
          53., 69., 39., 56., 33., 71., 55., 70., 44., 0., 0., 0., 4.,
          51., 0., 0., 0., 16., 23., 77., 40., 119., 15., 8., 11., 48.,
          51., 105., 25., 22., 21., 25., 33., 18., 22., 71., 23., 21.,
          25., 32., 19., 0., 0., 0., 3., 59., 0., 0., 0., 19., 13., 55.,
          31., 119., 33., 21., 4., 91., 58., 71., 9., 16., 17., 18., 24.,
          8., 13., 59., 24., 30., 19., 21., 13., 14., 9., 8., 7., 9.,
          12., 37., 13., 12., 11., 11., 10., 14., 26., 47., 14., 118.,
          44., 1., 1., 2., 5., 12., 5., 26., 3., 0., 0., 0., 0., 0., 0.,
          74., 48., 92., 47., 74., 40., 73., 44., 69., 57., 106., 64.,
          85., 51., 83., 45., 118., 31., 37., 27., 27., 17., 35., 18.,
          44., 0., 0., 0., 0., 0., 0., 1., 94., 48., 68., 42., 102., 59.,
          78., 55., 93., 51., 78., 55., 103., 65., 96., 65., 118., 20.,
          18., 17., 32., 24., 37., 28., 38., 0., 0., 0., 0., 0., 0., 1.,
          21., 23., 47., 21., 19., 24., 35., 20., 26., 28., 60., 30.,
          42., 40., 29., 23., 118., 28., 38., 16., 13., 14., 9., 15.,
          28., 1., 0., 0., 0., 0., 0., 0., 77., 41., 69., 40., 82., 39.,
          53., 44., 75., 49., 81., 53., 90., 47., 67., 47., 122., 24.,
          27., 22., 30., 18., 31., 20., 35., 0., 0., 0., 0., 0., 0., 1.,
          63., 38., 56., 33., 68., 51., 74., 42., 67., 43., 60., 41.,
          76., 59., 83., 53., 122., 20., 17., 16., 24., 21., 26., 21.,
          39., 0., 0., 0., 0., 0., 0., 1., 23., 27., 74., 20., 17., 22.,
          33., 21., 24., 25., 110., 45., 51., 41., 26., 23., 122., 43.,
          81., 22., 18., 18., 16., 27., 41., 2., 0., 0., 0., 0., 0., 1.,
          29., 29., 59., 11., 11., 15., 21., 17., 16., 12., 75., 59.,
          84., 22., 18., 15., 122., 37., 59., 17., 21., 7., 23., 38.,
          45., 1., 0., 0., 0., 0., 0., 1. ]
      - [ 6., 2., 2., 19., 69., 2., 3., 5., 26., 18., 33., 58., 69., 13.,
          52., 34., 70., 46., 27., 16., 33., 24., 46., 11., 46., 20., 3.,
          19., 37., 5., 7., 8., 11., 4., 5., 9., 105., 7., 3., 3., 79.,
          51., 52., 43., 106., 54., 48., 51., 106., 43., 45., 33., 69.,
          46., 46., 47., 82., 10., 9., 12., 79., 12., 8., 11., 6., 8.,
          39., 15., 106., 10., 5., 2., 39., 42., 97., 24., 70., 30., 33.,
          19., 79., 30., 106., 47., 43., 24., 42., 31., 64., 21., 73.,
          21., 62., 12., 13., 12., 5., 6., 14., 9., 106., 7., 9., 2.,
          28., 50., 89., 19., 61., 30., 89., 18., 66., 19., 88., 48.,
          28., 19., 87., 27., 55., 10., 23., 11., 51., 10., 17., 7., 72.,
          29., 21., 45., 104., 28., 16., 22., 71., 58., 63., 47., 81.,
          37., 35., 55., 75., 51., 61., 44., 69., 43., 32., 43., 91.,
          24., 16., 14., 38., 20., 28., 20., 36., 24., 17., 14., 104.,
          48., 30., 19., 73., 59., 68., 31., 92., 60., 68., 66., 76.,
          46., 60., 34., 61., 58., 60., 57., 86., 16., 14., 15., 25.,
          13., 13., 23., 11., 18., 55., 16., 56., 26., 10., 5., 16., 23.,
          55., 16., 23., 19., 34., 21., 28., 26., 49., 17., 21., 23.,
          29., 20., 85., 19., 67., 38., 34., 20., 24., 33., 43., 31.,
          93., 17., 65., 27., 20., 9., 29., 25., 60., 9., 9., 8., 27.,
          16., 14., 16., 71., 28., 39., 15., 23., 17., 65., 20., 104.,
          41., 33., 16., 46., 25., 3., 1., 1., 16., 57., 1., 2., 3., 21.,
          20., 51., 60., 72., 7., 28., 20., 98., 46., 41., 24., 41., 12.,
          21., 7., 24., 15., 2., 15., 19., 2., 3., 4., 11., 3., 3., 21.,
          105., 4., 5., 7., 58., 36., 44., 66., 105., 31., 63., 51.,
          105., 54., 35., 24., 63., 42., 62., 28., 81., 21., 6., 22.,
          72., 9., 12., 13., 9., 6., 16., 10., 105., 9., 3., 2., 67.,
          50., 68., 36., 105., 55., 50., 45., 105., 42., 66., 38., 59.,
          41., 45., 48., 78., 13., 30., 15., 78., 13., 7., 12., 6., 8.,
          30., 13., 105., 8., 7., 2., 38., 43., 87., 21., 61., 24., 39.,
          15., 71., 23., 95., 48., 41., 18., 47., 25., 57., 17., 54.,
          17., 58., 10., 14., 9., 1., 0., 0., 2., 62., 2., 3., 2., 46.,
          25., 71., 55., 93., 33., 96., 34., 76., 47., 77., 24., 30.,
          24., 107., 34., 2., 0., 1., 2., 9., 5., 6., 3., 3., 1., 1., 4.,
          78., 2., 2., 2., 75., 31., 79., 58., 115., 29., 62., 46., 115.,
          46., 97., 18., 85., 34., 70., 16., 13., 2., 2., 4., 20., 3.,
          4., 3., 4., 2., 2., 5., 85., 2., 1., 1., 37., 11., 21., 22.,
          115., 7., 8., 8., 115., 16., 15., 17., 115., 9., 8., 5., 23.,
          4., 3., 5., 28., 3., 3., 3., 6., 2., 2., 31., 86., 2., 4., 6.,
          27., 25., 69., 87., 93., 12., 52., 34., 115., 74., 49., 28.,
          47., 21., 37., 10., 34., 22., 4., 28., 35., 4., 6., 7., 1., 1.,
          2., 10., 63., 1., 1., 1., 30., 7., 7., 81., 114., 13., 38.,
          46., 16., 10., 19., 21., 23., 16., 89., 42., 7., 4., 11., 7.,
          10., 18., 66., 10., 5., 1., 2., 5., 98., 1., 1., 1., 74., 21.,
          19., 62., 114., 16., 10., 24., 73., 63., 67., 67., 80., 27.,
