%YAML:1.0
my_svm: !!opencv-ml-svm
   svm_type: C_SVC
   kernel: { type:LINEAR }
   C: 1.2500000000000000e+01
   term_criteria: { epsilon:2.2204460492503131e-16, iterations:100 }
   var_all: 256
   var_count: 256
   class_count: 10
   class_labels: !!opencv-matrix
      rows: 1
      cols: 10
      dt: i
      data: [ 0, 1, 2, 3, 4, 5, 6, 7, 8, 9 ]
   sv_total: 50
   support_vectors:
      - [ 5.13416489e-05, 5.13416489e-05, 9.50844493e-04, 1.31131639e-03,
          -1.53912534e-03, 1.69235910e-03, -2.10237864e-04,
          2.10237864e-04, 1.04337726e-02, 1.19825592e-02,
          -2.83977669e-03, 3.09552848e-02, -4.00869688e-03,
          1.13810431e-02, -1.65630225e-02, 1.83608867e-02,
          1.86151396e-02, 2.24443097e-02, -4.77345614e-03,
          8.13511200e-03, 8.12411215e-03, 1.05589181e-02,
          -3.95866437e-03, 7.27359159e-03, 3.81297595e-03,
          8.81345198e-03, -2.02985154e-03, 7.60774640e-03,
          -2.33911793e-03, 9.30416584e-03, -4.43966273e-04,
          3.64237558e-03, 1.05843544e-02, 1.58664025e-02, 1.88513752e-03,
          1.88513752e-03, 8.67358968e-03, 1.05138877e-02, 1.64962222e-03,
          1.64962222e-03, 1.36407334e-02, 3.36106531e-02,
          -2.57189292e-02, 6.61926866e-02, -1.02548134e-02,
          3.17373462e-02, -4.17728759e-02, 4.98307794e-02,
          2.41940245e-01, 3.20059359e-01, 1.23202711e-01, 1.55588895e-01,
          -3.46760489e-02, 1.38032287e-01, 2.34784605e-03,
          5.18197939e-02, 2.27484461e-02, 6.94663003e-02,
          -7.27007240e-02, 8.04981217e-02, 1.31008066e-02,
          1.74301136e-02, -1.43552246e-02, 3.11356373e-02,
          2.97134065e-05, 7.81714078e-03, 1.59324220e-04, 6.17126795e-03,
          2.43238686e-03, 3.70313413e-03, -9.44973144e-04,
          3.50384670e-03, -8.23471323e-03, 1.12685099e-01,
          -1.77712254e-02, 1.77712254e-02, 4.58847918e-02,
          4.58847918e-02, 5.12862429e-02, 7.46936724e-02, 8.09860975e-02,
          5.94578624e-01, 2.29408056e-01, 2.29408056e-01,
          -5.01600169e-02, 3.13267887e-01, 2.47328639e-01,
          2.47328639e-01, 1.54519947e-02, 5.69186471e-02, 3.87907232e-04,
          9.20880064e-02, -2.96991947e-03, 3.28287482e-02,
          -1.43459002e-02, 3.96903194e-02, 0., 0., -9.77293894e-05,
          1.16212305e-03, -1.16184202e-03, 1.16184202e-03,
          -6.09045790e-04, 6.09045790e-04, 2.98201144e-02,
          4.15534824e-02, -9.77834454e-04, 2.28478797e-02,
          1.64841637e-02, 2.62954514e-02, -2.62073171e-03,
          5.99608338e-03, 2.72316225e-02, 6.94147944e-02,
          -1.18929185e-02, 1.91947762e-02, 3.04760574e-03,
          3.37555744e-02, 7.75527721e-03, 3.40176672e-02, 5.97836729e-03,
          1.16686961e-02, -1.15219122e-02, 1.45622026e-02,
          1.55125407e-03, 2.97793210e-03, -9.50433838e-04,
          4.41976590e-03, 1.72316981e-03, 1.74574344e-03,
          -3.57670500e-03, 3.61774745e-03, 2.57087732e-03,
          2.64671445e-03, -2.95238150e-03, 2.95908120e-03,
          7.40477117e-04, 7.40477117e-04, 5.44873299e-04, 7.33878091e-03,
          -3.66529822e-03, 4.68631741e-03, -5.13955811e-03,
          5.13955811e-03, 9.19576921e-03, 1.30040320e-02, 1.66914007e-03,
          3.62026785e-03, 6.93989731e-03, 1.12172458e-02, 4.66387020e-03,
          1.14319688e-02, 8.25480092e-04, 7.18662189e-03, 1.19344424e-03,
          5.55244414e-03, 2.80802138e-03, 4.30300971e-03, 1.84335095e-05,
          1.69016025e-03, -1.28657394e-03, 8.62993393e-03,
          -8.50461517e-03, 8.50461517e-03, 6.06227759e-03,
          6.16207998e-03, -2.60177860e-03, 8.83393362e-03,
          -4.39007208e-02, 3.07850868e-01, 6.98559778e-03,
          7.43769854e-03, 1.44193366e-01, 1.58373982e-01, 8.05083364e-02,
          8.14125389e-02, 7.52454773e-02, 2.41270974e-01, 9.86224785e-02,
          2.53853112e-01, 8.05168226e-03, 5.23798577e-02,
          -1.33690564e-02, 4.20432314e-02, -2.26767431e-03,
          7.14410609e-03, 3.31658572e-02, 6.48462623e-02,
          -1.44765582e-02, 1.80954933e-02, -1.60482675e-02,
          2.29029413e-02, 3.39860097e-02, 3.50931622e-02, 9.26061347e-03,
          1.17100868e-02, 3.92443873e-02, 5.76191619e-02,
          -8.22292920e-03, 8.88914056e-03, -2.28223279e-01,
          3.62999231e-01, 6.66085333e-02, 2.81373024e-01,
          -2.76701953e-02, 2.76701953e-02, -1.40593285e-02,
          1.79264277e-01, 1.69764504e-01, 2.08077535e-01,
          -1.27912506e-01, 2.22480386e-01, 2.44731858e-01,
          2.54010797e-01, -2.15484142e-01, 2.46993735e-01,
          1.60769690e-04, 4.13786545e-02, -1.32638519e-03,
          1.13188531e-02, 2.79338248e-02, 3.26280519e-02, 7.94144347e-03,
          1.96968578e-02, 4.70050424e-03, 5.77308005e-03,
          -2.54015578e-03, 2.60550226e-03, 1.96974003e-03,
          2.25323066e-03, -4.38480917e-03, 5.68348216e-03,
          2.53291130e-02, 2.77207233e-02, -2.03269087e-02,
          2.57320739e-02, 4.10594642e-02, 4.23324592e-02,
          -1.86107587e-02, 1.89392567e-02, -2.62529543e-03,
          4.17080820e-02, -3.53648770e-03, 1.57446973e-02,
          1.41673107e-02, 1.80503353e-02, -1.43151525e-02,
          3.04191690e-02, -2.89483927e-03, 3.11020273e-03,
          1.29488995e-03, 4.82873945e-03, -1.56096520e-03,
          1.74940843e-03, -2.93336832e-03, 3.31407133e-03 ]
      - [ -1.87827958e-04, 8.12232553e-04, -9.35839926e-05,
          9.42801926e-05, 7.72969157e-04, 7.73201289e-04, 5.28853096e-04,
          6.45570981e-04, 2.38573067e-02, 3.83205079e-02, 7.27967592e-03,
          4.01846990e-02, -3.59778665e-02, 4.37744372e-02,
          7.85630010e-03, 2.05265135e-02, -1.15237059e-02,
          7.63737708e-02, 2.85053771e-04, 4.17724848e-02, 4.74030757e-03,
          7.89138861e-03, 1.42447362e-02, 2.30861530e-02,
          -6.24135695e-03, 1.40177514e-02, -1.55534537e-04,
          2.16339901e-03, -6.45739376e-04, 1.11850956e-03,
          8.90387222e-04, 1.64912664e-03, -4.72529978e-03,
          9.44639463e-03, 2.96871804e-05, 1.06999083e-04, 2.18222570e-03,
          2.47749011e-03, 3.79566196e-03, 3.99867445e-03, 5.66009246e-02,
          3.53956014e-01, 1.42760009e-01, 2.15433791e-01,
          -7.12610632e-02, 1.15949675e-01, 3.62077244e-02,
          1.05917893e-01, -5.33478102e-03, 3.33647698e-01,
          -7.82700181e-02, 2.05306083e-01, -2.79746074e-02,
          1.01734579e-01, 7.59560466e-02, 9.43969637e-02,
          -2.72156522e-02, 3.25851925e-02, 1.23903388e-02,
          2.88118683e-02, -2.08941512e-02, 2.64964066e-02,
          3.05196065e-02, 3.93117033e-02, -8.66482616e-04,
          4.63647163e-03, -9.87650640e-03, 2.46829651e-02,
          -2.07526376e-03, 3.31001636e-03, -1.88501668e-03,
          5.02956193e-03, -5.71885332e-02, 1.54974416e-01,
          2.39240080e-01, 2.64310479e-01, -1.16426162e-01,
          2.19019219e-01, 1.58047691e-01, 2.26860330e-01,
          -5.52302413e-02, 3.41115981e-01, -4.70644012e-02,
          2.98724443e-01, -7.03927800e-02, 8.63788426e-02,
          -9.35962517e-03, 1.92950815e-01, -1.13472668e-02,
          1.13472668e-02, -1.79108046e-03, 4.07273956e-02,
          -2.61843167e-02, 2.61843167e-02, 4.93445247e-03,
          2.92509552e-02, -1.64528901e-04, 9.48165136e-04,
          2.79636333e-06, 1.68887549e-03, -5.77895320e-04,
          9.90236877e-04, -6.77911972e-04, 1.63851422e-03,
          1.58630044e-03, 3.95121239e-02, -4.22159792e-04,
          1.97794195e-02, 9.59963538e-03, 3.29731666e-02, 7.31345918e-03,
          1.94372572e-02, -3.27468757e-03, 1.86568871e-02,
          1.98252033e-02, 3.66329178e-02, -1.41993389e-02,
          2.40001678e-02, -1.47388736e-03, 3.22470777e-02,
          -4.84494539e-03, 4.84494539e-03, 3.36927216e-04,
          3.37166712e-03, -4.42799553e-03, 4.42799553e-03,
          1.24831707e-03, 4.07383731e-03, -3.33707081e-04,
          3.96882533e-04, -4.02255173e-05, 4.02255173e-05,
          6.32099691e-05, 6.32099691e-05, 1.48383187e-04, 3.01536667e-04,
          -7.99221452e-03, 6.17003255e-02, 1.54132780e-03,
          1.54132780e-03, 1.36811542e-03, 2.61967070e-03, 4.55785030e-03,
          4.55785030e-03, 1.69499293e-02, 1.81440040e-02, 2.10071728e-02,
          2.10071728e-02, 3.32298619e-03, 1.65496431e-02, 1.68041862e-03,
          1.68041862e-03, -5.17035509e-03, 6.06777845e-03,
          6.98750198e-04, 1.54165691e-03, -3.57901095e-03,
          4.51592030e-03, 1.06236925e-02, 1.13919256e-02,
          -1.22663111e-03, 1.22663111e-03, -1.60837080e-03,
          1.85196637e-03, -3.91188427e-04, 3.91188427e-04,
          -5.37240994e-04, 2.80261948e-03, -2.40539640e-01,
          3.46885949e-01, 2.19532862e-01, 2.19532862e-01,
          -2.91933380e-02, 3.98528986e-02, 6.81320354e-02,
          6.81320354e-02, 9.63804498e-02, 1.14121825e-01, 8.79820660e-02,
          8.79820660e-02, 1.94060877e-02, 8.07581767e-02, 2.17683874e-02,
          2.17683874e-02, -3.35935242e-02, 4.26540375e-02,
          2.69198138e-02, 3.83729786e-02, -2.64882818e-02,
          3.60452197e-02, 5.08538634e-02, 5.15350923e-02,
          -1.62631029e-03, 1.62631029e-03, -2.60252599e-03,
          2.61802343e-03, -7.74882574e-06, 7.74882574e-06,
          -8.33238941e-04, 1.73966028e-03, -3.59155908e-02,
          1.13989592e-01, 3.95156711e-01, 4.07427490e-01,
          -5.64506277e-02, 5.95458075e-02, 2.54205130e-02,
          2.78643779e-02, -2.42089912e-01, 4.02055264e-01,
          1.36186153e-01, 1.36186153e-01, 8.56948737e-03, 9.85052660e-02,
          7.80588537e-02, 7.80588537e-02, -2.52516959e-02,
          2.61419229e-02, 1.41157880e-02, 2.79169716e-02,
          -4.58150655e-02, 4.78383116e-02, 2.54467148e-02,
          3.69909331e-02, 2.59844473e-05, 2.66074076e-05,
          -2.97660445e-04, 3.58353136e-04, -4.53411885e-05,
          9.79330434e-05, -6.36734243e-04, 6.37357240e-04,
          2.17981695e-04, 3.47386231e-04, 5.93558587e-02, 5.97547293e-02,
          -1.66979693e-02, 1.74141470e-02, -1.14859466e-03,
          1.21959485e-03, -5.15372343e-02, 5.34438565e-02,
          3.55416685e-02, 4.35209870e-02, -7.83313531e-03,
          8.96769762e-03, 1.39732072e-02, 1.53789707e-02,
          -5.11884689e-04, 9.31025308e-04, 1.33134029e-03,
          4.40741144e-03, -2.59771687e-03, 3.99195123e-03,
          5.18125424e-04, 1.32238877e-03 ]
      - [ -3.22213455e-04, 1.12597086e-03, -1.40503352e-03,
          1.62814045e-03, 1.74026238e-04, 2.81448127e-04,
          -5.61033608e-04, 1.02329603e-03, -3.59791098e-03,
          3.59791098e-03, -3.69177177e-03, 3.69177177e-03,
          8.81526736e-04, 8.81526736e-04, 3.74451745e-03, 5.87830506e-03,
          3.75461578e-02, 7.01476410e-02, 2.53045955e-03, 1.74101479e-02,
          1.06374806e-04, 2.38945708e-02, 6.59818621e-03, 3.33884023e-02,
          -3.36790481e-03, 1.26986047e-02, -1.04498025e-03,
          4.27851593e-03, -1.55966158e-03, 3.35172866e-03,
          4.37563611e-03, 6.31242665e-03, 6.43800071e-04, 7.47500744e-04,
          -7.52461515e-03, 8.43701791e-03, -2.56570242e-03,
          2.73097539e-03, -3.87542229e-03, 4.29022498e-03,
          -3.66204940e-02, 3.73675972e-02, -3.75060551e-02,
          4.13274430e-02, -5.86410984e-03, 6.61120843e-03,
          -8.28947593e-03, 1.74381398e-02, 1.05861500e-01,
          3.93179715e-01, 2.12101594e-01, 3.66242915e-01,
          -9.13878679e-02, 1.93355918e-01, 6.71279952e-02,
          9.24701244e-02, 2.28760839e-02, 4.41303067e-02,
          -7.18118995e-02, 9.12537798e-02, 9.92795802e-04,
          1.69744976e-02, -2.07286607e-03, 2.52587982e-02, 0., 0.,
          -1.71734602e-03, 3.25071951e-03, -3.31682269e-03,
          3.31682269e-03, -3.76843335e-03, 3.76843335e-03,
          6.01750538e-02, 1.82652801e-01, 4.76781912e-02, 1.79797515e-01,
          1.41339684e-02, 9.10363048e-02, 4.64045955e-03, 4.77093086e-02,
          -1.60351515e-01, 2.01649964e-01, 1.65245041e-01,
          4.68393147e-01, -3.78002748e-02, 2.68336356e-01,
          7.61676878e-02, 2.57907927e-01, 5.77910915e-02, 9.15635750e-02,
          7.48193078e-03, 2.18621511e-02, 5.24447812e-03, 1.87521465e-02,
          -9.33645817e-04, 1.91274229e-02, -5.56150881e-05,
          1.73784574e-04, 1.01743048e-04, 5.20732487e-04,
          -3.14874953e-04, 3.65170737e-04, -1.34331553e-04,
          3.21285013e-04, 1.40229724e-02, 3.32979225e-02, 7.14612240e-03,
          3.38304527e-02, -4.62949602e-03, 2.30786577e-02,
          1.62310116e-02, 2.78924517e-02, -2.05678772e-03,
          4.50614952e-02, -5.43247396e-03, 2.56265495e-02,
          -1.31480955e-03, 4.56894673e-02, -7.02555198e-03,
          2.35530417e-02, -2.69240001e-03, 3.37908138e-03,
          1.18631078e-02, 1.21096689e-02, -3.74020403e-03,
          8.04439466e-03, 2.97359610e-03, 3.31530999e-03,
          -5.04910073e-04, 1.05977326e-03, 4.08375822e-03,
          4.11972078e-03, -7.16954889e-03, 8.58355593e-03,
          1.60017808e-03, 1.65113120e-03, 1.54593205e-02, 3.22534181e-02,
          -1.12834210e-02, 1.36370668e-02, 6.35485500e-02,
          8.30547512e-02, -2.32372131e-05, 4.56431918e-02,
          -2.83602141e-02, 5.00082970e-02, 1.98149215e-02,
          2.30526943e-02, -1.10138124e-02, 3.11573241e-02,
          4.39509526e-02, 6.74686655e-02, -3.01071280e-03,
          4.71994234e-03, 1.41571648e-03, 3.54821421e-03, 2.08550086e-03,
          5.46133006e-03, 1.72960747e-03, 1.08495839e-02,
          -1.99069995e-02, 1.99069995e-02, 7.84302887e-04,
          7.84302887e-04, 2.96344631e-04, 1.00213941e-03, 2.44752448e-02,
          2.44752448e-02, 6.35310113e-02, 1.04421921e-01, 6.31329790e-02,
          1.24178693e-01, -2.35567261e-02, 1.58573136e-01,
          -1.53473735e-01, 2.04295769e-01, 2.89991442e-02,
          2.03037396e-01, 2.95468234e-02, 1.69085458e-01, 7.55207017e-02,
          4.24314559e-01, -2.53754467e-01, 4.30725902e-01,
          -1.24555305e-02, 1.28042828e-02, 2.23431233e-02,
          4.77800816e-02, -3.26378383e-02, 3.63909416e-02,
          2.33051162e-02, 3.03932372e-02, -1.18454807e-02,
          1.26944045e-02, 9.90283024e-03, 1.01714088e-02,
          -1.12621281e-02, 1.22523895e-02, 1.62958503e-02,
          1.69224907e-02, -1.26566723e-01, 1.34883255e-01,
          2.02284977e-02, 2.02284977e-02, -1.14716347e-02,
          2.68863216e-02, 1.76389456e-01, 1.76389456e-01, 1.49012990e-02,
          1.25603110e-01, 1.98895201e-01, 2.34641477e-01,
          -7.35856593e-02, 2.08067700e-01, 1.57806039e-01,
          1.74054340e-01, -2.16871854e-02, 3.12233716e-02,
          -1.67275628e-03, 2.27803327e-02, 7.75291491e-03,
          3.46928164e-02, 1.34583749e-02, 6.03018329e-02, 6.59697107e-05,
          2.36248350e-04, -4.70656014e-05, 1.94586522e-04,
          4.94424057e-05, 3.77557648e-04, -8.15920939e-05,
          1.28363594e-04, -3.80961574e-04, 4.25648963e-04,
          1.29234437e-02, 1.85057297e-02, -1.75615810e-02,
          3.12457196e-02, -7.05689134e-04, 1.66926149e-03,
          -3.20275165e-02, 3.20275165e-02, 1.02207074e-02,
          1.24314968e-02, -2.30654310e-02, 2.30654310e-02,
          5.09359650e-02, 5.22070751e-02, 2.48225027e-04, 2.06647068e-03,
          3.55241471e-03, 5.89602534e-03, -7.16887135e-03,
          8.87085404e-03, 7.57316957e-05, 7.26195611e-03 ]
      - [ 0., 0., 1.62035285e-04, 1.16154761e-03, -1.28337566e-03,
          1.28337566e-03, -5.29579294e-04, 5.29579294e-04,
          -5.71120391e-03, 1.53914960e-02, 2.92496700e-02,
          4.40254249e-02, -2.29429808e-02, 3.32597382e-02,
          5.47049986e-03, 2.37244684e-02, -3.06168925e-02,
          5.95693961e-02, 2.02589612e-02, 5.35823181e-02,
          -4.87282546e-03, 6.72332197e-03, 8.16346612e-03,
          2.47455761e-02, -4.27897670e-04, 4.27897670e-04,
          -2.72053201e-03, 1.27854962e-02, -1.80484354e-03,
          1.80484354e-03, -5.60992863e-04, 1.99048966e-03,
          -1.48936477e-03, 3.36499396e-03, -1.44365200e-04,
          1.38521625e-03, -8.80468171e-04, 2.56573246e-03,
          7.30763772e-04, 2.90977792e-03, -6.20326446e-03,
          2.05771297e-01, 1.46041587e-01, 2.82566905e-01,
          -4.64095585e-02, 1.27106473e-01, 6.87389150e-02,
          1.04301929e-01, 7.42321927e-03, 3.10153455e-01,
          -3.60030271e-02, 2.45841846e-01, -3.67620923e-02,
          1.41829044e-01, 9.77780595e-02, 1.31784022e-01,
          -1.72751434e-02, 3.56668048e-02, 4.65088896e-03,
          4.38749045e-02, -2.43448168e-02, 3.26931030e-02,
          1.65961292e-02, 3.07898317e-02, -1.68684893e-03,
          1.00672245e-02, -2.58719549e-03, 1.29800113e-02,
          3.24353576e-03, 5.29222935e-03, 6.13615289e-03, 8.48819222e-03,
          -7.08629861e-02, 1.86049685e-01, 2.47372448e-01,
          2.78268576e-01, -1.26832262e-01, 2.24995643e-01,
          1.26247391e-01, 2.58207053e-01, -5.00932685e-04,
          2.85978079e-01, -7.91588351e-02, 3.59612942e-01,
          -4.64779325e-02, 1.13223031e-01, -1.43311294e-02,
          1.57377258e-01, -2.32563857e-02, 2.53685564e-02,
          -2.91006966e-03, 3.10134348e-02, -2.29276475e-02,
          2.39488427e-02, 1.42746149e-02, 2.84598954e-02, 6.37899444e-04,
          1.31949328e-03, -2.33659812e-04, 1.40586565e-03,
          3.41980398e-04, 7.34877482e-04, 6.91418245e-04, 1.67307945e-03,
          -4.96725226e-03, 3.48569378e-02, 9.42384079e-03,
          2.19893586e-02, 6.36413228e-03, 1.89605895e-02, 6.50674710e-03,
          2.40364168e-02, -2.45672534e-03, 2.32448857e-02,
          1.41585236e-02, 3.00869942e-02, -1.52685950e-02,
          3.16768289e-02, -8.38914653e-04, 1.60448682e-02,
          -5.05928649e-03, 5.10152336e-03, -2.76341394e-04,
          3.35437595e-03, -2.14626035e-03, 2.36798171e-03,
          5.05851442e-03, 6.55609323e-03, -6.41680323e-03,
          9.97067243e-03, 2.19729962e-03, 1.03391781e-02, 9.82886646e-04,
          6.12000003e-03, 1.85557269e-03, 3.11144209e-03,
          -5.25545562e-03, 5.25545562e-03, 6.36477545e-02,
          1.70005426e-01, -4.67040055e-02, 4.67040055e-02,
          -6.27208874e-03, 1.20532857e-02, -4.52249683e-02,
          4.83020321e-02, -2.04127915e-02, 2.87492946e-02,
          -2.52727303e-03, 4.02155332e-03, 4.59358143e-03,
          2.53647324e-02, -1.12123642e-04, 5.70293749e-04,
          5.02109993e-04, 1.45001430e-03, 2.01120085e-04, 1.19266729e-03,
          -5.90980635e-04, 2.65719276e-03, -4.20511402e-02,
          7.85770342e-02, 3.96063849e-02, 4.99153696e-02,
          -4.19074185e-02, 5.25016300e-02, 7.86554813e-02,
          8.61751437e-02, 5.91621660e-02, 1.60667643e-01, 6.57410175e-02,
          5.95765531e-01, -1.01652950e-01, 1.55928865e-01,
          -5.03631793e-02, 1.18553393e-01, -2.18405165e-02,
          5.56085631e-02, -2.27384027e-02, 2.34417945e-01,
          -7.13883266e-02, 1.02538571e-01, -9.68649834e-02,
          1.30587548e-01, 3.11404746e-03, 1.08438833e-02, 7.67332735e-04,
          5.13695274e-03, 2.61545344e-03, 1.73565596e-02,
          -2.95679725e-04, 2.15105936e-02, -3.76464240e-02,
          4.85521182e-02, 3.55524570e-02, 5.99919856e-02,
          -7.51579478e-02, 7.84983933e-02, 2.70119086e-02,
          7.79931992e-02, 1.32320538e-01, 2.16674998e-01,
          -5.95884435e-02, 2.11992770e-01, 2.96448581e-02,
          6.40700161e-02, 5.18851960e-03, 8.24026763e-02, 9.64369848e-02,
          4.10040945e-01, 1.14347730e-02, 1.53540075e-01, 5.14001362e-02,
          7.44002089e-02, 5.80752902e-02, 9.73136425e-02, 4.83029662e-03,
          5.23805525e-03, 4.66895010e-03, 8.28062184e-03,
          -8.00903607e-03, 9.65329073e-03, -1.54964533e-03,
          5.70859201e-03, -7.61404727e-03, 9.43086203e-03,
          4.21080692e-03, 4.88985609e-03, -1.13324616e-02,
          1.24641983e-02, 5.55722415e-03, 6.11446332e-03, 1.28256361e-04,
          3.19494605e-02, -7.52076786e-03, 1.25814825e-02,
          5.22863027e-03, 7.95041490e-03, 3.91237903e-03, 1.27647305e-02,
          7.27592409e-03, 4.92445529e-02, 6.68811612e-03, 6.68958947e-02,
          3.20095313e-03, 9.72395390e-03, -1.34641782e-03,
          1.42913917e-02, -5.01187576e-04, 1.57940004e-03,
          2.54890940e-04, 4.43453726e-04, -8.34632956e-04,
          1.51918514e-03, 1.88476313e-03, 2.33075139e-03 ]
      - [ -5.99391758e-04, 1.10599410e-03, -1.32103520e-03,
          1.57808268e-03, 1.59887713e-04, 2.41803675e-04,
          -6.09569484e-04, 8.00383685e-04, -8.98224022e-03,
          9.72333830e-03, -5.25570009e-04, 5.25570009e-04,
          1.81454269e-03, 1.81454269e-03, 5.53625124e-03, 5.89929288e-03,
          3.97934653e-02, 7.54199326e-02, 1.20997276e-04, 2.38478407e-02,
          -9.86883789e-03, 3.53222825e-02, 6.76510669e-03,
          3.08746453e-02, 2.37097126e-03, 1.31290210e-02,
          -3.70843313e-03, 4.74213529e-03, 6.11533003e-04,
          9.50139831e-04, 4.83626267e-04, 4.03938908e-03,
          -2.04271311e-03, 2.06402154e-03, -5.36730140e-03,
          5.97715005e-03, -1.03165256e-03, 1.08492386e-03,
          -2.58213445e-03, 3.64107452e-03, -3.20851407e-03,
          5.93180656e-02, 1.89671312e-02, 2.78590694e-02,
          -1.13739204e-02, 3.36844027e-02, -1.42964849e-03,
          4.04712092e-03, 1.28797174e-01, 5.60512006e-01, 3.03607099e-02,
          3.31136167e-01, -5.80847561e-02, 1.22298665e-01,
          8.60612020e-02, 9.79921967e-02, -1.34379778e-03,
          4.98461872e-02, 1.02807926e-02, 3.25427130e-02, 9.74780065e-04,
          1.71614755e-02, 9.57714766e-03, 1.79086700e-02, 0., 0.,
          -1.99422915e-03, 3.53250862e-03, -3.19889793e-03,
          3.19889793e-03, -2.04746961e-03, 2.04746961e-03,
          6.73399940e-02, 1.76349953e-01, 4.64678556e-02, 1.57610908e-01,
          1.86119117e-02, 7.01793879e-02, -5.01353468e-04,
          3.97676937e-02, -9.63329375e-02, 1.78295523e-01,
          8.26214775e-02, 3.85291129e-01, -2.02966511e-01,
          2.03445807e-01, 1.70443073e-01, 3.23782265e-01, 6.04698546e-02,
          7.82605335e-02, 1.29250614e-02, 2.00910829e-02,
          -2.65689008e-03, 1.86176859e-02, 8.16315180e-04,
          1.31235579e-02, -6.87423744e-05, 1.30418062e-04,
          -1.09101209e-04, 2.82973982e-04, -6.29202754e-04,
          7.17401505e-04, -1.51119821e-04, 2.02240451e-04,
          9.13702510e-03, 3.21778804e-02, 1.05607221e-02, 1.99665390e-02,
          6.07586233e-03, 1.92058161e-02, -1.99826900e-03,
          4.08850424e-03, -7.72523554e-03, 2.71075778e-02,
          9.31284449e-05, 6.03257157e-02, -1.52366078e-02,
          2.17512045e-02, 9.15801246e-03, 3.81775424e-02, 1.58923329e-03,
          5.36471838e-03, 8.82722344e-03, 9.12594516e-03,
          -3.89755005e-03, 8.22127424e-03, 2.16827588e-03,
          2.68907216e-03, -1.06039189e-03, 1.10061502e-03,
          3.45448800e-03, 3.47472401e-03, -3.39446310e-03,
          3.87443113e-03, 1.05251034e-03, 1.06350961e-03, 4.28482983e-03,
          1.73654146e-02, 9.90511198e-03, 2.37478837e-02, 5.36287837e-02,
          6.75148293e-02, -3.37383337e-02, 4.03639860e-02,
          -2.14966517e-02, 4.91277687e-02, 7.20250932e-03,
          1.72557551e-02, -1.32730640e-02, 2.17094515e-02,
          3.76417078e-02, 5.98519556e-02, -2.59370683e-03,
          6.86380267e-03, 2.27281926e-04, 1.47551182e-03, 3.94142047e-03,
          4.36999928e-03, 1.87599275e-03, 1.11879641e-02,
          -2.00348888e-02, 2.14635078e-02, 7.61232455e-04,
          1.10654824e-03, 1.67774048e-03, 2.92301504e-03, 1.96429864e-02,
          2.01264285e-02, 4.61937673e-03, 7.24059641e-02, 1.22270808e-01,
          1.42457649e-01, -4.77220267e-02, 1.97621286e-01,
          -6.06862530e-02, 1.28949568e-01, -4.75241579e-02,
          1.40093833e-01, 1.05359413e-01, 2.05990121e-01,
          -7.69012887e-03, 4.83747780e-01, -1.98828951e-01,
          3.65466505e-01, -1.87537204e-02, 1.92980990e-02,
          2.75032241e-02, 5.18275574e-02, -2.89724618e-02,
          3.76121290e-02, 1.11936890e-02, 1.54009713e-02,
          -5.96649433e-03, 9.36964154e-03, 6.76060421e-03,
          9.20860935e-03, -5.83634479e-03, 1.00377779e-02,
          8.71285982e-03, 1.07262414e-02, -1.39257416e-01,
          1.54580712e-01, 1.45400446e-02, 1.45400446e-02,
          -1.11778211e-02, 2.40781028e-02, 1.75336793e-01,
          1.75336793e-01, 3.43785845e-02, 1.05312020e-01, 1.94585219e-01,
          2.75581479e-01, 3.21762189e-02, 3.23319465e-01, 9.06753987e-02,
          1.33693874e-01, -2.94870026e-02, 3.84495594e-02,
          7.70779152e-04, 3.15165482e-02, -1.46403993e-02,
          2.46366933e-02, 3.74359749e-02, 6.62380829e-02, 6.35358447e-05,
          3.83148057e-04, -1.33363283e-04, 3.90296540e-04,
          -1.00873069e-04, 4.50136868e-04, -1.09854635e-04,
          2.56274419e-04, -5.85793098e-03, 5.92405768e-03,
          1.91661101e-02, 2.43960600e-02, -2.47748941e-02,
          2.51651462e-02, 4.62216651e-03, 8.31287727e-03,
          -3.61514203e-02, 3.61514203e-02, 1.81129184e-02,
          1.83593724e-02, -2.48979349e-02, 2.48979349e-02,
          5.11882827e-02, 5.14927283e-02, 1.01648294e-03, 2.30197073e-03,
          2.59100751e-04, 3.00636003e-03, -8.61143460e-04,
          6.90429611e-03, -3.82681913e-03, 7.91153777e-03 ]
      - [ 1.49801150e-02, 1.53186619e-02, -5.95620892e-04,
          1.06298027e-03, 1.22525189e-02, 1.64452437e-02,
          -2.59031821e-03, 2.59031821e-03, 1.84493046e-02,
          2.25379467e-02, 1.91000884e-03, 5.09032495e-02,
          -3.99871357e-03, 3.79881635e-02, -3.96528095e-02,
          4.49096337e-02, 4.01564734e-03, 1.27080791e-02, 1.72698256e-02,
          3.43797654e-02, -3.12879160e-02, 5.42007498e-02,
          -2.40690005e-03, 1.19917504e-02, 4.78641712e-04,
          4.78641712e-04, 1.52428914e-02, 1.59770809e-02,
          -1.40066519e-02, 1.44259324e-02, -1.59074680e-03,
          1.59074680e-03, 8.82536545e-03, 7.17702210e-02,
          -2.77507547e-02, 5.12044318e-02, 5.30225877e-03,
          2.38843989e-02, -5.47175668e-03, 2.05667727e-02,
          3.23490977e-01, 4.11141783e-01, 3.79788838e-02, 1.92856058e-01,
          1.37889698e-01, 2.23643884e-01, -1.67181827e-02,
          8.50208923e-02, -3.33314165e-02, 1.31733373e-01,
          -7.92638510e-02, 1.71702743e-01, 5.68229891e-02,
          1.21366344e-01, -6.22586049e-02, 2.72866935e-01,
          7.95121957e-03, 7.87457600e-02, 1.41475135e-02, 5.49031496e-02,
          -5.00669377e-03, 1.81225091e-02, 8.45467392e-03,
          1.61608309e-02, -6.36600256e-02, 8.40228796e-02,
          2.61565554e-03, 3.18962559e-02, 7.96317775e-03, 2.19338965e-02,
          2.41566822e-02, 3.44588086e-02, 8.53705555e-02, 1.28961027e-01,
          2.20791787e-01, 2.30776936e-01, -8.59518126e-02,
          2.73806363e-01, 1.89097635e-02, 6.41120672e-02,
          -1.14458594e-02, 1.94545507e-01, -2.52493415e-02,
          1.92290455e-01, 3.84053169e-03, 2.20227465e-01,
          -7.73189366e-02, 1.34745702e-01, 7.77059570e-02,
          1.34707004e-01, -2.47530024e-02, 2.72146463e-02,
          2.69326493e-02, 3.29514928e-02, -8.96598957e-03,
          1.32669210e-02, -1.70428643e-03, 2.41329335e-03,
          -4.96224267e-04, 9.26910259e-04, 1.06615997e-04,
          1.00416562e-03, 7.66267593e-04, 2.79501406e-03,
          -9.42026637e-03, 1.96653418e-02, 3.54197179e-03,
          4.52665705e-03, 1.32083846e-02, 3.54999900e-02, 6.35406449e-02,
          6.65386394e-02, 1.66288614e-02, 3.58296633e-02,
          -1.19840112e-02, 2.35069990e-02, 4.82615791e-02,
          5.59051521e-02, 3.34977284e-02, 4.60143983e-02, 2.09833262e-03,
          6.16676221e-03, -3.56560503e-03, 1.17299873e-02,
          8.28643912e-04, 6.41882280e-03, -3.73160187e-03,
          1.00104911e-02, 9.13561601e-03, 9.53667890e-03, 3.67576082e-04,
          3.67576082e-04, 2.09383620e-03, 2.19554501e-03, 8.84825713e-04,
          8.84825713e-04, 3.16386707e-02, 1.03587963e-01, 1.90909125e-03,
          1.90909125e-03, 1.14679411e-02, 1.27200512e-02, 3.04171466e-03,
          3.04171466e-03, -3.48306005e-03, 7.81609677e-03,
          -7.03463843e-03, 9.94662009e-03, 2.35888944e-03,
          3.82973789e-03, 1.87563617e-03, 7.44195096e-03,
          -1.23513467e-03, 3.36754275e-03, -4.86198161e-03,
          5.28797042e-03, 1.11087586e-03, 1.97192235e-03,
          -3.45230685e-03, 8.41031596e-03, 2.18434185e-02,
          2.57019438e-02, 4.74728551e-03, 4.74728551e-03, 9.31075774e-03,
          9.57449526e-03, 8.77917185e-03, 8.77917185e-03,
          -7.53022283e-02, 6.02919698e-01, 1.56693444e-01,
          1.56693444e-01, 8.89924762e-04, 2.85673868e-02, 5.55006973e-02,
          5.55006973e-02, -3.19542512e-02, 8.65511224e-02,
          -1.00281667e-02, 7.51523003e-02, -1.16840173e-02,
          3.36313993e-02, 1.58877298e-02, 4.54662740e-02,
          -1.89183019e-02, 3.09941676e-02, -1.46947065e-02,
          2.11053584e-02, 7.60045880e-03, 9.20781121e-03, 7.24099390e-03,
          1.56915300e-02, 7.96529185e-03, 1.22193769e-02, 5.91683434e-04,
          1.41070364e-03, 2.88990140e-03, 4.04416909e-03, 2.83152726e-03,
          3.12702451e-03, -5.46900854e-02, 4.88297731e-01,
          1.47040173e-01, 4.50199932e-01, -2.41087507e-02,
          5.99372312e-02, 2.05850862e-02, 3.24553698e-02, 8.16982239e-03,
          1.54073045e-01, -5.56132458e-02, 9.75223184e-02,
          2.55917851e-02, 5.11203855e-02, 1.58313271e-02, 5.82348816e-02,
          -4.17483672e-02, 5.12576066e-02, -1.13484720e-02,
          2.02927496e-02, -3.94902425e-03, 1.19802188e-02,
          1.12365214e-02, 1.75647661e-02, 1.74190383e-04, 6.03172055e-04,
          4.42349556e-04, 9.24262160e-04, -7.49469444e-04,
          2.17530248e-03, 2.75530310e-05, 1.08909619e-03,
          -4.31481749e-02, 9.33319852e-02, 5.74563891e-02,
          5.74563891e-02, -4.26297961e-03, 1.35196187e-02,
          2.38177776e-02, 2.38177776e-02, -8.37189669e-04,
          2.51863543e-02, 5.62073605e-04, 1.16395310e-03, 9.83003620e-03,
          1.02361543e-02, 1.33187231e-02, 1.37650585e-02,
          -1.85385393e-03, 2.99016922e-03, -2.60301260e-03,
          4.28814068e-03, 1.63589299e-04, 2.21013487e-03, 1.38176745e-03,
          5.87153947e-03 ]
      - [ 1.57433096e-03, 5.02280518e-03, -2.50501139e-03,
          2.64601316e-03, 5.78077976e-03, 5.89828100e-03,
          -5.32213226e-03, 1.04723033e-02, -6.22456567e-03,
          1.39845256e-02, 1.33757922e-03, 1.19719207e-02,
          -6.50468143e-03, 5.41963130e-02, 9.21339262e-04,
          6.42643943e-02, 8.90784338e-03, 4.73962687e-02, 2.16334127e-02,
          3.55482623e-02, -3.93406041e-02, 5.79323918e-02,
          3.43114771e-02, 5.01726419e-02, -8.05099774e-03,
          1.08926371e-02, 2.67830503e-04, 8.88134993e-04, 1.40157726e-03,
          2.06535775e-03, 8.80926964e-04, 1.26861711e-03, 2.84124855e-02,
          3.96258235e-02, -6.47835992e-03, 1.25053395e-02,
          2.07279325e-02, 2.55647935e-02, 1.93882210e-03, 1.66552681e-02,
          -1.28247544e-01, 2.37311080e-01, 1.47283241e-01,
          2.06820518e-01, -1.37660112e-02, 2.69495010e-01,
          1.44259214e-01, 2.22395346e-01, 2.24913601e-02, 3.18537265e-01,
          2.83548348e-02, 1.39842048e-01, 1.06859459e-02, 1.02497004e-01,
          1.56955600e-01, 1.92775428e-01, -4.30606641e-02,
          5.58791906e-02, -5.24818432e-03, 9.36118141e-03,
          8.08783714e-03, 1.20025584e-02, 3.17578157e-03, 7.33417179e-03,
          6.20565936e-03, 3.54992524e-02, 1.36690233e-02, 2.57885773e-02,
          -1.33088026e-02, 2.59812474e-02, 5.08681964e-03,
          2.30116714e-02, 2.15935130e-02, 1.30086243e-01, 3.78491282e-02,
          3.87650192e-01, -4.65463251e-02, 2.59694934e-01,
          3.04914489e-02, 2.71089792e-01, 2.59177294e-02, 1.41803086e-01,
          -3.58458869e-02, 2.99910188e-01, 2.20499262e-02,
          7.01365843e-02, -8.62471983e-02, 1.82060614e-01,
          -1.98834259e-02, 3.66684683e-02, -1.31203076e-02,
          2.04702429e-02, -1.35906821e-03, 5.99086750e-03,
          5.57048072e-04, 6.88014831e-03, -3.49756749e-03,
          3.71204712e-03, 7.77090376e-04, 3.59795080e-03,
          -3.27128405e-03, 3.59314750e-03, 6.68911310e-03,
          8.08020122e-03, 4.78246016e-03, 1.14548979e-02,
          -4.16940451e-03, 1.44405849e-02, 5.21066319e-03,
          5.03869765e-02, -2.93056102e-04, 5.46890423e-02,
          3.04053873e-02, 4.72419187e-02, -1.60438586e-02,
          4.28176150e-02, 2.01676842e-02, 4.99413386e-02,
          -3.32727283e-02, 5.02357185e-02, -3.13281431e-03,
          4.05969936e-03, -2.70326412e-03, 2.77738273e-03,
          1.87027687e-03, 1.89852342e-03, -1.46426517e-03,
          2.27189576e-03, 5.59974404e-04, 2.40899320e-03,
          -1.82202994e-03, 3.82610946e-03, -3.16997321e-04,
          6.54806558e-04, -2.37789517e-03, 3.80891166e-03,
          -3.58339073e-03, 1.02763278e-02, 2.55965311e-02,
          7.26284310e-02, -1.58243701e-02, 1.94782931e-02,
          -3.59172653e-03, 5.45088109e-03, 1.48520805e-02,
          2.29895245e-02, -1.22749824e-02, 2.03817878e-02,
          -2.08383100e-03, 5.40302461e-03, -2.36540288e-03,
          5.94506320e-03, -1.83315438e-04, 8.13824066e-04,
          -1.62501150e-04, 5.81051165e-04, -1.85030542e-04,
          1.11933460e-03, -2.60510802e-04, 6.04858913e-04,
          4.94024809e-03, 6.26366911e-03, 3.29034450e-03, 4.58876230e-03,
          -1.79803011e-03, 5.90230478e-03, 5.50410652e-04,
          1.86503481e-03, 8.89061615e-02, 4.23446923e-01, 8.92992839e-02,
          3.79133672e-01, 1.95135754e-02, 4.90772612e-02,
          -1.42591204e-02, 1.99049115e-02, 9.72979367e-02,
          1.99672192e-01, -3.86752300e-02, 1.64236054e-01,
          4.51043854e-03, 2.06491891e-02, -1.56482756e-02,
          2.19927765e-02, -2.81469175e-03, 6.55635167e-03,
          -1.29541103e-03, 6.81240158e-03, 9.06242814e-04,
          3.62153049e-03, -5.03400690e-04, 2.37231958e-03,
          6.75589731e-03, 9.32857487e-03, 2.89750844e-03, 2.89750844e-03,
          -3.79906414e-04, 1.30047579e-03, 1.17785751e-03,
          1.17785751e-03, 2.38112986e-01, 5.51688075e-01,
          -1.90435544e-01, 3.08365375e-01, 2.15670783e-02,
          2.47465707e-02, -1.58083662e-02, 2.19391100e-02,
          6.37179986e-02, 1.01886556e-01, 1.18336186e-01, 1.90711439e-01,
          3.92244523e-03, 1.94294434e-02, -1.36050507e-02,
          1.81564484e-02, -6.66336343e-03, 7.11843232e-03,
          -4.90703154e-03, 6.57234062e-03, -9.51372320e-04,
          1.36259117e-03, -1.70921488e-03, 6.23270124e-03,
          1.34655347e-04, 1.75813941e-04, 9.48969158e-04, 2.55474821e-03,
          -3.18461069e-04, 3.47613008e-04, -2.39330882e-04,
          2.89858814e-04, 2.18420383e-02, 3.31540108e-02,
          -1.93540417e-02, 7.68234357e-02, -3.75975476e-04,
          1.24865153e-03, -1.50193763e-03, 1.50193763e-03,
          -9.36205906e-04, 9.36205906e-04, 2.65055913e-02,
          3.72685455e-02, -2.86181155e-03, 2.86181155e-03,
          -6.77712611e-04, 1.46496412e-03, -4.14195994e-04,
          7.80582195e-04, -5.89552976e-04, 9.98827047e-04,
          -7.90679478e-05, 4.03607701e-04, -4.65405523e-04,
          1.27060385e-03 ]
      - [ 1.06881371e-05, 6.64556428e-05, 3.00906505e-03, 7.24626146e-03,
          -9.89208557e-03, 9.96682327e-03, -1.02558993e-02,
          1.03075299e-02, 7.36070611e-03, 1.50185348e-02,
          -4.13472131e-02, 4.22206298e-02, 9.74826794e-03,
          1.26309739e-02, -6.11346550e-02, 1.15102626e-01,
          -4.96824784e-03, 2.01996882e-02, 5.92219736e-03,
          1.60350557e-02, -4.31914022e-03, 6.76192790e-02,
          3.27804568e-03, 7.04289600e-02, -7.05041923e-04,
          1.70911429e-03, 6.41750824e-03, 9.12908744e-03,
          -1.01457471e-02, 1.11206332e-02, 1.28676789e-03,
          4.41509346e-03, 1.44038796e-02, 4.62011360e-02,
          -6.47502989e-02, 1.08765714e-01, 9.47523396e-03,
          2.56557614e-02, -2.30391677e-02, 3.64828929e-02,
          1.69655591e-01, 4.39551532e-01, 9.13463980e-02, 2.33755797e-01,
          9.35128033e-02, 1.44494906e-01, -3.74405133e-03,
          9.49591771e-02, -1.14085913e-01, 1.70756564e-01,
          -1.76011231e-02, 8.05926248e-02, -9.16706212e-03,
          6.38247207e-02, 6.78848401e-02, 3.67608517e-01,
          -6.79617822e-02, 7.05336258e-02, 6.86657429e-02,
          7.14482293e-02, -3.00765820e-02, 3.13625038e-02,
          3.55146639e-02, 3.72347347e-02, -6.97269440e-02,
          1.12780049e-01, -1.00269308e-02, 5.72183579e-02,
          -1.59748551e-03, 8.66973586e-03, 2.51704603e-02,
          4.00048457e-02, 2.10948847e-02, 2.26256207e-01, 1.68718800e-01,
          3.41998935e-01, -8.75950158e-02, 2.01644421e-01,
          8.40952562e-05, 9.15101990e-02, -5.03581800e-02,
          8.44897777e-02, 1.95072517e-02, 1.89027444e-01,
          -4.72754352e-02, 1.55632004e-01, -9.60308872e-03,
          1.48419306e-01, 1.96501147e-02, 6.71729967e-02,
          -1.11771170e-02, 7.72566125e-02, 3.07929958e-03,
          2.87928749e-02, -2.16374900e-02, 2.54374761e-02,
          -3.63246794e-03, 5.55682927e-03, 6.72609312e-03,
          8.65756162e-03, -8.45021009e-03, 1.25330938e-02,
          2.87659699e-03, 4.66331840e-03, -3.10613811e-02,
          4.19590585e-02, 9.07765608e-03, 3.30328643e-02,
          -2.48658117e-02, 5.46648167e-02, 2.49143764e-02,
          6.77881092e-02, 9.23363958e-03, 1.39145106e-02, 7.13793188e-03,
          5.13062850e-02, -6.66386914e-05, 6.73818663e-02,
          -1.02477723e-04, 3.25982012e-02, 5.04537486e-03,
          6.15234580e-03, -4.39140829e-04, 1.84201577e-03,
          9.69777163e-03, 1.38295898e-02, -1.43625226e-03,
          2.78345845e-03, 1.55265070e-02, 1.72881149e-02,
          -8.28581862e-03, 8.28581862e-03, 2.41839269e-04,
          2.41839269e-04, -4.37637529e-04, 7.31372100e-04,
          4.75754291e-02, 6.49169534e-02, -1.64619423e-02,
          2.99241599e-02, 5.70897013e-03, 7.83066358e-03,
          -7.80331320e-04, 3.97242233e-03, -1.25203766e-02,
          1.91970952e-02, -2.20565614e-03, 2.28430517e-02,
          -6.26389682e-03, 1.55480467e-02, 8.34187493e-03,
          2.10699588e-02, 4.63961856e-03, 7.16771791e-03,
          -1.51172921e-03, 2.46538478e-03, 8.68782308e-03,
          1.28237028e-02, -4.19935212e-03, 8.39359034e-03,
          1.09132141e-01, 1.09551989e-01, -9.23082381e-02,
          9.23256427e-02, 5.29552251e-03, 5.31292893e-03,
          -4.29451279e-03, 5.20920800e-03, 2.99621135e-01,
          5.82601011e-01, -1.36564553e-01, 1.72732085e-01,
          3.44949141e-02, 9.30444971e-02, 2.59362683e-02, 6.88516498e-02,
          -8.59681591e-02, 1.10002846e-01, -2.26868503e-02,
          2.33927906e-01, -6.07253872e-02, 6.75924346e-02,
          7.85080623e-03, 8.36837664e-02, 2.38932054e-02, 2.42900345e-02,
          4.99747752e-04, 2.72626095e-02, 2.89637968e-02, 5.55723980e-02,
          -1.83524266e-02, 2.14062762e-02, -5.91895077e-03,
          1.42074063e-01, -5.59927598e-02, 1.04726136e-01,
          5.99616487e-03, 6.53878646e-03, -2.84209871e-03,
          4.23625670e-03, 8.20908621e-02, 1.76142737e-01, 1.44307554e-01,
          2.24233270e-01, -1.44073647e-02, 8.09056461e-02,
          -2.01311037e-02, 7.67851099e-02, -1.47494674e-01,
          2.69395024e-01, 1.28919203e-02, 2.70522565e-01,
          -1.83847062e-02, 8.85742158e-02, -6.12421334e-03,
          1.01860456e-01, 2.18822937e-02, 2.51001194e-02, 1.78933535e-02,
          1.98991075e-02, -4.86314902e-03, 3.97556238e-02,
          1.85553101e-04, 2.06652889e-03, -5.32433949e-03,
          2.79747043e-02, -8.10360652e-04, 2.45142449e-03,
          4.64413402e-04, 5.58365369e-04, 9.25387139e-04, 1.15178840e-03,
          -7.62022333e-03, 1.33526018e-02, 3.68789770e-02,
          8.08455124e-02, -1.96878030e-03, 1.12969270e-02,
          1.27358991e-03, 4.03929129e-03, -2.33758558e-02,
          3.80022824e-02, 8.65739956e-03, 1.65183898e-02,
          -1.03003276e-03, 1.13124326e-02, 1.34046003e-02,
          2.18413547e-02, -3.08633945e-03, 3.64999659e-03,
          7.27027329e-03, 7.28002330e-03, -7.74352858e-03,
          8.96862149e-03, 6.20505726e-03, 6.41767681e-03 ]
      - [ -1.38495350e-02, 1.45180076e-02, -6.32162765e-03,
          6.71717757e-03, 8.38088163e-05, 4.71892039e-04, 5.17064193e-03,
          8.37551150e-03, 2.94204541e-02, 3.92060429e-02,
          -1.54365655e-02, 3.50887850e-02, 1.42591465e-02,
          2.56712083e-02, -2.64942218e-02, 4.13417071e-02,
          1.51387183e-03, 2.98578907e-02, -4.13669180e-03,
          1.48548055e-02, 4.12643664e-02, 5.68025745e-02, 1.98817383e-02,
          5.31094745e-02, -3.27982067e-04, 2.15468020e-03,
          2.73349648e-03, 4.12945868e-03, -4.57375078e-03,
          6.97856629e-03, -1.67109249e-06, 4.58506169e-03,
          -3.72745213e-03, 3.71093862e-02, -1.24301873e-02,
          1.48135768e-02, 9.77334846e-03, 1.35395285e-02, 4.87458240e-03,
          1.97653845e-02, 2.88099885e-01, 3.92677814e-01,
          -1.01312146e-01, 1.79918244e-01, 1.93231329e-01,
          2.17786714e-01, -3.76525298e-02, 7.80045614e-02,
          -1.57249317e-01, 2.23675802e-01, 5.91574609e-02,
          2.17458099e-01, -1.01531751e-01, 2.36546814e-01,
          1.63560715e-02, 2.25483194e-01, -1.83472820e-02,
          2.98095793e-02, -1.21779358e-02, 2.56197266e-02,
          4.60791914e-03, 1.42377522e-02, 5.04480721e-03, 2.29328871e-02,
          1.94158871e-03, 7.46632693e-03, -2.01799418e-03,
          1.36705032e-02, 2.97830650e-03, 1.66788306e-02,
          -7.02455733e-03, 1.14056543e-02, -1.20677903e-01,
          2.77238131e-01, 9.87264067e-02, 1.95811406e-01,
          -2.79127359e-02, 8.28665718e-02, 1.17089879e-03,
          2.04312101e-01, -6.86198324e-02, 2.00900778e-01,
          2.90655941e-02, 9.26810130e-02, 1.02792564e-03, 2.47578248e-01,
          1.87551547e-02, 2.01208502e-01, 4.17420361e-03, 2.19840053e-02,
          -3.26677933e-02, 4.06772010e-02, 2.37477012e-03,
          1.89201906e-02, -1.08799096e-02, 2.76928078e-02,
          -2.06707767e-03, 2.45401007e-03, 3.92921688e-03,
          5.61798364e-03, -1.61865039e-03, 2.64669186e-03,
          9.45380947e-04, 3.34444596e-03, -2.69836839e-02,
          4.53559011e-02, -6.87964214e-03, 8.58841557e-03,
          6.47147745e-03, 8.79396405e-03, 3.43413651e-02, 4.20210436e-02,
          1.97988236e-04, 1.71489920e-02, 7.12080393e-03, 2.68995110e-02,
          2.31908597e-02, 5.62500805e-02, 3.71832703e-03, 2.85032950e-02,
          1.72222313e-03, 3.34961107e-03, -2.54617678e-03,
          2.83859135e-03, 8.63560475e-03, 8.93615559e-03,
          -2.83001503e-03, 4.44027269e-03, -2.97764491e-04,
          4.38706251e-04, -1.78699571e-04, 2.02297975e-04,
          4.44866600e-04, 4.63698525e-04, 4.18114032e-05, 4.93745843e-04,
          -3.03787626e-02, 6.35866448e-02, 1.25656761e-02,
          1.47849843e-02, 2.02816352e-03, 6.69273594e-03, 1.50379271e-03,
          3.26874922e-03, 2.29392778e-02, 2.78695188e-02, 2.52665486e-02,
          2.65229866e-02, 3.83424317e-03, 7.35215982e-03, 2.66741007e-03,
          2.74041994e-03, -1.56908145e-03, 2.32126843e-03,
          -8.00731126e-04, 1.62469049e-03, -2.22969524e-04,
          1.02011708e-03, -4.93879488e-04, 1.78487587e-03,
          -2.58855475e-03, 3.84639809e-03, -2.55241478e-03,
          2.77717714e-03, 2.14034948e-03, 2.44003278e-03, 2.41068518e-03,
          2.89894850e-03, -2.81477749e-01, 4.33197796e-01,
          1.47204623e-01, 2.88527519e-01, -1.24685420e-02,
          3.03823650e-02, 3.46584395e-02, 4.57409807e-02, 1.41743720e-01,
          1.78162098e-01, 1.87570423e-01, 2.29394689e-01, 2.94731604e-03,
          6.72896951e-02, 1.85620307e-03, 1.70567743e-02,
          -5.26527688e-03, 1.80776063e-02, -6.10615639e-03,
          1.00731896e-02, 2.29815324e-03, 9.09392629e-03, 6.11233350e-04,
          5.11423917e-03, -5.11283195e-03, 6.38910290e-03,
          3.26769405e-05, 3.26769405e-05, 2.63841078e-03, 2.68198038e-03,
          1.20486170e-02, 1.20486170e-02, -1.90699995e-01,
          4.40522879e-01, 5.76465251e-03, 1.33969262e-01, 2.10633390e-02,
          2.97040604e-02, 5.18593863e-02, 5.79717159e-02, 3.71797495e-02,
          8.28900412e-02, 2.76322782e-01, 3.35995704e-01,
          -3.79803441e-02, 5.65474182e-02, -1.26393382e-02,
          3.51100340e-02, 2.17009685e-03, 2.05264632e-02,
          -9.76087246e-03, 2.06098240e-02, 5.51757449e-03,
          6.73087453e-03, -1.86146132e-03, 4.56884317e-03,
          5.12303122e-05, 3.76669457e-04, -1.44420017e-04,
          3.85562191e-04, 7.42105825e-04, 1.04997051e-03, 2.72280769e-04,
          4.28157888e-04, -3.69199179e-02, 6.65952936e-02,
          7.10481405e-03, 1.87271293e-02, 9.81306424e-04, 5.88167924e-03,
          5.56143513e-03, 6.27035880e-03, -8.25956580e-04,
          7.40088709e-03, 3.97808738e-02, 4.21255417e-02,
          -2.67619779e-03, 6.69570966e-03, 2.13854318e-03,
          3.50722903e-03, -8.72576202e-04, 1.95759838e-03,
          -9.11450828e-04, 1.07572007e-03, 1.13821581e-04,
          4.03460494e-04, 1.21505263e-05, 2.10585725e-03 ]
      - [ -3.42840562e-04, 2.24602688e-03, -3.71185102e-04,
          2.80973152e-03, -3.57828033e-03, 4.73577669e-03,
          1.16911368e-03, 3.40383709e-03, -2.36243084e-02,
          2.36478057e-02, 2.14118063e-02, 3.14527377e-02,
          -1.99553277e-02, 2.17175521e-02, 7.03788188e-04,
          2.14016400e-02, 5.70466556e-03, 1.50360484e-02, 4.65493165e-02,
          4.72864844e-02, -9.04930662e-03, 1.58240795e-02,
          -1.82185078e-03, 4.81265923e-03, -3.87110328e-03,
          3.95647204e-03, -1.46376353e-03, 2.14632740e-03,
          -5.43384231e-04, 5.43384231e-04, -6.97687792e-04,
          3.18484916e-03, -8.20788927e-03, 1.70841217e-02,
          -3.80660524e-03, 2.33241580e-02, -1.00295795e-02,
          1.64689030e-02, -1.52647570e-02, 3.14999670e-02,
          -4.67050485e-02, 1.80839583e-01, -1.06124401e-01,
          1.67258516e-01, -3.45161185e-02, 1.10369891e-01,
          -4.18815203e-02, 1.69843122e-01, 2.06998527e-01,
          3.46562743e-01, 6.94675446e-02, 1.92540005e-01,
          -5.70301805e-03, 1.37604713e-01, -1.35929435e-02,
          5.27243577e-02, -3.84930186e-02, 3.93858775e-02,
          4.08943258e-02, 8.55908692e-02, -5.17004989e-02,
          5.24523780e-02, -7.21070124e-03, 2.32919194e-02,
          6.33595802e-04, 4.48305719e-03, -1.74534433e-02,
          2.52435561e-02, 4.59185196e-03, 1.53995622e-02,
          -3.57011855e-02, 5.59444167e-02, 3.40976954e-01,
          3.88239026e-01, -8.09678882e-02, 2.25753516e-01,
          5.72688468e-02, 2.64417797e-01, -1.44220173e-01,
          1.57723621e-01, 3.36552365e-03, 2.30157927e-01, 1.36289060e-01,
          1.48123071e-01, -1.41471224e-02, 7.93987513e-02,
          6.83600232e-02, 1.02527969e-01, -8.77530798e-02,
          9.27270204e-02, 2.30348799e-02, 4.72138599e-02,
          -3.21304537e-02, 4.60804738e-02, 5.27597107e-02,
          5.60466684e-02, 1.41880207e-03, 2.86952569e-03,
          -1.36635825e-03, 1.51646987e-03, 9.66498628e-03,
          1.00434981e-02, -6.96854573e-03, 9.87402629e-03,
          6.34985697e-03, 6.34985697e-03, 4.19843802e-03, 9.51991007e-02,
          -7.59663852e-03, 2.70186197e-02, -7.35084563e-02,
          7.35084563e-02, 4.64693969e-03, 7.55601423e-03, 6.83768764e-02,
          7.44227245e-02, -2.59168036e-02, 2.86729187e-02,
          -5.57553302e-03, 7.19168503e-03, -6.48468873e-03,
          8.11143965e-03, -4.63908864e-03, 6.22931449e-03,
          -9.18583013e-04, 2.49947351e-03, 6.69280125e-05,
          6.01308001e-03, 2.65601208e-03, 3.48721421e-03, 1.15657388e-03,
          1.24572811e-03, 3.70365032e-03, 5.78906666e-03, 1.92490610e-04,
          3.37408099e-04, -8.54520127e-04, 1.78923085e-02,
          4.68771381e-04, 5.78978984e-03, 4.13727394e-04, 1.83103550e-02,
          2.53752084e-03, 1.34122968e-02, 9.96035640e-04, 5.52642252e-03,
          -2.07420327e-02, 3.21512371e-02, -1.79871302e-02,
          2.48196516e-02, -7.43380710e-02, 7.59456083e-02,
          -1.04639516e-03, 1.35420030e-03, 3.33994464e-03,
          5.58919646e-03, -6.70539821e-03, 9.58404411e-03,
          -1.15634187e-03, 4.83624497e-03, 7.39706727e-03,
          7.39706727e-03, 1.40025523e-02, 3.04724444e-02,
          -1.20968735e-02, 2.07561981e-02, -3.44904289e-02,
          3.44904289e-02, 1.53613627e-01, 2.37027556e-01, 1.22617353e-02,
          3.84607404e-01, -3.00308242e-02, 9.95426551e-02,
          -2.29040563e-01, 2.54346699e-01, -6.32623285e-02,
          1.43183008e-01, 3.10426895e-02, 7.85996988e-02, 6.77477494e-02,
          1.02612451e-01, 1.54849648e-01, 2.10422695e-01, 3.87235242e-03,
          2.46330760e-02, 1.90601824e-03, 8.04688875e-03, 1.00221625e-02,
          2.51095630e-02, 9.47317015e-03, 2.43409891e-02, 3.14731263e-02,
          4.82829660e-02, 3.20813693e-02, 1.02174573e-01,
          -1.61487684e-02, 3.66621353e-02, -1.18756080e-02,
          2.72548199e-02, 9.02221873e-02, 2.92250395e-01, 1.72312409e-01,
          3.92296821e-01, -3.68180834e-02, 1.36465743e-01,
          -7.56192254e-03, 1.36498824e-01, 2.66672000e-02,
          5.21110706e-02, 1.37095749e-01, 1.77635714e-01,
          -1.39168695e-01, 2.43945777e-01, -3.78575511e-02,
          9.00144354e-02, -1.79674830e-02, 2.87389997e-02,
          -5.06791705e-03, 2.13426016e-02, -8.98495037e-03,
          9.67872795e-03, 1.67445175e-03, 2.79248897e-02,
          -1.14251068e-03, 1.73001655e-03, 1.11820772e-02,
          1.56905670e-02, -4.73157642e-03, 5.38605405e-03,
          -2.46475358e-03, 4.32500755e-03, -3.73420641e-02,
          3.75131257e-02, 5.98696992e-02, 5.98696992e-02,
          -8.06261078e-02, 8.15707147e-02, 2.67858356e-02,
          2.67858356e-02, -4.72446671e-04, 1.16656069e-02,
          2.24937219e-02, 4.48440798e-02, -2.17781458e-02,
          3.23430784e-02, -9.62234475e-03, 2.80284658e-02,
          2.22255781e-04, 2.41409801e-03, -2.28665932e-03,
          3.29372077e-03, 1.72641571e-03, 3.00114509e-03,
          -2.25026859e-03, 5.00402972e-03 ]
      - [ 1.75335270e-03, 1.77735537e-02, -2.73924577e-03,
          8.39138217e-03, 2.64007319e-03, 6.10737829e-03,
          -1.26660580e-03, 6.76999474e-03, -8.42930283e-03,
          4.48624976e-02, 1.75935104e-02, 3.62291224e-02, 3.51325073e-03,
          2.52302289e-02, -1.26277469e-03, 3.90855186e-02,
          -4.70067710e-02, 6.54491112e-02, 3.78499068e-02,
          4.94931899e-02, -1.14066117e-02, 2.12697033e-02,
          8.98582488e-03, 2.54359785e-02, -4.47642495e-04,
          8.23953096e-03, -2.51941197e-03, 4.71227802e-03,
          8.25519848e-04, 1.63631269e-03, -7.03206460e-04,
          3.75488214e-03, 1.47273522e-02, 4.71049175e-02, 9.78983473e-03,
          4.44951355e-02, 5.11865539e-04, 4.31250446e-02, 9.01831314e-04,
          1.47583289e-02, -1.07623532e-01, 3.56257707e-01,
          7.64766932e-02, 2.26087049e-01, -9.31761637e-02,
          1.72399014e-01, 1.16506638e-02, 1.40178978e-01, 1.04911268e-01,
          3.42277437e-01, 1.31288305e-01, 1.55526578e-01, 5.15475757e-02,
          2.31355399e-01, 1.04218043e-01, 1.35220468e-01,
          -4.84019071e-02, 7.49480277e-02, 1.63595635e-03,
          6.94092084e-03, 8.13298766e-03, 1.58639755e-02, 4.31857705e-02,
          4.78020012e-02, 1.49102707e-03, 8.20351914e-02,
          -1.48850111e-02, 3.54463384e-02, 7.68369390e-03,
          1.29868137e-02, 2.10649520e-03, 1.12170819e-02, 4.60185111e-02,
          3.15142155e-01, 7.62745813e-02, 1.92099035e-01, 4.12102602e-02,
          2.18148202e-01, 2.29854330e-01, 2.48194948e-01, 2.06630342e-02,
          2.38744780e-01, 6.24700002e-02, 1.17752433e-01, 6.43360764e-02,
          1.37197554e-01, 3.17919366e-02, 1.54664800e-01,
          -3.19810808e-02, 3.27802747e-02, 2.69881357e-02,
          3.45973857e-02, -1.94557961e-02, 2.30408758e-02,
          1.42253516e-02, 1.90460067e-02, 6.02697488e-03, 6.51862705e-03,
          1.50275137e-03, 2.65524909e-03, 5.69423288e-03, 8.97405855e-03,
          3.46209912e-04, 1.15439796e-03, -1.43225619e-03,
          4.49630916e-02, 1.58560567e-03, 9.10603348e-03, 1.47740515e-02,
          2.23636162e-02, 2.02344954e-02, 2.89535075e-02, 1.16840228e-02,
          3.94751802e-02, -6.91252388e-03, 1.89589709e-02,
          1.25224879e-02, 3.67610008e-02, -3.02993809e-03,
          3.51672880e-02, -8.18761822e-04, 1.03846623e-03,
          -6.14943623e-04, 2.45475443e-03, -3.49693320e-04,
          2.60535930e-03, -1.19262247e-03, 3.50699434e-03,
          1.31478489e-04, 1.43706900e-04, -8.88767609e-05,
          8.88767609e-05, 2.00020906e-04, 2.00020906e-04,
          -7.76718589e-05, 1.00081663e-04, 5.90008311e-02,
          5.90008311e-02, 4.23047617e-02, 4.23047617e-02, 2.13454361e-03,
          1.26890196e-02, 0., 0., -9.68131330e-03, 1.65938865e-02,
          -2.61308327e-02, 3.77170295e-02, -1.79642069e-04,
          5.05593000e-03, 7.54423440e-04, 1.68952048e-02,
          -2.65769707e-03, 5.45101799e-03, -8.82589899e-04,
          8.82589899e-04, 1.97486556e-03, 1.97486556e-03, 1.82083412e-03,
          4.73513687e-03, -3.08882300e-04, 1.64209644e-03,
          6.78742013e-04, 3.63435340e-03, -5.91629930e-03,
          6.68612914e-03, 9.98766773e-05, 1.71905034e-03, 3.20163876e-01,
          3.20514083e-01, 1.62456214e-01, 2.59772271e-01,
          -1.80220362e-02, 1.43210202e-01, -9.06389654e-02,
          9.16895792e-02, 6.41736463e-02, 6.78638741e-02,
          -1.63653731e-01, 3.29793870e-01, -4.73458543e-02,
          8.45344961e-02, -7.96603635e-02, 8.15054774e-02,
          2.96673062e-03, 2.56118663e-02, -6.07341761e-03,
          1.10730967e-02, 1.01112273e-04, 1.66352782e-02, 6.21817715e-04,
          1.77173559e-02, 9.72716603e-04, 3.72151472e-03,
          -1.03594630e-03, 2.87369755e-03, 1.34163792e-03,
          2.26051360e-03, 9.65296465e-04, 3.57761676e-03, 2.09707886e-01,
          4.99942333e-01, 6.35277256e-02, 6.53728321e-02, 6.99840784e-02,
          1.80151150e-01, 1.43895552e-01, 1.44818112e-01, 9.27612782e-02,
          1.39231831e-01, -2.42039785e-02, 4.63310815e-02,
          7.73418695e-02, 1.86334789e-01, -1.90300848e-02,
          7.10566640e-02, 2.99002719e-03, 5.48230764e-03, 4.03836649e-03,
          8.92991573e-03, 2.52305111e-03, 4.43653688e-02,
          -1.28728542e-02, 4.43088077e-02, -4.69388033e-04,
          4.69388033e-04, -8.09814548e-04, 8.34237493e-04,
          -6.10574643e-05, 6.10574643e-05, -1.95376924e-04,
          9.77710122e-04, 0., 0., 6.20038994e-02, 6.69308305e-02,
          -6.25696406e-02, 6.25696406e-02, -7.84135982e-03,
          7.84135982e-03, -2.20171176e-02, 2.61483174e-02,
          5.17284498e-03, 1.73302554e-02, -1.39110750e-02,
          1.95042025e-02, -1.04426164e-02, 2.81747747e-02,
          -2.45651056e-04, 3.30165931e-04, -2.95548793e-03,
          2.98440061e-03, -1.39858559e-04, 1.77604583e-04,
          -5.25967171e-03, 5.68058621e-03 ]
      - [ 1.82682023e-04, 7.57209433e-04, -1.23109098e-03,
          3.86893889e-03, -2.33503757e-03, 3.61838378e-03,
          -2.17348686e-03, 5.14595071e-03, -7.09269615e-03,
          1.32640647e-02, 1.59404334e-02, 2.24214308e-02,
          -1.64236967e-02, 4.00910117e-02, 2.48412881e-02,
          2.87494529e-02, 5.40975854e-03, 1.53236082e-02,
          -1.22723146e-03, 2.63341423e-02, 1.95605457e-02,
          4.17991653e-02, -7.33662397e-03, 2.09513083e-02,
          -1.28257903e-03, 3.39592621e-03, -1.81141542e-04,
          8.14181170e-04, 5.88295632e-04, 1.34606170e-03, 2.87784217e-03,
          4.66753030e-03, -1.85813149e-03, 1.16184345e-02,
          7.52954045e-03, 2.86320969e-02, -1.88706852e-02,
          4.16025817e-02, -1.33080140e-03, 2.90232338e-02,
          1.75436854e-01, 3.46420437e-01, 1.57064676e-01, 1.84807792e-01,
          -1.15772545e-01, 2.33447105e-01, -2.22597346e-02,
          8.40423852e-02, 3.50187384e-02, 1.26245156e-01,
          -1.00373320e-01, 1.73971266e-01, 9.05294344e-03,
          6.45393133e-02, -7.40429433e-03, 1.08875476e-01,
          7.66707771e-03, 8.10060371e-03, -3.18427309e-02,
          6.35652617e-02, -9.55173094e-03, 2.30547059e-02,
          -1.50355026e-02, 1.59062985e-02, 5.88522002e-04,
          2.94474326e-02, -2.79959524e-04, 1.71280820e-02,
          1.51055614e-02, 2.65333671e-02, -2.80969776e-03,
          3.73821817e-02, 1.35147557e-01, 2.33641148e-01, 6.11187778e-02,
          2.19153270e-01, -2.61442289e-02, 4.01665151e-01,
          -1.81156758e-03, 2.17731014e-01, 1.77329145e-02,
          6.72707781e-02, -9.31616724e-02, 2.08106548e-01,
          -1.41099930e-01, 2.85123616e-01, -1.29900172e-01,
          3.03703159e-01, 2.67957877e-02, 5.77657446e-02, 8.50479235e-04,
          1.80329978e-02, 1.41226815e-03, 3.94981466e-02, 2.14698212e-03,
          3.08661014e-02, -4.54241177e-03, 5.19289169e-03,
          4.04745247e-03, 4.37965197e-03, -3.27585614e-03,
          5.86620020e-03, 2.99417065e-03, 4.04545851e-03, 1.91441420e-02,
          2.53335163e-02, -2.25620810e-02, 3.54295485e-02,
          2.55717598e-02, 3.45902257e-02, -1.61482655e-02,
          6.11394718e-02, -9.05080233e-03, 3.14602070e-02,
          9.20831109e-04, 1.07339304e-02, 1.88842602e-02, 2.74781715e-02,
          5.90205519e-03, 1.44590307e-02, -7.56722875e-05,
          7.37927214e-04, 6.45522401e-03, 9.08887666e-03,
          -2.00082781e-03, 3.33176646e-03, -3.00560467e-04,
          1.43824623e-03, -3.17352731e-03, 3.50842276e-03,
          -1.13129143e-04, 1.49982027e-03, -4.83602460e-04,
          1.07111863e-03, 4.65783494e-04, 2.43699225e-03, 1.73755141e-03,
          1.00258682e-02, -9.20963139e-05, 1.83773678e-04,
          6.47445349e-03, 6.56613102e-03, 2.60454812e-03, 2.89938366e-03,
          2.44451743e-02, 3.27906609e-02, 1.84739742e-03, 1.84739742e-03,
          3.68414447e-02, 4.02517356e-02, 5.84731949e-03, 5.84731949e-03,
          5.59226237e-03, 6.07888820e-03, 3.06783739e-04, 6.30055729e-04,
          8.69144686e-03, 9.71078407e-03, 5.66709263e-04, 9.21765866e-04,
          6.03036606e-04, 5.34085277e-03, -2.10823063e-02,
          2.49305237e-02, -2.40928703e-03, 7.73337297e-03,
          -1.12265041e-02, 1.72062945e-02, 2.82669991e-01,
          2.91964471e-01, 7.38020837e-02, 9.27922651e-02, 1.67386979e-02,
          3.97794731e-02, -9.86724906e-03, 1.66512541e-02,
          2.39537761e-01, 4.88147199e-01, -9.92184877e-03,
          3.55995893e-02, 1.14779189e-01, 1.36321947e-01, 4.34274860e-02,
          6.86564595e-02, -7.01799151e-03, 7.37673044e-03,
          -1.83888059e-02, 1.95054747e-02, -2.28503603e-03,
          2.46440549e-03, 3.52780847e-03, 5.48616312e-02, 8.16660176e-04,
          4.66714520e-03, 1.77917141e-03, 4.50573303e-03,
          -5.57870953e-04, 2.54607177e-03, 2.88268147e-05,
          3.06754373e-03, 1.37761027e-01, 1.65544271e-01, 9.84251797e-02,
          1.30852759e-01, -7.08039030e-02, 7.42194951e-02,
          -5.09208022e-03, 6.95503550e-03, 1.12656042e-01,
          3.03738564e-01, 2.85673290e-01, 3.52209866e-01,
          -1.26065463e-01, 1.87194392e-01, 2.61810571e-02,
          1.22921564e-01, -5.59829595e-03, 2.48777159e-02,
          5.66104753e-03, 1.34734837e-02, 6.63076295e-04, 2.20815782e-02,
          5.40379900e-03, 2.07352433e-02, 9.20748862e-05, 8.01586837e-04,
          -1.37799222e-03, 3.06075439e-03, -1.70671701e-04,
          4.49768966e-04, -9.24306863e-04, 1.12925284e-03,
          3.45198177e-02, 3.47366109e-02, 2.67087598e-04, 1.45546999e-03,
          1.50064640e-02, 1.75404903e-02, -1.81063704e-04,
          1.00731885e-03, 4.54318747e-02, 4.88283411e-02, 7.89029989e-03,
          2.61332672e-02, 1.92913432e-02, 2.37374455e-02,
          -2.69748457e-03, 6.57371059e-03, -6.52879244e-04,
          1.25788630e-03, -8.73151049e-03, 1.02112796e-02,
          -2.08142388e-04, 1.12706330e-03, -1.01342266e-02,
          1.07380953e-02 ]
      - [ 4.35941649e-04, 9.39774909e-04, -8.23591091e-03,
          9.31100827e-03, 4.87891841e-04, 1.27150991e-03,
          -5.87229943e-03, 8.52664094e-03, -3.73057486e-03,
          1.92927290e-02, 1.28988922e-02, 2.83960346e-02,
          -7.88518414e-03, 1.95812304e-02, 9.21963714e-03,
          2.46284138e-02, -1.12264641e-02, 2.68595014e-02,
          3.95510159e-03, 1.35692572e-02, -7.04181334e-03,
          1.28658852e-02, 2.66110487e-02, 3.43864411e-02, 5.35319035e-04,
          1.65787793e-03, 6.70014089e-03, 7.06522772e-03,
          -8.82846490e-03, 1.08025521e-02, 4.28512256e-04,
          2.41115270e-03, -7.45096477e-03, 2.90465709e-02,
          -4.02975967e-03, 1.37871047e-02, 7.46798542e-05,
          1.74808372e-02, -2.03027739e-03, 2.04266347e-02,
          8.47146884e-02, 1.72309235e-01, 9.08098146e-02, 1.52670965e-01,
          1.09168200e-03, 1.19538970e-01, 8.46688077e-03, 3.90726775e-02,
          1.32315487e-01, 2.69242138e-01, -1.85568944e-01,
          2.23910108e-01, 1.47279724e-01, 1.60060123e-01,
          -2.46722534e-01, 3.78631622e-01, -5.15362667e-03,
          2.32557487e-02, -1.68147739e-02, 4.76680137e-02,
          -6.68429164e-03, 1.94143634e-02, -4.32385504e-03,
          3.21440920e-02, 4.00683464e-04, 1.53216990e-02, 4.08242270e-03,
          3.49579491e-02, -2.03129742e-03, 2.19748560e-02,
          -1.20025687e-03, 2.49884706e-02, 9.91007872e-03,
          1.81091726e-01, 9.72598493e-02, 2.83651948e-01,
          -1.16583467e-01, 2.29403153e-01, -1.35089410e-02,
          1.40465125e-01, -1.26501806e-02, 1.22054562e-01,
          -1.11535922e-01, 1.76613703e-01, 7.85019323e-02,
          2.75400460e-01, -1.85800433e-01, 2.36867622e-01,
          2.36605294e-02, 3.04333679e-02, 7.24159367e-03, 2.12528594e-02,
          6.24270272e-03, 2.36739833e-02, -4.33082366e-03,
          1.15993284e-02, -5.01490012e-03, 7.07022799e-03,
          2.51161517e-04, 3.46594444e-03, -4.30786255e-04,
          2.67124339e-03, 1.68097042e-03, 4.06642072e-03, 4.21673380e-04,
          1.22193284e-01, -1.87378712e-02, 2.15820465e-02,
          1.67472921e-02, 2.23427732e-02, 1.52938184e-03, 2.14579608e-02,
          1.39249954e-02, 1.08261108e-01, 4.15222999e-03, 3.81657258e-02,
          1.14394131e-03, 1.89120620e-02, -4.15746449e-03,
          1.87044553e-02, 4.30898136e-03, 6.28541131e-03,
          -5.78001564e-05, 5.47567243e-03, 1.51978189e-03,
          5.01923822e-03, -6.29965507e-04, 1.61000097e-03,
          -6.28953334e-03, 8.21364298e-03, -2.01068865e-03,
          5.90082072e-03, -1.44532090e-03, 2.54921406e-03,
          7.07471650e-03, 1.06773749e-02, -4.81787231e-03,
          1.00138718e-02, -8.91827419e-03, 1.68094952e-02,
          -1.42744713e-04, 7.28275534e-03, -2.02987492e-02,
          3.10893245e-02, -3.85513203e-03, 2.62692999e-02,
          5.38727967e-03, 1.52617963e-02, 4.64254338e-03, 3.10336594e-02,
          3.54492199e-03, 1.91335008e-02, 6.20422652e-04, 6.63899700e-04,
          1.91451248e-03, 1.99235347e-03, 5.21831935e-05, 4.57742577e-03,
          3.51974195e-05, 3.38704383e-04, -1.13376901e-02,
          1.61013957e-02, 1.42320860e-02, 4.80936766e-02,
          -4.45494317e-02, 5.17028943e-02, -9.20439232e-03,
          3.76101807e-02, -4.71439473e-02, 2.45408043e-01,
          4.15951535e-02, 8.56260434e-02, -6.68986589e-02,
          2.65705884e-01, 1.78243876e-01, 2.16411650e-01,
          -2.72049028e-02, 1.70204699e-01, 7.18557388e-02,
          1.78183109e-01, -4.25177179e-02, 1.45353302e-01,
          4.80626673e-02, 1.15023464e-01, 1.39218522e-04, 6.10995479e-03,
          -3.51926894e-03, 6.40492933e-03, 1.79746258e-03,
          6.06664643e-03, 1.13564893e-03, 4.63993661e-03, 1.17010716e-02,
          2.34065335e-02, -6.86570257e-03, 1.37864584e-02,
          3.08065172e-02, 5.94183393e-02, 1.96322333e-02, 4.80268113e-02,
          1.47008762e-01, 3.94021541e-01, 1.14496581e-01, 4.56981212e-01,
          -9.28321108e-03, 8.04249197e-02, -2.69192513e-02,
          2.54429609e-01, -1.93296760e-01, 2.59598374e-01,
          -7.96007663e-02, 1.96047157e-01, -1.80586874e-02,
          7.49404505e-02, -3.27456519e-02, 6.75694346e-02,
          -2.97593791e-03, 6.54096343e-03, -1.39278814e-03,
          1.01264771e-02, -4.00267867e-03, 1.04290657e-02,
          -1.28058984e-03, 8.77152663e-03, -2.15614820e-03,
          2.15614820e-03, 1.09244545e-03, 1.35479784e-02,
          -6.70489576e-03, 6.70489576e-03, 2.12209095e-04,
          3.95479426e-03, 3.73712480e-02, 6.74747601e-02,
          -3.90814990e-02, 5.11747636e-02, 2.07959898e-02,
          3.33635025e-02, -1.22005586e-02, 2.00748164e-02,
          4.55304561e-03, 2.59397179e-02, -5.15035121e-04,
          2.02009212e-02, -2.53956439e-03, 3.54108997e-02,
          5.50313061e-03, 2.38125175e-02, -8.82160617e-04,
          1.85708841e-03, -3.59854917e-03, 5.71031962e-03,
          -7.64502329e-04, 1.20021659e-03, -1.67420995e-03,
          4.21798322e-03 ]
      - [ -6.55859616e-03, 2.10623480e-02, 6.37271814e-03,
          1.00322366e-02, -3.07033677e-03, 3.81905073e-03,
          6.61032135e-03, 9.53193009e-03, -5.73798455e-03,
          5.23661822e-02, 3.42396647e-02, 7.50627145e-02,
          -2.67779399e-02, 5.59795201e-02, 7.01893354e-03,
          2.78826635e-02, -2.27695256e-02, 4.84733693e-02,
          1.71680991e-02, 3.82270738e-02, -4.97320667e-02,
          6.16148002e-02, 2.98619294e-03, 2.58619282e-02, 2.28595993e-04,
          4.03190637e-03, 1.74348836e-03, 6.05872134e-03,
          -2.15900387e-03, 5.10137156e-03, -2.01773318e-03,
          3.68076796e-03, -2.39773886e-03, 6.73548803e-02,
          5.79986256e-03, 1.11159444e-01, -1.02774659e-03,
          3.22458707e-02, -1.13311419e-02, 2.37114187e-02,
          -3.25720571e-02, 2.73637325e-01, 1.31174982e-01,
          3.68153453e-01, -1.61376268e-01, 2.99466491e-01,
          6.79277033e-02, 1.94242150e-01, -6.53814338e-03,
          1.84162483e-01, -2.76121497e-02, 2.59953529e-01,
          -1.56144192e-03, 2.32306808e-01, -5.60368821e-02,
          1.30731508e-01, 8.41535628e-03, 1.36750350e-02,
          -2.06162105e-03, 1.06463600e-02, -4.84557450e-03,
          2.15230603e-02, -6.80888258e-03, 1.83321051e-02,
          7.19594117e-03, 3.56042795e-02, 1.94061249e-02, 5.55129647e-02,
          -8.99590924e-03, 5.39199449e-02, 4.28022351e-03,
          1.67875048e-02, 1.72707532e-02, 2.21648976e-01, 2.23476142e-02,
          1.65969893e-01, 7.28012174e-02, 2.58065164e-01,
          -1.96189564e-02, 3.73960763e-01, -2.87491120e-02,
          2.20809639e-01, 3.92527618e-02, 1.16049029e-01,
          -2.53155944e-03, 8.82150084e-02, 2.69544628e-02,
          9.52542424e-02, 1.43450545e-03, 1.09064383e-02,
          -1.72677252e-03, 8.20058957e-03, 4.09715623e-03,
          2.72036158e-02, -7.08985981e-03, 2.04140078e-02,
          -5.38428721e-04, 1.30003151e-02, 1.96863984e-04,
          1.02874706e-03, 5.69182448e-03, 6.35432592e-03, 9.70597379e-03,
          1.03706280e-02, -7.68007338e-03, 3.27158943e-02,
          -1.82097573e-02, 2.77739130e-02, 6.96119620e-03,
          1.95028000e-02, 1.79274101e-02, 3.14433351e-02,
          -9.80529469e-03, 2.25792918e-02, 2.50842050e-02,
          3.42040360e-02, -1.64007097e-02, 2.82513015e-02,
          1.75164621e-02, 2.47602277e-02, 6.52740768e-04, 2.25911499e-03,
          -2.01472989e-03, 3.30127380e-03, 1.65509526e-03,
          2.32394319e-03, -2.84266565e-03, 4.13578423e-03,
          2.45270482e-03, 6.55867765e-03, 3.30460374e-03, 5.20521170e-03,
          1.08190160e-03, 6.69957791e-03, -3.08323593e-04,
          1.45835127e-03, -3.06572556e-03, 1.47165740e-02,
          -5.94218588e-03, 2.73171328e-02, -5.05246082e-03,
          9.34151746e-03, -5.34905260e-03, 2.63655931e-02,
          4.44446616e-02, 6.79858401e-02, 1.64379496e-02, 3.99968587e-02,
          3.90274543e-03, 5.24829514e-02, 9.14166402e-03, 1.79376975e-02,
          2.76329387e-02, 2.94375625e-02, -3.52829578e-03,
          7.24131754e-03, 1.54548641e-02, 1.54860672e-02,
          -5.75526943e-03, 9.98999551e-03, -3.94261908e-04,
          1.51550155e-02, -6.91154739e-03, 2.50828657e-02,
          1.34468335e-03, 1.68037228e-02, -1.59057826e-02,
          3.26356739e-02, -3.80690396e-02, 7.53585249e-02,
          3.96214239e-02, 1.18525468e-01, -1.53643876e-01,
          1.81680620e-01, -8.56703264e-04, 7.60428458e-02,
          2.66178638e-01, 2.99867570e-01, 2.08329052e-01, 2.43343830e-01,
          -4.84514385e-02, 2.92816758e-01, -1.71153992e-02,
          1.71153992e-02, 3.99301734e-06, 7.09026819e-04,
          -1.44993886e-01, 1.57573909e-01, -2.91051809e-03,
          3.90874548e-03, -1.35301411e-01, 1.35344639e-01,
          -6.26514852e-02, 7.35170841e-02, -1.42360069e-02,
          1.72086470e-02, -9.66619700e-03, 5.18444553e-02,
          4.90597785e-02, 9.86614376e-02, -6.74809283e-03,
          1.06437914e-01, 3.15276906e-02, 9.71281603e-02,
          -3.26346345e-02, 3.71005625e-01, 3.64975110e-02,
          1.50917262e-01, 1.39726743e-01, 2.13133723e-01,
          -5.14002591e-02, 2.06582114e-01, -4.59506921e-02,
          1.79382920e-01, -1.37955800e-01, 2.91540325e-01,
          4.40203631e-03, 4.45141923e-03, -2.13383343e-02,
          3.48405540e-02, 8.38474254e-04, 1.57516282e-02,
          -1.99917257e-02, 2.05349419e-02, -5.35444589e-03,
          6.10428909e-03, -1.72640220e-03, 3.41372169e-03,
          -1.93731132e-04, 1.24351215e-03, -1.81199727e-03,
          1.15620010e-02, 2.88293886e-05, 6.55376585e-03, 4.59122332e-03,
          1.15880221e-02, -2.22816225e-03, 8.13140720e-03,
          -7.10657390e-04, 6.29099598e-03, 1.03094606e-02,
          1.27255647e-02, -1.61584630e-03, 3.11923795e-03,
          9.82813444e-03, 1.28994202e-02, -1.47208490e-03,
          3.88818863e-03, 1.32277608e-03, 1.72479532e-03,
          -6.07729307e-04, 6.79969322e-04, 3.34542221e-03,
          3.37098679e-03, -2.96220358e-04, 5.62245550e-04 ]
      - [ -1.20029016e-03, 7.23913545e-03, 2.34032306e-03,
          3.37926811e-03, 1.35672884e-03, 3.93887935e-03, 4.21544584e-03,
          5.93115436e-03, -9.01129097e-03, 2.66813748e-02,
          2.07046582e-03, 3.50925364e-02, -1.28676081e-02,
          4.40397039e-02, -1.60238445e-02, 5.72188236e-02,
          -6.65704254e-04, 3.67249474e-02, 2.29652133e-02,
          3.55252363e-02, 7.33240228e-03, 3.37883383e-02, 9.80426185e-03,
          2.86861509e-02, 3.62035772e-03, 5.54686505e-03,
          -6.76853466e-04, 8.85449699e-04, 4.54363506e-03,
          4.58107516e-03, 7.18572352e-04, 2.28993641e-03,
          -1.51499435e-02, 2.52322257e-02, 6.18647691e-03,
          1.85316745e-02, -7.66333379e-03, 1.89620536e-02,
          -4.68438584e-03, 1.02451704e-02, 7.32441545e-02,
          1.46146953e-01, 2.01993957e-01, 2.07131311e-01,
          -1.98578387e-02, 1.57043844e-01, 4.15171869e-02,
          6.33138940e-02, 1.49124175e-01, 2.47325584e-01, 1.15764365e-01,
          1.58105388e-01, 1.10267937e-01, 2.86926538e-01, 1.95569228e-02,
          6.73407167e-02, -2.69332575e-03, 7.46709201e-03,
          -1.05297109e-02, 1.25311231e-02, 1.46761257e-02,
          1.53677221e-02, -1.33837797e-02, 1.64718777e-02,
          -2.08037272e-02, 3.12974602e-02, 2.09397394e-02,
          2.09397394e-02, -1.02268457e-02, 2.08192840e-02,
          2.60542333e-02, 2.60542333e-02, 4.98658232e-02, 2.41346940e-01,
          1.19118847e-01, 1.75008014e-01, 2.73580793e-02, 1.56082734e-01,
          1.89796202e-02, 6.05307519e-02, 1.41956583e-01, 4.20391142e-01,
          4.09833975e-02, 4.72367376e-01, 1.34240687e-02, 1.45224348e-01,
          -1.98298413e-02, 1.52974829e-01, 3.35090491e-03,
          1.05496664e-02, -2.35821996e-02, 4.13715355e-02,
          -2.55335239e-03, 1.15771079e-02, -4.10520546e-02,
          5.03998548e-02, -1.30499917e-04, 3.17673618e-03,
          7.82639254e-04, 3.40021355e-03, -8.39805463e-04,
          1.49289845e-03, 1.23927312e-03, 1.52903085e-03, 3.69292088e-02,
          4.56344113e-02, 2.00461987e-02, 2.27091927e-02, 2.94397008e-02,
          5.12581132e-02, 9.75354167e-04, 1.83464342e-03,
          -8.34901258e-03, 2.80730613e-02, 5.82197754e-06,
          2.65213777e-03, 5.81521867e-03, 7.92517792e-03, 6.20074756e-03,
          7.04304269e-03, -1.49186712e-03, 5.37818251e-03,
          8.19338311e-05, 9.26163455e-04, 3.44288710e-04, 1.80083758e-03,
          3.81562836e-03, 4.54783207e-03, 2.70682923e-03, 2.70996848e-03,
          1.62519918e-05, 1.62519918e-05, 2.24237470e-03, 2.25050072e-03,
          2.01807029e-06, 2.01807029e-06, 3.34031247e-02, 4.32103612e-02,
          -1.47689991e-02, 1.61477234e-02, 5.39933750e-03,
          1.53866280e-02, -4.05393395e-04, 7.21358927e-03,
          1.52960876e-02, 2.34288424e-02, 8.52943119e-03, 5.79238497e-02,
          -5.44527313e-03, 3.32233272e-02, -2.66826693e-02,
          2.83433702e-02, 1.51706568e-03, 3.90423997e-03, 3.08692665e-03,
          4.25436255e-03, -4.08397202e-04, 1.12439622e-03,
          1.54792753e-04, 1.29848055e-03, 3.23051447e-03, 5.34847938e-03,
          -1.38810547e-02, 1.50503619e-02, 1.36690028e-03,
          1.59027078e-03, -1.24501968e-02, 1.25716506e-02,
          -1.57673396e-02, 3.02881867e-01, 3.15297358e-02,
          2.29245514e-01, 4.86079752e-02, 2.27036223e-01,
          -9.48916748e-02, 1.41051561e-01, 1.50740981e-01,
          3.01028013e-01, 1.27820536e-01, 1.41865984e-01,
          -6.23642914e-02, 3.39257717e-01, 4.98630330e-02,
          7.95568749e-02, 7.42426328e-03, 1.09356418e-02, 5.39836101e-02,
          5.92655092e-02, -1.85826197e-02, 2.78843883e-02,
          -3.27239795e-05, 2.56639603e-03, 1.81515608e-02,
          3.42073366e-02, -4.98076028e-04, 6.47845306e-03,
          1.49476975e-02, 1.74675193e-02, 9.05702356e-03, 1.27829025e-02,
          -2.02458519e-02, 1.99517861e-01, -4.25126776e-02,
          1.87725365e-01, 3.07098143e-02, 1.48260251e-01, 5.11468947e-02,
          2.31515378e-01, 3.38176340e-02, 1.84780434e-01, 3.36030349e-02,
          3.34441960e-01, -1.08074591e-01, 2.83810228e-01,
          -3.67793031e-02, 1.95995852e-01, 3.72610465e-02,
          5.85151911e-02, 6.16982542e-02, 1.11730590e-01,
          -5.66827552e-03, 4.63584252e-02, -4.51271096e-03,
          2.15068497e-02, 8.38696375e-04, 8.61637015e-03,
          -6.01412961e-03, 8.74466915e-03, 1.91139744e-03,
          4.30200901e-03, -2.69574928e-03, 9.70784388e-03,
          1.08889537e-02, 2.92750392e-02, -5.44894370e-04,
          1.75781408e-03, 2.52106059e-02, 2.64235251e-02, 1.66014209e-02,
          2.46725492e-02, 2.30476223e-02, 4.02864926e-02, 1.48347171e-03,
          3.30993906e-03, 4.91069220e-02, 5.04239798e-02, 2.47294568e-02,
          2.78654769e-02, -4.00214782e-03, 4.62858425e-03,
          -1.18640333e-03, 2.90957070e-03, -3.57611163e-04,
          6.36152050e-04, 1.34455413e-03, 3.87679879e-03 ]
      - [ -1.59412797e-03, 7.44032394e-03, -1.33606745e-03,
          4.51055076e-03, 2.87012335e-05, 1.69606821e-03, 1.89214351e-03,
          4.86033410e-03, -3.54879200e-02, 3.54996957e-02,
          1.45731941e-02, 5.10911681e-02, -5.80380065e-03,
          5.81557490e-03, 2.94421124e-03, 2.21031923e-02, 3.52823548e-02,
          4.73955348e-02, -1.46196561e-03, 8.52920488e-03,
          5.77999167e-02, 6.16139881e-02, -1.45691996e-02,
          2.29184683e-02, -7.52955815e-03, 9.93138831e-03,
          -1.67749042e-03, 2.21471349e-03, 7.46292667e-03,
          1.24929566e-02, 4.35038004e-03, 1.16905402e-02, 2.01555062e-03,
          2.74984092e-02, -1.60528217e-02, 1.96389128e-02,
          2.53753061e-03, 8.46044812e-03, 4.00523050e-03, 6.12003729e-02,
          -1.46001242e-02, 2.25869179e-01, 3.88702117e-02,
          3.15275520e-01, 3.33043921e-04, 7.95747191e-02, 2.43241917e-02,
          1.60453677e-01, 8.91081840e-02, 2.60673523e-01, 1.13939971e-03,
          1.54976875e-01, -3.70466225e-02, 2.93626636e-01,
          4.31828499e-02, 4.30370510e-01, -4.77590859e-02,
          6.59566671e-02, -3.77704985e-02, 6.60464391e-02,
          1.23900566e-02, 2.97892503e-02, -2.73017138e-02,
          8.53757486e-02, -4.00155131e-03, 2.51061041e-02,
          -3.20727308e-03, 1.84454042e-02, 1.00653814e-02,
          1.85594503e-02, 4.83702635e-03, 2.96850838e-02, 2.40725018e-02,
          3.25955659e-01, -7.58041143e-02, 7.89900869e-02,
          6.10623993e-02, 6.52788952e-02, 1.59817934e-02, 8.46467465e-02,
          1.26621425e-01, 1.99769199e-01, -2.65485570e-02,
          2.23427117e-01, 3.78809832e-02, 3.05077612e-01, 1.24975666e-02,
          1.70230418e-01, -5.18062226e-02, 5.55657521e-02,
          -3.53173874e-02, 3.54879797e-02, 2.48644892e-02,
          2.57174335e-02, -1.78326480e-02, 1.32616594e-01,
          8.51471486e-05, 6.22963998e-04, -5.88906836e-03,
          6.58225175e-03, 3.86224070e-04, 7.69115111e-04,
          -8.68208800e-03, 9.19015147e-03, 7.84974080e-03,
          7.84974080e-03, 1.09906811e-02, 1.17554022e-02,
          -1.59004405e-02, 2.11894251e-02, -1.78123673e-03,
          1.78123673e-03, 0., 0., -1.12553569e-03, 1.93463976e-03,
          -2.02754093e-03, 2.02754093e-03, -5.93208103e-03,
          5.93208103e-03, -5.86811081e-03, 6.46949606e-03,
          -4.05996293e-03, 4.20145225e-03, 2.48170528e-03,
          3.19912215e-03, 2.05812859e-03, 9.88654327e-03,
          -1.85390923e-03, 4.62613162e-03, -3.35677550e-03,
          3.62614240e-03, 1.30606303e-03, 1.64536072e-03, 2.39313114e-03,
          4.62449621e-03, 1.46209570e-02, 5.23711108e-02, 1.57098509e-02,
          3.16918194e-02, -1.69557391e-03, 1.94559526e-02,
          5.62400334e-02, 9.25295129e-02, 8.37197155e-03, 8.41937773e-03,
          -1.40482169e-02, 1.62715595e-02, 1.42581889e-03,
          3.31566017e-03, -1.07266346e-03, 1.12006965e-03,
          -4.34409641e-03, 4.63029137e-03, -5.75821707e-03,
          5.79862203e-03, 1.36143262e-05, 6.84335246e-04,
          -5.64935151e-04, 1.34655437e-03, -2.71921512e-02,
          4.04867120e-02, -5.59943654e-02, 6.20695278e-02,
          1.35085010e-03, 6.76571438e-03, -1.26956217e-02,
          2.59174500e-02, 1.19150914e-01, 2.84298509e-01, 1.90730259e-01,
          2.28612706e-01, -1.15392737e-01, 2.94580817e-01,
          -9.20306072e-02, 2.69261777e-01, -3.05452142e-02,
          5.15409671e-02, -1.17034204e-01, 1.25875264e-01,
          4.29082103e-03, 8.04804452e-03, -1.26524605e-02,
          1.63595770e-02, -7.24106934e-03, 8.33690446e-03,
          -2.17367485e-02, 2.22362690e-02, 8.00504407e-04,
          1.18453533e-03, -3.10378731e-03, 1.75582450e-02,
          -2.76735201e-02, 3.49651799e-02, -4.00987789e-02,
          4.43924926e-02, 1.78161601e-04, 3.54911759e-03, 3.36098194e-04,
          5.89433685e-02, 1.43169910e-01, 1.70688719e-01, 1.80386588e-01,
          2.18419060e-01, 5.97209670e-02, 4.35192466e-01, 1.61666458e-03,
          4.19991612e-01, -1.18848011e-01, 1.19952038e-01,
          -1.00894004e-01, 1.03696845e-01, -2.96557159e-03,
          2.96557159e-03, -5.03767189e-03, 2.59173810e-02,
          1.89714937e-03, 4.77633625e-03, -3.48252972e-04,
          4.84055514e-03, 1.34074027e-02, 2.32204385e-02,
          -2.75499281e-03, 1.32534504e-02, -7.28398468e-03,
          7.31202448e-03, -5.04495110e-03, 5.08696446e-03,
          -1.51195214e-04, 1.51195214e-04, 3.44008976e-03,
          6.92869630e-03, 2.89143939e-02, 3.12422514e-02, 2.02849638e-02,
          2.59662904e-02, 3.26492153e-02, 7.92623237e-02, 2.19217651e-02,
          4.59236316e-02, -1.12369116e-02, 1.25921676e-02,
          -2.98560248e-03, 8.38917121e-03, -2.85987766e-03,
          3.35830031e-03, 3.83620791e-04, 3.08508961e-03, 7.56345762e-05,
          5.23068709e-04, 6.46587432e-06, 3.50746588e-04, 3.34927259e-04,
          1.52439182e-03, -1.45148733e-04, 6.23683736e-04 ]
      - [ 2.85452744e-03, 3.29990662e-03, 3.01069487e-03, 5.16315782e-03,
          -1.27487502e-03, 5.67468163e-03, -1.19814300e-03,
          2.11333856e-03, -1.20322639e-02, 3.59268785e-02,
          2.14799028e-02, 4.75011319e-02, -2.45172624e-03,
          4.04335484e-02, -2.63151038e-03, 3.00218351e-02,
          -1.50711481e-02, 4.68955524e-02, 2.12692237e-03,
          3.67234983e-02, 7.83522963e-04, 2.36951709e-02, 7.04492023e-03,
          1.47657050e-02, -2.85144569e-03, 1.14575960e-02,
          -1.93416839e-04, 2.51887506e-03, 6.99457945e-03,
          7.97160808e-03, 5.63942827e-03, 1.46112675e-02, 4.02448792e-03,
          4.94646803e-02, 3.98034370e-03, 3.67077328e-02, 3.05646798e-03,
          3.48652489e-02, 4.49413387e-03, 1.93647407e-02,
          -8.20175707e-02, 1.57748520e-01, -6.92679808e-02,
          2.42375657e-01, -5.65407313e-02, 1.79635212e-01,
          -9.65594500e-02, 2.91862249e-01, -2.72283331e-02,
          2.40761116e-01, 1.10650599e-01, 3.50959301e-01,
          -1.24764614e-01, 1.69228837e-01, 4.76064906e-02,
          1.48692235e-01, 5.81779070e-02, 6.04801178e-02,
          -3.42530431e-03, 4.42758463e-02, 9.76743102e-02,
          1.15745500e-01, -6.57969639e-02, 6.68797269e-02,
          -2.25363672e-02, 4.37425599e-02, -3.21158976e-03,
          4.04952131e-02, -4.56544338e-03, 5.01858490e-03,
          -1.41704537e-03, 2.06086989e-02, 1.07560148e-02,
          2.00125009e-01, -7.19805956e-02, 1.62818581e-01,
          1.31735563e-01, 2.30338290e-01, 3.14240567e-02, 1.82398662e-01,
          5.00429794e-02, 3.33515555e-01, 1.72905270e-02, 1.91461563e-01,
          6.32534772e-02, 8.81002545e-02, -1.04083130e-02,
          1.62314817e-01, 2.34371200e-02, 4.69094887e-02, 9.14504111e-04,
          4.40525077e-02, 4.27607410e-02, 1.01098992e-01,
          -9.71916988e-02, 2.21531153e-01, -3.58974421e-03,
          3.58974421e-03, 7.00472062e-03, 7.24083465e-03,
          -2.11438350e-03, 2.11438350e-03, 1.31992961e-03,
          1.79404893e-03, -2.24374924e-02, 2.88662165e-02,
          3.75984528e-04, 1.17980437e-02, -1.31962625e-02,
          3.88834737e-02, 1.56674422e-02, 3.18426713e-02, 3.12384758e-02,
          4.31827120e-02, 6.38643105e-04, 1.20017063e-02, 3.96310957e-03,
          2.37149876e-02, -1.76734268e-03, 1.20836589e-02,
          -3.41319991e-03, 9.85971745e-03, -3.23161110e-03,
          8.74300674e-03, 3.99581995e-03, 1.25855450e-02,
          -2.63236440e-03, 1.28317224e-02, 1.66809958e-04,
          3.45089217e-03, 2.59284425e-04, 3.24050459e-04, 4.60718619e-03,
          4.68623824e-03, 1.29166443e-03, 1.38276571e-03, 8.76357406e-03,
          9.92283784e-03, -2.77031620e-04, 2.00992264e-03,
          1.64002869e-02, 1.76130086e-02, -8.35430459e-04,
          1.01941510e-03, 1.10623601e-03, 1.48178427e-03,
          -9.59139504e-03, 1.92757193e-02, -3.79934348e-03,
          9.62770917e-03, -3.56712267e-02, 3.57964076e-02,
          -6.49355492e-03, 7.06928503e-03, -1.43308332e-03,
          6.44176872e-03, -2.44860508e-04, 1.06295268e-03,
          -9.55915370e-04, 8.09474196e-03, 8.98913480e-04,
          2.86554615e-03, -1.68280005e-02, 2.39794347e-02,
          -3.02432640e-03, 5.85647253e-03, -3.16089503e-02,
          3.22505683e-02, 3.34410742e-02, 2.51761019e-01, 9.32073295e-02,
          2.62189627e-01, -6.13981001e-02, 2.06209272e-01,
          -1.23562150e-01, 1.68330580e-01, -2.38240004e-01,
          3.26271445e-01, 3.81465182e-02, 2.05194697e-01, 3.77147309e-02,
          1.52926102e-01, 1.65733814e-01, 2.93884039e-01, 2.03571189e-02,
          5.22183999e-02, 2.26668622e-02, 2.66936012e-02, 1.49275502e-02,
          2.66351178e-02, 1.03528816e-02, 1.48488311e-02,
          -2.09182445e-02, 4.95992936e-02, 1.74977034e-02,
          3.66364159e-02, -4.03004372e-03, 3.36209498e-02,
          1.90928988e-02, 3.60263810e-02, -1.09094307e-02,
          3.42038989e-01, 1.31760329e-01, 2.11888611e-01, 1.05163962e-01,
          2.93454558e-01, 2.54343413e-02, 1.49700791e-01,
          -4.19651456e-02, 7.30921179e-02, 4.22469452e-02,
          1.98061258e-01, -6.66088238e-02, 1.04180321e-01,
          -8.02246109e-02, 1.27929255e-01, -2.20298581e-02,
          3.78851183e-02, -8.86567496e-03, 2.90162694e-02,
          -5.70766302e-03, 1.10224485e-02, -7.97958765e-03,
          4.13443372e-02, -3.98989394e-03, 7.72180688e-03,
          -4.50404920e-03, 4.67749033e-03, 1.18587026e-03,
          1.24974223e-03, -3.31576914e-03, 9.99067631e-03,
          -1.18964259e-02, 4.37720828e-02, 1.18678156e-02,
          2.64756288e-02, -3.85932019e-03, 1.36551596e-02,
          2.74967421e-02, 4.36170548e-02, -4.79028327e-03,
          2.48362832e-02, 2.08237004e-02, 2.38692965e-02,
          -2.04376457e-03, 5.53739890e-02, 2.46151574e-02,
          2.74805482e-02, 2.28415825e-03, 2.49797804e-03,
          -3.17879458e-04, 3.33755073e-04, 2.98767723e-03,
          3.05805611e-03, -7.97155139e-04, 1.09097164e-03 ]
      - [ 5.45464340e-04, 7.27697567e-04, -2.92032515e-03,
          3.40804225e-03, 6.38852769e-04, 1.39897119e-03,
          -1.93763815e-03, 2.12630536e-03, 1.10692540e-02,
          2.95538157e-02, 7.66896643e-03, 2.40657814e-02,
          -3.42224981e-03, 1.36342077e-02, -5.38933091e-03,
          2.70054638e-02, -7.43237033e-04, 2.75248685e-03,
          8.35052997e-05, 1.02267182e-03, 2.56894529e-03, 3.58361425e-03,
          1.39840075e-03, 2.42497935e-03, -7.60607945e-04,
          1.05174014e-03, -5.72205579e-04, 1.15295511e-03,
          -1.68168117e-04, 5.82508335e-04, -6.73845585e-04,
          8.18431145e-04, -1.69344479e-03, 1.29423374e-02,
          1.48408990e-02, 1.95697397e-02, -5.64701203e-03,
          1.30477250e-02, 2.39110040e-03, 7.74659216e-03, 1.84754543e-02,
          3.05234164e-01, 7.41865635e-02, 2.12619379e-01, 6.56462321e-03,
          3.80678326e-01, 7.12383687e-02, 1.91706523e-01,
          -1.14868814e-02, 6.85070977e-02, -4.72299531e-02,
          8.95926356e-02, -1.25461677e-02, 2.65429802e-02,
          -3.03291511e-02, 5.55412136e-02, -5.61755802e-03,
          7.35864183e-03, 4.70517948e-03, 1.21604549e-02,
          -8.69016163e-03, 1.04125245e-02, 2.20428396e-04,
          7.23465206e-03, 4.12346469e-03, 1.51653802e-02,
          -2.80785188e-03, 9.00533982e-03, 2.11535860e-03,
          1.04892291e-02, -2.18613655e-03, 2.03288291e-02,
          5.44363633e-02, 2.57235736e-01, 7.06645399e-02, 4.61415917e-01,
          -5.03003411e-02, 3.83657753e-01, -9.65172574e-02,
          4.04881448e-01, -2.60545108e-02, 9.21985656e-02,
          -2.71357652e-02, 1.13090090e-01, -8.49735085e-03,
          3.09861656e-02, -1.01881870e-03, 2.99454369e-02,
          -2.50123790e-03, 7.78239593e-03, -5.58561785e-03,
          1.27779562e-02, 3.43923317e-03, 7.54927844e-03, 7.14741298e-04,
          1.21020330e-02, 6.28170208e-04, 1.52841059e-03,
          -4.08404460e-03, 6.14033639e-03, -3.43170308e-04,
          1.64809509e-03, -1.69525330e-03, 2.44085141e-03,
          2.30769366e-02, 6.62212297e-02, -5.83189679e-03,
          3.89330089e-02, 6.10753335e-03, 3.86481471e-02, 6.60355389e-03,
          2.42494717e-02, -1.92438753e-03, 7.74675934e-03,
          -2.71871942e-03, 3.18705430e-03, 2.94459960e-03,
          4.09333315e-03, 4.19427175e-03, 6.59056893e-03,
          -2.93148623e-04, 4.66770492e-04, -2.95085600e-04,
          3.28663853e-04, 5.17264241e-04, 7.77974550e-04,
          -1.31349021e-04, 7.31623033e-04, -4.00993275e-03,
          5.29672392e-03, 1.72361825e-03, 4.88720369e-03,
          -9.92922229e-04, 2.67258193e-03, 6.78795448e-04,
          4.39816387e-03, 7.31278490e-03, 4.86877188e-02,
          -6.41962420e-03, 1.37657719e-02, 1.58830490e-02,
          2.60852836e-02, 1.29066519e-02, 2.80723702e-02, 6.93235453e-03,
          6.34385720e-02, -6.89719990e-03, 2.22384520e-02,
          6.76871231e-03, 3.39150503e-02, 1.58402380e-02, 2.83778086e-02,
          8.66386836e-05, 6.22957828e-04, -9.19961458e-05,
          1.98649970e-04, 2.35482308e-04, 4.04065184e-04, 5.22381451e-05,
          4.87747195e-04, 1.05172088e-02, 1.69570781e-02, 1.46739073e-02,
          2.73156837e-02, 8.95207096e-03, 4.11793366e-02,
          -1.23178994e-04, 9.76931397e-03, -2.56484840e-02,
          3.63018103e-02, -5.86703345e-02, 1.38211384e-01,
          -1.66036129e-01, 1.76260322e-01, 3.97168426e-03,
          3.30005646e-01, -5.59418425e-02, 2.69082308e-01,
          1.21190846e-01, 1.61767438e-01, -1.08425274e-01,
          2.42477775e-01, 1.19165882e-01, 2.21568123e-01,
          -7.47893995e-04, 2.93289288e-03, -3.82310478e-04,
          1.69970095e-03, -4.48625186e-04, 2.12611374e-03,
          7.10339693e-04, 1.83969445e-03, 7.74288038e-03, 1.51261836e-02,
          7.58043677e-03, 1.37797538e-02, -8.65351933e-04,
          2.02607289e-02, 1.36579142e-03, 1.26397135e-02,
          -9.17616859e-02, 1.86004966e-01, -3.66472751e-02,
          1.92979485e-01, -6.78443760e-02, 2.42778823e-01,
          1.37467161e-01, 3.98346573e-01, 1.18697971e-01, 2.94249773e-01,
          4.01480906e-02, 1.72793105e-01, -3.20403129e-02,
          2.01707453e-01, 2.86891172e-03, 1.55198500e-01,
          -1.84325618e-03, 2.37334846e-03, -6.24895561e-04,
          8.00365699e-04, 7.04043021e-04, 1.49039063e-03, 1.35973282e-03,
          2.05062935e-03, 2.49708933e-03, 3.55462194e-03,
          -8.21358641e-04, 1.34469755e-03, 6.37197867e-04,
          1.15120178e-03, -1.96434135e-04, 1.85441098e-03,
          -9.86437127e-03, 1.92235783e-02, -4.78206808e-03,
          1.29390489e-02, -1.05400858e-02, 6.41972348e-02,
          5.08873388e-02, 7.60421231e-02, 1.15734059e-02, 4.97874357e-02,
          6.89506950e-03, 3.10095157e-02, 1.17509365e-02, 3.38660851e-02,
          1.67500079e-02, 5.15040122e-02, -1.27966341e-04,
          3.83156643e-04, -3.01578286e-04, 4.84808668e-04,
          -6.58499412e-05, 6.58499412e-05, -1.28982327e-04,
          1.28982327e-04 ]
      - [ 6.50282891e-04, 8.07435950e-04, 1.31863519e-04, 2.89688294e-04,
          8.52619414e-04, 1.35446235e-03, 1.27589144e-03, 1.43004523e-03,
          2.22999183e-03, 5.20657422e-03, 7.82037601e-02, 8.26436803e-02,
          -5.30569674e-03, 1.98751725e-02, -2.03269953e-03,
          7.26093445e-03, 8.35737120e-03, 8.35737120e-03, 6.47568563e-03,
          6.47568563e-03, 5.33730490e-04, 6.05377648e-03, 0., 0.,
          5.30780060e-04, 6.78163546e-04, 5.29126322e-04, 7.42339762e-04,
          -2.51457066e-04, 8.97174992e-04, -1.16971023e-04,
          1.72953762e-04, 6.77078869e-03, 2.20085811e-02, 7.24604353e-04,
          5.14597259e-03, 1.63495634e-02, 1.83132496e-02, 9.65238828e-03,
          1.75617225e-02, 7.11978376e-02, 1.89853027e-01, 3.78020644e-01,
          3.78020644e-01, -2.60976627e-02, 8.35857987e-02,
          1.86194908e-02, 1.86194908e-02, -1.73412226e-02,
          2.32858449e-01, 2.08383966e-02, 2.73810804e-01,
          -3.33059318e-02, 8.34971666e-02, 1.36011476e-02,
          8.57684165e-02, 1.39366277e-02, 1.61527526e-02, 1.65765255e-03,
          1.71769643e-03, 6.25184504e-03, 7.06433970e-03, 9.86004132e-04,
          1.04604813e-03, 5.87531226e-03, 1.81874242e-02, 1.41688529e-02,
          1.89974606e-02, 8.75972118e-03, 3.60055678e-02,
          -7.61518488e-04, 6.93519181e-03, 9.33715105e-02,
          2.47278541e-01, 1.54314786e-01, 2.62009114e-01, 5.06965108e-02,
          1.48154184e-01, 6.91237524e-02, 1.26304612e-01, 5.83584309e-02,
          3.70690376e-01, 8.21249485e-02, 3.22538048e-01, 1.33032091e-02,
          9.05760974e-02, 4.43615653e-02, 7.02269822e-02, 1.61342472e-02,
          2.12937575e-02, 5.12324565e-04, 2.18357961e-03, 1.45507324e-02,
          1.72466356e-02, 1.19918166e-03, 1.80245400e-03,
          -2.73073791e-04, 3.53091164e-03, 1.68963033e-03,
          2.56791175e-03, -8.10408674e-04, 5.25519904e-03,
          -1.85589306e-05, 2.15460220e-03, 4.37363796e-03,
          2.80694347e-02, -8.92277749e-04, 2.41679363e-02,
          -1.52415503e-02, 2.58249845e-02, -1.29888188e-02,
          2.96501666e-02, 4.22076173e-02, 1.26891419e-01, 2.67499629e-02,
          3.81300598e-02, 1.01720840e-02, 2.24871170e-02, 1.96836255e-02,
          2.79600583e-02, 3.27641447e-03, 4.65865014e-03, 1.86911813e-04,
          5.94843004e-04, 4.45877807e-03, 4.72548418e-03, 4.76036425e-04,
          5.09436883e-04, 2.52314773e-03, 3.08223325e-03, 2.24711001e-03,
          2.65005324e-03, 1.84884446e-03, 5.15163550e-03, 7.07306957e-04,
          1.49436202e-03, -2.19690017e-02, 2.19690017e-02,
          1.04690054e-02, 5.49106300e-02, -5.49304523e-02,
          5.49304523e-02, -1.84979942e-03, 4.97232042e-02,
          2.25591734e-02, 2.25591734e-02, 2.34330799e-02, 4.95896451e-02,
          -4.49314760e-03, 2.01963186e-02, -1.39341829e-02,
          1.39341829e-02, 1.39393809e-03, 1.39393809e-03, 7.09064421e-04,
          2.42935144e-03, -1.22502644e-03, 1.81322731e-03,
          -1.95277377e-03, 1.95277377e-03, 4.52720607e-03,
          5.61251957e-03, 1.49897113e-02, 1.75721329e-02,
          -1.14083663e-02, 2.68582832e-02, -2.30164922e-04,
          3.65626276e-03, 8.37670863e-02, 3.05616409e-01, 1.16623364e-01,
          4.35149252e-01, 5.17453663e-02, 3.76710355e-01,
          -1.04887853e-03, 2.47320101e-01, 4.47456874e-02,
          1.02635786e-01, -2.44614538e-02, 5.27399592e-02,
          2.70281043e-02, 6.75649196e-02, -5.55805080e-02,
          1.01667427e-01, 0., 0., -1.78744271e-02, 1.87870003e-02,
          -4.56287264e-04, 4.56287264e-04, -2.01111846e-02,
          2.01111846e-02, 1.96034461e-03, 1.44057041e-02,
          -3.12677957e-02, 8.85354504e-02, -2.05188133e-02,
          4.48356792e-02, -9.90329869e-03, 4.29447256e-02,
          1.87551171e-01, 3.62691522e-01, 7.15864450e-02, 4.03112262e-01,
          -3.50051671e-02, 2.56726205e-01, 9.23925266e-03,
          9.35507342e-02, 8.13858490e-03, 1.40217086e-02,
          -1.96684897e-03, 4.67882380e-02, -2.26116236e-02,
          4.07145843e-02, -2.52838619e-02, 3.09353154e-02,
          -8.38623382e-04, 1.97867397e-03, -2.12563518e-02,
          2.35677343e-02, -5.22425544e-05, 4.88144229e-04,
          -1.45054217e-02, 1.57874133e-02, 2.13059527e-03,
          5.00090886e-03, 3.31642432e-03, 4.61427635e-03,
          -1.35598262e-03, 8.42034165e-03, 2.67741084e-03,
          3.63305327e-03, 4.47768439e-03, 2.98459679e-02,
          -2.81118508e-03, 2.81118508e-03, 2.45897956e-02,
          2.55846493e-02, 2.84793973e-02, 3.26683596e-02,
          -4.23300453e-03, 9.24779195e-03, 2.10065875e-04,
          2.42516538e-03, 1.72194141e-05, 2.81961169e-03, 1.23079785e-03,
          2.82803085e-03, -2.17573089e-03, 2.57302774e-03,
          -3.94781353e-04, 4.04226856e-04, 4.43358549e-05,
          5.10397876e-05, 1.58726121e-03, 1.94406090e-03 ]
      - [ -9.03227716e-04, 2.56448402e-03, -5.13394410e-03,
          5.63640706e-03, -2.81001721e-05, 5.08703641e-04,
          -1.34054048e-04, 1.10331387e-03, 7.70089356e-03,
          9.64735914e-03, 2.75446363e-02, 4.55272868e-02,
          -2.97563188e-02, 4.84445654e-02, -2.12143175e-02,
          2.30034962e-02, -2.81680073e-03, 3.01423413e-03,
          -2.65377061e-03, 2.81255995e-03, -4.39425610e-04,
          1.09997380e-03, -9.69872344e-04, 2.24000774e-03,
          -8.27381911e-04, 9.34269978e-04, -3.32363590e-04,
          5.10302838e-04, -1.28727523e-04, 2.66155024e-04,
          4.97647910e-04, 1.25080883e-03, -5.24263829e-03,
          2.57607028e-02, -6.59347605e-03, 2.09677871e-02,
          3.99514660e-03, 9.57291853e-03, 6.43155212e-03, 1.79653261e-02,
          1.60616964e-01, 2.75866687e-01, 2.70623825e-02, 2.59759128e-01,
          8.69321823e-02, 4.19951826e-01, -8.54748413e-02,
          2.81546623e-01, -2.29962468e-02, 3.12981419e-02,
          2.42445171e-02, 7.23300949e-02, -1.08512649e-02,
          1.44069809e-02, 1.05333515e-02, 2.57471614e-02,
          -3.56589374e-03, 7.17277126e-03, -3.45480884e-03,
          4.08675149e-03, 3.82790226e-03, 4.60685929e-03, 1.29927148e-03,
          7.62423640e-03, 1.68133550e-03, 9.97142401e-03, 6.40861131e-03,
          1.94892772e-02, -2.41268752e-03, 1.53957438e-02,
          -7.96681829e-03, 1.20478254e-02, 1.59346431e-01,
          4.18538481e-01, -1.08895510e-01, 1.96776152e-01,
          2.19602853e-01, 2.80828804e-01, 1.64565779e-02, 1.81568265e-01,
          8.09897855e-02, 2.19032094e-01, 7.84876198e-02, 7.84876198e-02,
          1.21108085e-01, 1.43329486e-01, 8.49588662e-02, 8.49588662e-02,
          -3.16917361e-03, 1.63889304e-02, 0., 0., 1.61271151e-02,
          1.61271151e-02, 1.33383526e-02, 1.33383526e-02,
          -7.22568203e-03, 1.26976371e-02, 2.30003684e-03,
          3.03482544e-03, -3.01173044e-04, 2.44994718e-03,
          2.76511582e-03, 4.78069112e-03, 6.60729455e-03, 6.85920287e-03,
          1.08819618e-03, 3.82227525e-02, 1.58313811e-02, 5.11074401e-02,
          -3.98109891e-02, 4.59071696e-02, 2.13298257e-02,
          2.18678322e-02, 2.94088330e-02, 3.60529386e-02, 1.48638606e-03,
          1.41522912e-02, -4.92746476e-03, 5.27432933e-03,
          -2.14711734e-04, 4.23275982e-04, -1.05622443e-04,
          6.24310400e-04, -7.57013913e-04, 9.66071733e-04,
          -4.93480009e-04, 1.87929382e-03, -6.23272033e-04,
          6.47995970e-04, 0., 0., 1.44113146e-04, 1.44113146e-04,
          2.32602982e-03, 2.32602982e-03, -7.26393846e-05,
          4.55579255e-03, 2.49092613e-04, 2.49092613e-04, 1.46224117e-02,
          1.58182047e-02, 2.75411992e-03, 2.75411992e-03, 2.84070498e-03,
          2.84070498e-03, 5.54030994e-05, 5.50660770e-04, 7.58405030e-03,
          8.19011405e-03, -3.96835967e-04, 3.96835967e-04,
          2.72394856e-04, 2.80834181e-04, -1.10568095e-03,
          1.37486414e-03, -1.49876170e-04, 7.33546447e-04,
          -2.83535034e-03, 2.91125802e-03, 4.95621236e-04,
          5.29138185e-03, -1.86182298e-02, 2.22390052e-02,
          -1.10908074e-03, 6.62400620e-03, -3.14911939e-02,
          3.54546867e-02, -4.24359925e-02, 1.04332075e-01,
          -1.68018863e-02, 2.37340868e-01, -5.67353517e-02,
          1.30807698e-01, -1.78322494e-01, 2.21972272e-01,
          -1.29710242e-01, 3.33499700e-01, 1.22301532e-02,
          1.73431307e-01, -1.25039332e-02, 1.72288790e-01,
          -4.44295295e-02, 2.13590235e-01, -9.22891498e-03,
          4.32928689e-02, 3.16440351e-02, 3.98014747e-02,
          -1.34317670e-02, 1.57077014e-02, -1.57554972e-03,
          1.19358739e-02, -1.37004945e-02, 2.79749613e-02,
          1.33160492e-02, 2.56248619e-02, 1.10987504e-03, 1.95785165e-02,
          1.45297404e-02, 2.03581247e-02, -2.51368314e-01,
          3.74696821e-01, 2.60928035e-01, 2.77819842e-01, 6.91495463e-02,
          1.80409685e-01, 1.05449848e-01, 1.08521082e-01,
          -9.85257477e-02, 2.71912694e-01, 1.16912395e-01,
          1.22047909e-01, -5.39350137e-03, 8.72067064e-02,
          1.30909503e-01, 1.69747964e-01, 2.22851709e-02, 3.44582982e-02,
          5.20865666e-04, 1.87024695e-03, 2.66915020e-02, 2.96746399e-02,
          8.75246804e-03, 1.19348355e-02, 1.75693756e-04, 2.29613413e-03,
          7.91040075e-04, 2.47500534e-03, -2.13240797e-04,
          2.15874403e-03, 7.83827621e-04, 2.79482221e-03,
          -4.22826706e-04, 1.43035017e-02, -6.52967778e-04,
          1.55965071e-02, -5.35129663e-03, 1.30982343e-02,
          -1.33090755e-02, 2.45886464e-02, -7.05862232e-03,
          7.34319072e-03, -1.37416776e-02, 2.13846881e-02,
          -9.85576212e-03, 1.06552653e-02, -1.64801907e-02,
          2.50775721e-02, -8.06416967e-04, 1.89022592e-03,
          5.22904145e-03, 7.47531280e-03, -4.03491966e-03,
          4.44825878e-03, -1.83307764e-03, 3.06032738e-03 ]
      - [ 9.72057169e-04, 4.61955369e-03, -1.44782464e-03,
          7.73418555e-03, -1.32221763e-03, 2.23192736e-03,
          -4.91176732e-03, 8.96894466e-03, -5.08730118e-05,
          2.32591983e-02, 5.53559337e-04, 2.51500867e-02,
          -2.88974084e-02, 3.79589871e-02, -2.12957822e-02,
          4.56299148e-02, 5.86818112e-03, 7.24940002e-03, 2.49917191e-02,
          4.11038473e-02, -1.73554558e-03, 9.60666593e-03,
          -1.81202486e-03, 6.36475347e-03, -9.11460666e-04,
          1.04959996e-03, -1.14630522e-04, 1.78327304e-04,
          3.06049798e-04, 6.89526089e-04, 1.49402523e-03, 1.79182587e-03,
          1.54392840e-02, 4.49014790e-02, 5.08409180e-03, 4.46590558e-02,
          -1.26363989e-02, 1.99520588e-02, -1.82343123e-03,
          4.74071503e-02, -1.45158812e-01, 1.87045902e-01,
